tree
version=v3
num_class=3
num_tree_per_iteration=3
label_index=0
max_feature_idx=644
objective=multiclass num_class:3
feature_names=Column_0 Column_1 Column_2 Column_3 Column_4 Column_5 Column_6 Column_7 Column_8 Column_9 Column_10 Column_11 Column_12 Column_13 Column_14 Column_15 Column_16 Column_17 Column_18 Column_19 Column_20 Column_21 Column_22 Column_23 Column_24 Column_25 Column_26 Column_27 Column_28 Column_29 Column_30 Column_31 Column_32 Column_33 Column_34 Column_35 Column_36 Column_37 Column_38 Column_39 Column_40 Column_41 Column_42 Column_43 Column_44 Column_45 Column_46 Column_47 Column_48 Column_49 Column_50 Column_51 Column_52 Column_53 Column_54 Column_55 Column_56 Column_57 Column_58 Column_59 Column_60 Column_61 Column_62 Column_63 Column_64 Column_65 Column_66 Column_67 Column_68 Column_69 Column_70 Column_71 Column_72 Column_73 Column_74 Column_75 Column_76 Column_77 Column_78 Column_79 Column_80 Column_81 Column_82 Column_83 Column_84 Column_85 Column_86 Column_87 Column_88 Column_89 Column_90 Column_91 Column_92 Column_93 Column_94 Column_95 Column_96 Column_97 Column_98 Column_99 Column_100 Column_101 Column_102 Column_103 Column_104 Column_105 Column_106 Column_107 Column_108 Column_109 Column_110 Column_111 Column_112 Column_113 Column_114 Column_115 Column_116 Column_117 Column_118 Column_119 Column_120 Column_121 Column_122 Column_123 Column_124 Column_125 Column_126 Column_127 Column_128 Column_129 Column_130 Column_131 Column_132 Column_133 Column_134 Column_135 Column_136 Column_137 Column_138 Column_139 Column_140 Column_141 Column_142 Column_143 Column_144 Column_145 Column_146 Column_147 Column_148 Column_149 Column_150 Column_151 Column_152 Column_153 Column_154 Column_155 Column_156 Column_157 Column_158 Column_159 Column_160 Column_161 Column_162 Column_163 Column_164 Column_165 Column_166 Column_167 Column_168 Column_169 Column_170 Column_171 Column_172 Column_173 Column_174 Column_175 Column_176 Column_177 Column_178 Column_179 Column_180 Column_181 Column_182 Column_183 Column_184 Column_185 Column_186 Column_187 Column_188 Column_189 Column_190 Column_191 Column_192 Column_193 Column_194 Column_195 Column_196 Column_197 Column_198 Column_199 Column_200 Column_201 Column_202 Column_203 Column_204 Column_205 Column_206 Column_207 Column_208 Column_209 Column_210 Column_211 Column_212 Column_213 Column_214 Column_215 Column_216 Column_217 Column_218 Column_219 Column_220 Column_221 Column_222 Column_223 Column_224 Column_225 Column_226 Column_227 Column_228 Column_229 Column_230 Column_231 Column_232 Column_233 Column_234 Column_235 Column_236 Column_237 Column_238 Column_239 Column_240 Column_241 Column_242 Column_243 Column_244 Column_245 Column_246 Column_247 Column_248 Column_249 Column_250 Column_251 Column_252 Column_253 Column_254 Column_255 Column_256 Column_257 Column_258 Column_259 Column_260 Column_261 Column_262 Column_263 Column_264 Column_265 Column_266 Column_267 Column_268 Column_269 Column_270 Column_271 Column_272 Column_273 Column_274 Column_275 Column_276 Column_277 Column_278 Column_279 Column_280 Column_281 Column_282 Column_283 Column_284 Column_285 Column_286 Column_287 Column_288 Column_289 Column_290 Column_291 Column_292 Column_293 Column_294 Column_295 Column_296 Column_297 Column_298 Column_299 Column_300 Column_301 Column_302 Column_303 Column_304 Column_305 Column_306 Column_307 Column_308 Column_309 Column_310 Column_311 Column_312 Column_313 Column_314 Column_315 Column_316 Column_317 Column_318 Column_319 Column_320 Column_321 Column_322 Column_323 Column_324 Column_325 Column_326 Column_327 Column_328 Column_329 Column_330 Column_331 Column_332 Column_333 Column_334 Column_335 Column_336 Column_337 Column_338 Column_339 Column_340 Column_341 Column_342 Column_343 Column_344 Column_345 Column_346 Column_347 Column_348 Column_349 Column_350 Column_351 Column_352 Column_353 Column_354 Column_355 Column_356 Column_357 Column_358 Column_359 Column_360 Column_361 Column_362 Column_363 Column_364 Column_365 Column_366 Column_367 Column_368 Column_369 Column_370 Column_371 Column_372 Column_373 Column_374 Column_375 Column_376 Column_377 Column_378 Column_379 Column_380 Column_381 Column_382 Column_383 Column_384 Column_385 Column_386 Column_387 Column_388 Column_389 Column_390 Column_391 Column_392 Column_393 Column_394 Column_395 Column_396 Column_397 Column_398 Column_399 Column_400 Column_401 Column_402 Column_403 Column_404 Column_405 Column_406 Column_407 Column_408 Column_409 Column_410 Column_411 Column_412 Column_413 Column_414 Column_415 Column_416 Column_417 Column_418 Column_419 Column_420 Column_421 Column_422 Column_423 Column_424 Column_425 Column_426 Column_427 Column_428 Column_429 Column_430 Column_431 Column_432 Column_433 Column_434 Column_435 Column_436 Column_437 Column_438 Column_439 Column_440 Column_441 Column_442 Column_443 Column_444 Column_445 Column_446 Column_447 Column_448 Column_449 Column_450 Column_451 Column_452 Column_453 Column_454 Column_455 Column_456 Column_457 Column_458 Column_459 Column_460 Column_461 Column_462 Column_463 Column_464 Column_465 Column_466 Column_467 Column_468 Column_469 Column_470 Column_471 Column_472 Column_473 Column_474 Column_475 Column_476 Column_477 Column_478 Column_479 Column_480 Column_481 Column_482 Column_483 Column_484 Column_485 Column_486 Column_487 Column_488 Column_489 Column_490 Column_491 Column_492 Column_493 Column_494 Column_495 Column_496 Column_497 Column_498 Column_499 Column_500 Column_501 Column_502 Column_503 Column_504 Column_505 Column_506 Column_507 Column_508 Column_509 Column_510 Column_511 Column_512 Column_513 Column_514 Column_515 Column_516 Column_517 Column_518 Column_519 Column_520 Column_521 Column_522 Column_523 Column_524 Column_525 Column_526 Column_527 Column_528 Column_529 Column_530 Column_531 Column_532 Column_533 Column_534 Column_535 Column_536 Column_537 Column_538 Column_539 Column_540 Column_541 Column_542 Column_543 Column_544 Column_545 Column_546 Column_547 Column_548 Column_549 Column_550 Column_551 Column_552 Column_553 Column_554 Column_555 Column_556 Column_557 Column_558 Column_559 Column_560 Column_561 Column_562 Column_563 Column_564 Column_565 Column_566 Column_567 Column_568 Column_569 Column_570 Column_571 Column_572 Column_573 Column_574 Column_575 Column_576 Column_577 Column_578 Column_579 Column_580 Column_581 Column_582 Column_583 Column_584 Column_585 Column_586 Column_587 Column_588 Column_589 Column_590 Column_591 Column_592 Column_593 Column_594 Column_595 Column_596 Column_597 Column_598 Column_599 Column_600 Column_601 Column_602 Column_603 Column_604 Column_605 Column_606 Column_607 Column_608 Column_609 Column_610 Column_611 Column_612 Column_613 Column_614 Column_615 Column_616 Column_617 Column_618 Column_619 Column_620 Column_621 Column_622 Column_623 Column_624 Column_625 Column_626 Column_627 Column_628 Column_629 Column_630 Column_631 Column_632 Column_633 Column_634 Column_635 Column_636 Column_637 Column_638 Column_639 Column_640 Column_641 Column_642 Column_643 Column_644
feature_infos=[0:100] [-497.70931700226731:479.11712247327125] [0:100] [-0.018419793024906428:0.015283640672442977] [-0.022320000000000118:0.017160000000000064] [-99.999999999999986:0] [-0.010151604924547364:0.0047103064715023901] [-0.0056516049245474154:0.0080938106961858658] [0:64.689146398855257] [0:67.532813673698683] [-0.017684431732664714:0.018519081032033455] [0:75.456323695892806] [-100:100] [-0.060805123180985493:0.046992760052688549] [0:100] [0:100] [-0.010508924921651466:0.012586588588159682] [-0.012340000000000018:0.014100000000000001] [-0.013833861595351202:0.01314684815033121] [-0.016759999999999886:0.014720000000000066] [-1.798250488588363:1.5689996097047907] [0:70.796452909877033] [-0.033616749251652714:0.032174221725558748] [-0.0028772660724105978:0.0027060271563708891] [-0.002860690840510226:0.0027568708520102989] [-0.0028809257071185845:0.0027193258368604818] [-0.011205577282775013:0.014152670256176652] [-0.0028782278340502071:0.0027067096018585017] [-0.01317999999999997:0.01584999999999992] [-731.78271988608651:610.1680812115859] [-99.999999999999986:0] [-66.682876932798862:62.397666030157119] [-0.0031777796359404586:0.0029509067550066437] [-0.0031467117453711779:0.0029161858426185461] [-0.0031631470224571245:0.003213067709907369] [-99.999999999999986:0] [-0.0031824395308761577:0.0029526700090791724] [-974.12530269356864:842.20635776534141] [0:89.765856921285547] [0:80.87924191299291] [-99.999999999999986:0] [-728.32922072763085:594.8831326619927] [-72.539399110761352:71.899131243356507] [0:100] [-497.70931700226731:479.11712247327125] [0:100] [-0.018419793024906428:0.015283640672442977] [-0.022320000000000118:0.017160000000000064] [-99.999999999999986:0] [-0.010151604924547364:0.0047103064715023901] [-0.0056516049245474154:0.0080938106961858658] [0:64.689146398855257] [0:67.532813673698683] [-0.017684431732664714:0.018519081032033455] [0:75.456323695892806] [-100:100] [-0.060805123180985493:0.046992760052688549] [0:100] [0:100] [-0.010508924921651466:0.012586588588159682] [-0.012340000000000018:0.014100000000000001] [-0.013833861595351202:0.01314684815033121] [-0.016759999999999886:0.014720000000000066] [-1.798250488588363:1.5689996097047907] [0:70.796452909877033] [-0.033616749251652714:0.032174221725558748] [-0.0028772660724105978:0.0027060271563708891] [-0.002860690840510226:0.0027568708520102989] [-0.0028809257071185845:0.0027193258368604818] [-0.011205577282775013:0.014152670256176652] [-0.0028782278340502071:0.0027067096018585017] [-0.01317999999999997:0.01584999999999992] [-731.78271988608651:610.1680812115859] [-99.999999999999986:0] [-66.682876932798862:62.397666030157119] [-0.0031777796359404586:0.0029509067550066437] [-0.0031467117453711779:0.0029161858426185461] [-0.0031631470224571245:0.003213067709907369] [-99.999999999999986:0] [-0.0031824395308761577:0.0029526700090791724] [-974.12530269356864:842.20635776534141] [0:89.765856921285547] [0:80.87924191299291] [-99.999999999999986:0] [-728.32922072763085:594.8831326619927] [-72.539399110761352:71.899131243356507] [0:100] [-497.70931700226731:479.11712247327125] [0:100] [-0.018419793024906428:0.015283640672442977] [-0.022320000000000118:0.017160000000000064] [-99.999999999999986:0] [-0.010151604924547364:0.0047103064715023901] [-0.0056516049245474154:0.0080938106961858658] [0:64.689146398855257] [0:67.532813673698683] [-0.017684431732664714:0.018519081032033455] [0:75.456323695892806] [-100:100] [-0.060805123180985493:0.046992760052688549] [0:100] [0:100] [-0.010508924921651466:0.012586588588159682] [-0.012340000000000018:0.014100000000000001] [-0.013833861595351202:0.01314684815033121] [-0.016759999999999886:0.014720000000000066] [-1.798250488588363:1.5689996097047907] [0:70.796452909877033] [-0.033616749251652714:0.032174221725558748] [-0.0028772660724105978:0.0027060271563708891] [-0.002860690840510226:0.0027568708520102989] [-0.0028809257071185845:0.0027193258368604818] [-0.011205577282775013:0.014152670256176652] [-0.0028782278340502071:0.0027067096018585017] [-0.01317999999999997:0.01584999999999992] [-731.78271988608651:610.1680812115859] [-99.999999999999986:0] [-66.682876932798862:62.397666030157119] [-0.0031777796359404586:0.0029509067550066437] [-0.0031467117453711779:0.0029161858426185461] [-0.0031631470224571245:0.003213067709907369] [-99.999999999999986:0] [-0.0031824395308761577:0.0029526700090791724] [-974.12530269356864:842.20635776534141] [0:89.765856921285547] [0:80.87924191299291] [-99.999999999999986:0] [-728.32922072763085:594.8831326619927] [-72.539399110761352:71.899131243356507] [0:100] [-497.70931700226731:479.11712247327125] [0:100] [-0.018419793024906428:0.015283640672442977] [-0.022320000000000118:0.017160000000000064] [-99.999999999999986:0] [-0.010151604924547364:0.0047103064715023901] [-0.0056516049245474154:0.0080938106961858658] [0:64.689146398855257] [0:67.532813673698683] [-0.017684431732664714:0.018519081032033455] [0:75.456323695892806] [-100:100] [-0.060805123180985493:0.046992760052688549] [0:100] [0:100] [-0.010508924921651466:0.012586588588159682] [-0.012340000000000018:0.014100000000000001] [-0.013833861595351202:0.01314684815033121] [-0.016759999999999886:0.014720000000000066] [-1.798250488588363:1.5689996097047907] [0:70.796452909877033] [-0.033616749251652714:0.032174221725558748] [-0.0028772660724105978:0.0027060271563708891] [-0.002860690840510226:0.0027568708520102989] [-0.0028809257071185845:0.0027193258368604818] [-0.011205577282775013:0.014152670256176652] [-0.0028782278340502071:0.0027067096018585017] [-0.01317999999999997:0.01584999999999992] [-731.78271988608651:610.1680812115859] [-99.999999999999986:0] [-66.682876932798862:62.397666030157119] [-0.0031777796359404586:0.0029509067550066437] [-0.0031467117453711779:0.0029161858426185461] [-0.0031631470224571245:0.003213067709907369] [-99.999999999999986:0] [-0.0031824395308761577:0.0029526700090791724] [-974.12530269356864:842.20635776534141] [0:89.765856921285547] [0:80.87924191299291] [-99.999999999999986:0] [-728.32922072763085:594.8831326619927] [-72.539399110761352:71.899131243356507] [0:100] [-497.70931700226731:479.11712247327125] [0:100] [-0.018419793024906428:0.015283640672442977] [-0.022320000000000118:0.017160000000000064] [-99.999999999999986:0] [-0.010151604924547364:0.0047103064715023901] [-0.0056516049245474154:0.0080938106961858658] [0:64.689146398855257] [0:67.532813673698683] [-0.017684431732664714:0.018519081032033455] [0:75.456323695892806] [-100:100] [-0.060805123180985493:0.046992760052688549] [0:100] [0:100] [-0.010508924921651466:0.012586588588159682] [-0.012340000000000018:0.014100000000000001] [-0.013833861595351202:0.01314684815033121] [-0.016759999999999886:0.014720000000000066] [-1.798250488588363:1.5689996097047907] [0:70.796452909877033] [-0.033616749251652714:0.032174221725558748] [-0.0028772660724105978:0.0027060271563708891] [-0.002860690840510226:0.0027568708520102989] [-0.0028809257071185845:0.0027193258368604818] [-0.011205577282775013:0.014152670256176652] [-0.0028782278340502071:0.0027067096018585017] [-0.01317999999999997:0.01584999999999992] [-731.78271988608651:610.1680812115859] [-99.999999999999986:0] [-66.682876932798862:62.397666030157119] [-0.0031777796359404586:0.0029509067550066437] [-0.0031467117453711779:0.0029161858426185461] [-0.0031631470224571245:0.003213067709907369] [-99.999999999999986:0] [-0.0031824395308761577:0.0029526700090791724] [-974.12530269356864:842.20635776534141] [0:89.765856921285547] [0:80.87924191299291] [-99.999999999999986:0] [-728.32922072763085:594.8831326619927] [-72.539399110761352:71.899131243356507] [0:100] [-497.70931700226731:479.11712247327125] [0:100] [-0.018419793024906428:0.015283640672442977] [-0.022320000000000118:0.017160000000000064] [-99.999999999999986:0] [-0.010151604924547364:0.0047103064715023901] [-0.0056516049245474154:0.0080938106961858658] [0:64.689146398855257] [0:67.532813673698683] [-0.017684431732664714:0.018519081032033455] [0:75.456323695892806] [-100:100] [-0.060805123180985493:0.046992760052688549] [0:100] [0:100] [-0.010508924921651466:0.012586588588159682] [-0.012340000000000018:0.014100000000000001] [-0.013833861595351202:0.01314684815033121] [-0.016759999999999886:0.014720000000000066] [-1.798250488588363:1.5689996097047907] [0:70.796452909877033] [-0.033616749251652714:0.032174221725558748] [-0.0028772660724105978:0.0027060271563708891] [-0.002860690840510226:0.0027568708520102989] [-0.0028809257071185845:0.0027193258368604818] [-0.011205577282775013:0.014152670256176652] [-0.0028782278340502071:0.0027067096018585017] [-0.01317999999999997:0.01584999999999992] [-731.78271988608651:610.1680812115859] [-99.999999999999986:0] [-66.682876932798862:62.397666030157119] [-0.0031777796359404586:0.0029509067550066437] [-0.0031467117453711779:0.0029161858426185461] [-0.0031631470224571245:0.003213067709907369] [-99.999999999999986:0] [-0.0031824395308761577:0.0029526700090791724] [-974.12530269356864:842.20635776534141] [0:89.765856921285547] [0:80.87924191299291] [-99.999999999999986:0] [-728.32922072763085:594.8831326619927] [-72.539399110761352:71.899131243356507] [0:100] [-497.70931700226731:479.11712247327125] [0:100] [-0.018419793024906428:0.015283640672442977] [-0.022320000000000118:0.017160000000000064] [-99.999999999999986:0] [-0.010151604924547364:0.0047103064715023901] [-0.0056516049245474154:0.0080938106961858658] [0:64.689146398855257] [0:67.532813673698683] [-0.017684431732664714:0.018519081032033455] [0:75.456323695892806] [-100:100] [-0.060805123180985493:0.046992760052688549] [0:100] [0:100] [-0.010508924921651466:0.012586588588159682] [-0.012340000000000018:0.014100000000000001] [-0.013833861595351202:0.01314684815033121] [-0.016759999999999886:0.014720000000000066] [-1.798250488588363:1.5689996097047907] [0:70.796452909877033] [-0.033616749251652714:0.032174221725558748] [-0.0028772660724105978:0.0027060271563708891] [-0.002860690840510226:0.0027568708520102989] [-0.0028809257071185845:0.0027193258368604818] [-0.011205577282775013:0.014152670256176652] [-0.0028782278340502071:0.0027067096018585017] [-0.01317999999999997:0.01584999999999992] [-731.78271988608651:610.1680812115859] [-99.999999999999986:0] [-66.682876932798862:62.397666030157119] [-0.0031777796359404586:0.0029509067550066437] [-0.0031467117453711779:0.0029161858426185461] [-0.0031631470224571245:0.003213067709907369] [-99.999999999999986:0] [-0.0031824395308761577:0.0029526700090791724] [-974.12530269356864:842.20635776534141] [0:89.765856921285547] [0:80.87924191299291] [-99.999999999999986:0] [-728.32922072763085:594.8831326619927] [-72.539399110761352:71.899131243356507] [0:100] [-497.70931700226731:479.11712247327125] [0:100] [-0.018419793024906428:0.015283640672442977] [-0.022320000000000118:0.017160000000000064] [-99.999999999999986:0] [-0.010151604924547364:0.0047103064715023901] [-0.0056516049245474154:0.0080938106961858658] [0:64.689146398855257] [0:67.532813673698683] [-0.017684431732664714:0.018519081032033455] [0:75.456323695892806] [-100:100] [-0.060805123180985493:0.046992760052688549] [0:100] [0:100] [-0.010508924921651466:0.012586588588159682] [-0.012340000000000018:0.014100000000000001] [-0.013833861595351202:0.01314684815033121] [-0.016759999999999886:0.014720000000000066] [-1.798250488588363:1.5689996097047907] [0:70.796452909877033] [-0.033616749251652714:0.032174221725558748] [-0.0028772660724105978:0.0027060271563708891] [-0.002860690840510226:0.0027568708520102989] [-0.0028809257071185845:0.0027193258368604818] [-0.011205577282775013:0.014152670256176652] [-0.0028782278340502071:0.0027067096018585017] [-0.01317999999999997:0.01584999999999992] [-731.78271988608651:610.1680812115859] [-99.999999999999986:0] [-66.682876932798862:62.397666030157119] [-0.0031777796359404586:0.0029509067550066437] [-0.0031467117453711779:0.0029161858426185461] [-0.0031631470224571245:0.003213067709907369] [-99.999999999999986:0] [-0.0031824395308761577:0.0029526700090791724] [-974.12530269356864:842.20635776534141] [0:89.765856921285547] [0:80.87924191299291] [-99.999999999999986:0] [-728.32922072763085:594.8831326619927] [-72.539399110761352:71.899131243356507] [0:100] [-497.70931700226731:479.11712247327125] [0:100] [-0.018419793024906428:0.015283640672442977] [-0.022320000000000118:0.017160000000000064] [-99.999999999999986:0] [-0.010151604924547364:0.0047103064715023901] [-0.0056516049245474154:0.0080938106961858658] [0:64.689146398855257] [0:67.532813673698683] [-0.017684431732664714:0.018519081032033455] [0:75.456323695892806] [-100:100] [-0.060805123180985493:0.046992760052688549] [0:100] [0:100] [-0.010508924921651466:0.012586588588159682] [-0.012340000000000018:0.014100000000000001] [-0.013833861595351202:0.01314684815033121] [-0.016759999999999886:0.014720000000000066] [-1.798250488588363:1.5689996097047907] [0:70.796452909877033] [-0.033616749251652714:0.032174221725558748] [-0.0028772660724105978:0.0027060271563708891] [-0.002860690840510226:0.0027568708520102989] [-0.0028809257071185845:0.0027193258368604818] [-0.011205577282775013:0.014152670256176652] [-0.0028782278340502071:0.0027067096018585017] [-0.01317999999999997:0.01584999999999992] [-731.78271988608651:610.1680812115859] [-99.999999999999986:0] [-66.682876932798862:62.397666030157119] [-0.0031777796359404586:0.0029509067550066437] [-0.0031467117453711779:0.0029161858426185461] [-0.0031631470224571245:0.003213067709907369] [-99.999999999999986:0] [-0.0031824395308761577:0.0029526700090791724] [-974.12530269356864:842.20635776534141] [0:89.765856921285547] [0:80.87924191299291] [-99.999999999999986:0] [-728.32922072763085:594.8831326619927] [-72.539399110761352:71.899131243356507] [0:100] [-497.70931700226731:479.11712247327125] [0:100] [-0.018419793024906428:0.015283640672442977] [-0.022320000000000118:0.017160000000000064] [-99.999999999999986:0] [-0.010151604924547364:0.0047103064715023901] [-0.0056516049245474154:0.0080938106961858658] [0:64.689146398855257] [0:67.532813673698683] [-0.017684431732664714:0.018519081032033455] [0:75.456323695892806] [-100:100] [-0.060805123180985493:0.046992760052688549] [0:100] [0:100] [-0.010508924921651466:0.012586588588159682] [-0.012340000000000018:0.014100000000000001] [-0.013833861595351202:0.01314684815033121] [-0.016759999999999886:0.014720000000000066] [-1.798250488588363:1.5689996097047907] [0:70.796452909877033] [-0.033616749251652714:0.032174221725558748] [-0.0028772660724105978:0.0027060271563708891] [-0.002860690840510226:0.0027568708520102989] [-0.0028809257071185845:0.0027193258368604818] [-0.011205577282775013:0.014152670256176652] [-0.0028782278340502071:0.0027067096018585017] [-0.01317999999999997:0.01584999999999992] [-731.78271988608651:610.1680812115859] [-99.999999999999986:0] [-66.682876932798862:62.397666030157119] [-0.0031777796359404586:0.0029509067550066437] [-0.0031467117453711779:0.0029161858426185461] [-0.0031631470224571245:0.003213067709907369] [-99.999999999999986:0] [-0.0031824395308761577:0.0029526700090791724] [-974.12530269356864:842.20635776534141] [0:89.765856921285547] [0:80.87924191299291] [-99.999999999999986:0] [-728.32922072763085:594.8831326619927] [-72.539399110761352:71.899131243356507] [0:100] [-497.70931700226731:479.11712247327125] [0:100] [-0.018419793024906428:0.015283640672442977] [-0.022320000000000118:0.017160000000000064] [-99.999999999999986:0] [-0.010151604924547364:0.0047103064715023901] [-0.0056516049245474154:0.0080938106961858658] [0:64.689146398855257] [0:67.532813673698683] [-0.017684431732664714:0.018519081032033455] [0:75.456323695892806] [-100:100] [-0.060805123180985493:0.046992760052688549] [0:100] [0:100] [-0.010508924921651466:0.012586588588159682] [-0.012340000000000018:0.014100000000000001] [-0.013833861595351202:0.01314684815033121] [-0.016759999999999886:0.014720000000000066] [-1.798250488588363:1.5689996097047907] [0:70.796452909877033] [-0.033616749251652714:0.032174221725558748] [-0.0028772660724105978:0.0027060271563708891] [-0.002860690840510226:0.0027568708520102989] [-0.0028809257071185845:0.0027193258368604818] [-0.011205577282775013:0.014152670256176652] [-0.0028782278340502071:0.0027067096018585017] [-0.01317999999999997:0.01584999999999992] [-731.78271988608651:610.1680812115859] [-99.999999999999986:0] [-66.682876932798862:62.397666030157119] [-0.0031777796359404586:0.0029509067550066437] [-0.0031467117453711779:0.0029161858426185461] [-0.0031631470224571245:0.003213067709907369] [-99.999999999999986:0] [-0.0031824395308761577:0.0029526700090791724] [-974.12530269356864:842.20635776534141] [0:89.765856921285547] [0:80.87924191299291] [-99.999999999999986:0] [-728.32922072763085:594.8831326619927] [-72.539399110761352:71.899131243356507] [0:100] [-497.70931700226731:479.11712247327125] [0:100] [-0.018419793024906428:0.015283640672442977] [-0.022320000000000118:0.017160000000000064] [-99.999999999999986:0] [-0.010151604924547364:0.0047103064715023901] [-0.0056516049245474154:0.0080938106961858658] [0:64.689146398855257] [0:67.532813673698683] [-0.017684431732664714:0.018519081032033455] [0:75.456323695892806] [-100:100] [-0.060805123180985493:0.046992760052688549] [0:100] [0:100] [-0.010508924921651466:0.012586588588159682] [-0.012340000000000018:0.014100000000000001] [-0.013833861595351202:0.01314684815033121] [-0.016759999999999886:0.014720000000000066] [-1.798250488588363:1.5689996097047907] [0:70.796452909877033] [-0.033616749251652714:0.032174221725558748] [-0.0028772660724105978:0.0027060271563708891] [-0.002860690840510226:0.0027568708520102989] [-0.0028809257071185845:0.0027193258368604818] [-0.011205577282775013:0.014152670256176652] [-0.0028782278340502071:0.0027067096018585017] [-0.01317999999999997:0.01584999999999992] [-731.78271988608651:610.1680812115859] [-99.999999999999986:0] [-66.682876932798862:62.397666030157119] [-0.0031777796359404586:0.0029509067550066437] [-0.0031467117453711779:0.0029161858426185461] [-0.0031631470224571245:0.003213067709907369] [-99.999999999999986:0] [-0.0031824395308761577:0.0029526700090791724] [-974.12530269356864:842.20635776534141] [0:89.765856921285547] [0:80.87924191299291] [-99.999999999999986:0] [-728.32922072763085:594.8831326619927] [-72.539399110761352:71.899131243356507] [0:100] [-497.70931700226731:479.11712247327125] [0:100] [-0.018419793024906428:0.015283640672442977] [-0.022320000000000118:0.017160000000000064] [-99.999999999999986:0] [-0.010151604924547364:0.0047103064715023901] [-0.0056516049245474154:0.0080938106961858658] [0:64.689146398855257] [0:67.532813673698683] [-0.017684431732664714:0.018519081032033455] [0:75.456323695892806] [-100:100] [-0.060805123180985493:0.046992760052688549] [0:100] [0:100] [-0.010508924921651466:0.012586588588159682] [-0.012340000000000018:0.014100000000000001] [-0.013833861595351202:0.01314684815033121] [-0.016759999999999886:0.014720000000000066] [-1.798250488588363:1.5689996097047907] [0:70.796452909877033] [-0.033616749251652714:0.032174221725558748] [-0.0028772660724105978:0.0027060271563708891] [-0.002860690840510226:0.0027568708520102989] [-0.0028809257071185845:0.0027193258368604818] [-0.011205577282775013:0.014152670256176652] [-0.0028782278340502071:0.0027067096018585017] [-0.01317999999999997:0.01584999999999992] [-731.78271988608651:610.1680812115859] [-99.999999999999986:0] [-66.682876932798862:62.397666030157119] [-0.0031777796359404586:0.0029509067550066437] [-0.0031467117453711779:0.0029161858426185461] [-0.0031631470224571245:0.003213067709907369] [-99.999999999999986:0] [-0.0031824395308761577:0.0029526700090791724] [-974.12530269356864:842.20635776534141] [0:89.765856921285547] [0:80.87924191299291] [-99.999999999999986:0] [-728.32922072763085:594.8831326619927] [-72.539399110761352:71.899131243356507] [0:100] [-497.70931700226731:479.11712247327125] [0:100] [-0.018419793024906428:0.015283640672442977] [-0.022320000000000118:0.017160000000000064] [-99.999999999999986:0] [-0.010151604924547364:0.0047103064715023901] [-0.0056516049245474154:0.0080938106961858658] [0:64.689146398855257] [0:67.532813673698683] [-0.017684431732664714:0.018519081032033455] [0:75.456323695892806] [-100:100] [-0.060805123180985493:0.046992760052688549] [0:100] [0:100] [-0.010508924921651466:0.012586588588159682] [-0.012340000000000018:0.014100000000000001] [-0.013833861595351202:0.01314684815033121] [-0.016759999999999886:0.014720000000000066] [-1.798250488588363:1.5689996097047907] [0:70.796452909877033] [-0.033616749251652714:0.032174221725558748] [-0.0028772660724105978:0.0027060271563708891] [-0.002860690840510226:0.0027568708520102989] [-0.0028809257071185845:0.0027193258368604818] [-0.011205577282775013:0.014152670256176652] [-0.0028782278340502071:0.0027067096018585017] [-0.01317999999999997:0.01584999999999992] [-731.78271988608651:610.1680812115859] [-99.999999999999986:0] [-66.682876932798862:62.397666030157119] [-0.0031777796359404586:0.0029509067550066437] [-0.0031467117453711779:0.0029161858426185461] [-0.0031631470224571245:0.003213067709907369] [-99.999999999999986:0] [-0.0031824395308761577:0.0029526700090791724] [-974.12530269356864:842.20635776534141] [0:89.765856921285547] [0:80.87924191299291] [-99.999999999999986:0] [-728.32922072763085:594.8831326619927] [-72.539399110761352:71.899131243356507] [0:100] [-497.70931700226731:479.11712247327125] [0:100] [-0.018419793024906428:0.015283640672442977] [-0.022320000000000118:0.017160000000000064] [-99.999999999999986:0] [-0.010151604924547364:0.0047103064715023901] [-0.0056516049245474154:0.0080938106961858658] [0:64.689146398855257] [0:67.532813673698683] [-0.017684431732664714:0.018519081032033455] [0:75.456323695892806] [-100:100] [-0.060805123180985493:0.046992760052688549] [0:100] [0:100] [-0.010508924921651466:0.012586588588159682] [-0.012340000000000018:0.014100000000000001] [-0.013833861595351202:0.01314684815033121] [-0.016759999999999886:0.014720000000000066] [-1.798250488588363:1.5689996097047907] [0:70.796452909877033] [-0.033616749251652714:0.032174221725558748] [-0.0028772660724105978:0.0027060271563708891] [-0.002860690840510226:0.0027568708520102989] [-0.0028809257071185845:0.0027193258368604818] [-0.011205577282775013:0.014152670256176652] [-0.0028782278340502071:0.0027067096018585017] [-0.01317999999999997:0.01584999999999992] [-731.78271988608651:610.1680812115859] [-99.999999999999986:0] [-66.682876932798862:62.397666030157119] [-0.0031777796359404586:0.0029509067550066437] [-0.0031467117453711779:0.0029161858426185461] [-0.0031631470224571245:0.003213067709907369] [-99.999999999999986:0] [-0.0031824395308761577:0.0029526700090791724] [-974.12530269356864:842.20635776534141] [0:89.765856921285547] [0:80.87924191299291] [-99.999999999999986:0] [-728.32922072763085:594.8831326619927] [-72.539399110761352:71.899131243356507]
tree_sizes=3398 4971 3311 3604 5018 3302 3625 5047 3197 3502 4919 3295 3713 5052 3198 3491 5257 3305 3492 4907 3410 3841 5167 3746 3302 5157 3502 3516 5056 3507 3939 5156 3084 3181 4960 3519 3279 5504 3307 3414 5501 3191 3611 5064 3410 3721 4945 3514 3734 5161 2969 3826 4931 2966 3507 5170 3080 3840 4621 3312 3956 5264 3410 3505 4623 3415 3844 5394 3505 3753 5046 3525 3629 5082 3616 3853 5290 3314 3503 5160 3181 3723 5067 3295 3831 5055 3521 3653 5055 3647 3951 5060 3546 3609 5623 3517 3752 4851 3635 3294 5290 3308 3830 5039 3529 3745 5220 3531 3534 4843 3647 3759 5529 3528 3621 5286 3515 3557 4747 3401 3936 5298 3743 3531 5066 3406 3752 5094 3212 3826 5168 3637 3981 5062 3520 4184 4969 3411 4191 5306 3201 3750 5218 3763 3842 5081 3538 3562 5213 3871 4302 5086 2858 3953 5094 3108 3874 5082 3312 3947 4873 3413 3739 5195 3196 3765 5296 3649 3960 5419 3627 3528 5061 3318 3641 5553 3772 3953 5433 3663 3766 5096 3533 3989 5325 3761 3524 5101 3422 3852 5094 3991 3861 5434 3538 3857 5108 3398 3639 5216 3443 3895 5115 3868 4092 4981 3423 3878 5209 3446 3854 5093 3543 4090 5083 3330 3639 5077 3428 3749 5315 3760 3755 5549 3645 4068 4976 3637 3658 5306 3658 3864 5225 3421 3648 4884 3949 3962 5320 3637 3876 5532 3756 3755 5343 3890 4005 5238 3770 3869 5219 3872 3884 5123 3790 3984 5676 3880 4102 5455 3764 3868 5673 3659 3996 4992 3758 4432 5777 3649 3865 5222 3441 4224 5542 3657 3761 5794 3751 4003 5343 3873 3965 5230 3649 4091 5445 3640 4103 5448 4097 4194 5560 3996 4203 5009 3767 4002 5449 3894 4091 6123 3873 3987 5427 3985 4098 5124 3874 4110 5106 3783 4096 5689 3762 3894 5557 3767 4100 5245 3654 4115 5210 4131 3966 5314 4000 4206 5359 3657 4205 5477 3540 4315 5470 4221 4567 5446 4121 4095 5248 3905 3889 5579 3984 3973 5668 3862 4089 5237 3986 4103 5444 3661 4087 5097 3778 4203 5778 3896 4204 5475 3875 4538 5236 3989 4207 5788 3777 4345 5127 3872 4212 5125 3900 4453 5363 3788 4359 5446 4658 4316 5221 3547 4357 5364 3990 4335 5238 4009 4319 5130 3914 4102 5350 4002 4225 5493 3999 4097 5370 4320 4084 5556 4003 4111 5793 4449 4225 5454 4451 4427 5452 3692 4109 5338 4236 4114 5362 3676 4420 5439 4477 4214 5362 3993 4341 5458 4232 4230 5584 4230 3998 5576 3996 4021 5620 4009 4571 5017 4330 3992 5467 3999 4240 5441 4242 4575 5486 3804 4785 5468 3890 4304 5492 4461 4782 5249 4018 4991 5123 3893 4457 5569 4139 4544 5018 3784 4451 5365 4006 4432 5794 3985 4549 5360 4021 4139 5268 3998 4361 5481 3812 4114 5343 3911 4216 5274 4121 4107 5827 4341 4435 5709 4453 4553 5469 4224 4320 5370 4222 4457 5120 4041 4561 5356 4014 3903 5253 4335 4012 5376 4010 4240 5241 4109 4457 5480 3909 4567 5467 4133 4225 5342 4233 4229 5504 4016 4133 5120 4590 4243 5577 4345 4092 5270 4436 4689 5591 4316 4883 5565 4131 4444 5237 4673 4566 5348 4347 4451 5018 4455 4453 5788 4778 4344 5737 4653 4261 5116 4553 4212 5553 4122 4475 5468 4444 4232 5592 4574 4775 5391 3997 4896 5553 4036 4353 5277 4656 4345 5369 4345 4443 5360 4472 5010 5267 4559 4791 5264 4445 4101 5351 4256 4452 5109 4599 4136 5117 4251 4580 5334 4345 4384 5494 4346 4017 5236 4545 4908 5711 4112 4355 5378 4213 4333 5576 4575 4471 5586 4031 4562 5548 4136 4216 5496 4128 4451 5580 4358 4461 5792 3911 4548 5495 3909 4783 5694 4332 4668 5488 4327 4671 5454 4580 5344 5585 4478 4572 5374 4557 4587 5476 4365 4572 5692 4450 4774 5578 4684 4364 5723 4015 4344 5487 4045 4335 5242 3907 4572 5130 4589 4768 5590 4577 4461 5484 4439 4431 5487 4614 4465 5232 4366 4116 5352 3997 4462 5474 4348 5249 5116 4335 4547 5474 4459 4476 5115 4557 5144 5470 4343 4588 5610 4233 4464 5106 4980 4824 5271 4444 4924 5343 4342 4670 5806 4695 4895 5478 4805 5002 5608 4234 4834 5693 4335 4449 5256 4939 4343 5587 4359 4654 5382 4346 4883 5598 4146 4788 5681 4023 4441 5358 4597 4448 5679 4223 4375 5574 4219 4546 5378 4776 4994 5239 4902 5450 5726 5143 5113 5475 4811 4773 5144 5128 5114 5644 4474 5115 5368 4565 5361 5591 5043 5115 5371 4899 5011 5345 4786 4573 5606 4156 5127 5585 4225

Tree=0
num_leaves=31
num_cat=0
split_feature=644 640 643 640 638 631 557 553 641 631 579 338 641 562 637 644 643 182 641 641 631 193 638 640 567 14 641 641 472 293
split_gain=10297.1 929.32 772.371 214.255 189.911 138.275 109.474 95.4546 67.0109 69.685 55.0903 49.2442 47.5879 47.0717 35.0564 25.4916 24.3242 19.3587 14.6931 8.76148 7.34571 6.50954 3.37427 2.17968 1.60851 4.37911 0.808212 0.223313 0.22362 0.107927
threshold=9.1217000622060365 58.735955492866189 44.924795813863398 51.358940169155481 -2.377941010767159e-06 57.855140199682829 95.030902544049738 132.19873995880326 49.982669212927483 -4.7165125750577239 0.036167677518644643 -14.356299053886589 54.051299193270459 -0.00060115157702945023 -31.249999999998121 21.426177617633254 99.588076166462244 0.0020094357407188334 51.397495778884732 60.280017769363845 146.71833127145123 46.780779439578204 -0.00014619232735146867 65.781205183678722 50.310337370257308 41.666666666666679 47.875719153192868 45.714626062799368 -6.2259445220569054 -51.351351351356413
decision_type=2 2 2 2 2 2 2 2 2 2 2 2 2 2 2 2 2 2 2 2 2 2 2 2 2 2 2 2 2 2
left_child=2 3 4 -2 18 17 16 10 21 -10 -5 -11 -7 -12 -15 20 -3 -4 22 -17 -8 -6 27 -21 26 -26 29 -1 -29 -24
right_child=1 6 5 7 8 12 15 -9 9 11 13 -13 -14 14 -16 19 -18 -19 -20 23 -22 -23 24 -25 25 -27 -28 28 -30 -31
leaf_value=-1.1895337662749035 -1.1680868799749864 -1.1356868558447557 -1.1651821398355966 -1.1581613376031348 -1.1877627997643183 -1.1589890177393185 -1.1283807029921182 -1.1297472530879482 -1.182521459051705 -1.1754891925881326 -1.1544123176907901 -1.157750462138295 -1.1414990032625683 -1.1468286930634641 -1.1324191883809831 -1.1207384184615332 -1.1250715624344034 -1.1768745802942417 -1.1830006367422548 -1.1179137076960148 -1.1213429297614297 -1.1819605641838995 -1.1895513842619376 -1.1152848440569778 -1.1889702993028926 -1.183758134983981 -1.1874936392797699 -1.1892696379504266 -1.1882240910426196 -1.1887825276266974
leaf_weight=2579.1425428688526 251.57658332586288 319.45722153782845 161.49801129102707 201.06824114918709 187.87816452980042 165.68023070693016 160.85459291934967 230.34377706050873 228.73523113131523 162.14142966270447 161.17630210518837 202.99849626421928 195.2774758040905 179.19201651215553 212.97148102521896 306.91056329011917 203.96362382173538 164.71510314941406 245.4641087949276 259.29760378599167 184.01765429973602 275.06135389208794 221.01421067118645 647.60059109330177 206.53729730844498 169.86245012283325 279.88699167966843 594.84028461575508 162.78484803438187 280.85211923718452
leaf_count=8017 782 993 502 625 584 515 500 716 711 504 501 631 607 557 662 954 634 512 763 806 572 855 687 2013 642 528 870 1849 506 873
internal_value=-1.16631 -1.13184 -1.18382 -1.14832 -1.18667 -1.15976 -1.12205 -1.14327 -1.17747 -1.17213 -1.1474 -1.16563 -1.14953 -1.14349 -1.139 -1.11886 -1.13155 -1.17109 -1.18872 -1.11722 -1.12462 -1.18432 -1.18903 -1.11604 -1.18792 -1.18662 -1.18854 -1.18942 -1.18905 -1.18912
internal_weight=0 3318.43 6484.37 1236.33 5797.2 687.171 2082.1 984.752 1056.81 593.875 754.408 365.14 360.958 553.34 392.163 1558.68 523.421 326.213 4740.38 1213.81 344.872 462.94 4494.92 906.898 1158.15 376.4 781.753 3336.77 757.625 501.866
internal_count=30471 10315 20156 3843 18020 2136 6472 3061 3285 1846 2345 1135 1122 1720 1219 4845 1627 1014 14735 3773 1072 1439 13972 2819 3600 1170 2430 10372 2355 1560
is_linear=0
shrinkage=1


Tree=1
num_leaves=46
num_cat=0
split_feature=600 600 640 644 644 631 96 483 644 631 637 641 640 640 644 631 605 644 510 619 641 53 282 150 644 74 641 631 257 641 508 641 640 51 611 250 611 612 641 299 502 533 631 644 393
split_gain=1836.29 2850 427.379 332.244 424.377 236.131 203.641 149.032 129.025 125.555 105.008 98.4847 93.8974 81.7265 64.0826 55.8332 45.5427 43.6036 43.0735 39.1299 34.1242 33.3509 30.6191 36.4967 30.3342 28.3826 25.6608 24.785 20.2252 16.5739 14.8333 9.87597 9.45075 8.90759 8.56364 6.86275 6.21127 4.11488 3.78938 3.52421 3.40736 1.60782 0.800191 0.266215 0.192787
threshold=-71.274579601966195 86.888602724537165 58.259910220771765 -9.6441600838530608 10.750482282930863 -36.073836621479217 0.0020765381887166818 -0.002358177431239691 -4.123326507517068 18.777061570121351 -58.149499864829046 46.90445663880606 57.412129601216485 52.564326345756122 -3.9195689378362415 19.433113353329158 -0.0002725283127257096 21.426177617633254 128.489597312504 -0.00084999999999990628 47.347902563463343 0.0010012592688091878 0.00018913850115174935 47.668463526328281 -4.4352723118788306 -2.8181718402046338 45.714626062799368 129.51896610789123 2.9168729715605686 41.699251058476598 -70.172727026221011 53.86530319512412 63.210643805595588 45.695021044899057 47.481817996165944 -74.71587240087716 53.648063061246425 -0.0030473585752969286 62.144282654074026 140.36288363869383 -25.58173083665066 -0.0016749999999999818 -150.23159896643793 33.789636963719794 -0.0010341736803858301
decision_type=2 2 2 2 2 2 2 2 2 2 2 2 2 2 2 2 2 2 2 2 2 2 2 2 2 2 2 2 2 2 2 2 2 2 2 2 2 2 2 2 2 2 2 2 2
left_child=5 3 13 10 6 11 7 14 20 -6 26 19 22 -3 -5 24 -11 27 -15 29 -9 -18 23 -10 -8 -25 -2 -4 -27 41 35 40 39 -16 -31 37 -29 -21 -34 -19 -26 44 -43 -40 -1
right_child=1 2 17 4 9 -7 15 8 12 16 -12 -13 -14 18 33 -17 21 32 -20 30 -22 -23 -24 25 31 28 -28 36 -30 34 -32 -33 38 -35 -36 -37 -38 -39 43 -41 -42 42 -44 -45 -46
leaf_value=-1.07461467185007 -1.0622839321618121 -1.0344068994419344 -1.0575489996755536 -1.0299587061756068 -1.0280827353507518 -1.0465886359615375 -1.022653256435663 -1.0539673532713481 -1.023582430800255 -1.0406747267614118 -1.0345432635511758 -1.0529637148404822 -1.0463543522402412 -1.0473842696531077 -1.0100620224098771 -1.0292207317326485 -1.0628912300126099 -1.0662339725350927 -1.0621009735537237 -1.0720917721993097 -1.0395642444616005 -1.0497242506283748 -1.0212318539700862 -1.0388480719628779 -1.0065585152006067 -1.0234172422512275 -1.0499643053784571 -1.0645056615106485 -1.0345341298823467 -1.0720091799814038 -1.0599033178496005 -1.0159334397505779 -1.0709585117789007 -1.017411605595423 -1.0661194683720219 -1.0636815470298648 -1.0707195675663193 -1.0668592105163941 -1.0735709989194688 -1.0709936605465329 -1.0111888531806599 -1.0734610745253295 -1.0713801921192629 -1.0745594035527093 -1.0737005739330423
leaf_weight=487.6057100892067 223.84138965606689 192.79022127389908 208.14519464969635 236.46658998727798 179.48257768154144 314.26512175798416 175.0466964840889 174.36425322294235 328.25520861148834 185.96578866243362 173.68180996179581 213.94596236944199 187.67189681529999 308.46435403823853 174.36425322294235 171.2932585477829 178.11769115924835 174.70547485351562 182.21235072612762 171.2932585477829 207.4627513885498 293.10938066244125 284.57883989810944 299.93381327390671 179.14135605096817 189.37800496816635 172.31692343950272 170.95203691720963 188.01311844587326 248.7505686879158 208.8276379108429 170.95203691720963 301.98114305734634 210.19252443313599 333.37353307008743 182.21235072612762 203.36809182167053 176.41158300638199 276.04829913377762 185.62456703186035 191.08411312103271 228.95971411466599 207.80397301912308 434.71635735034943 210.19252443313599
leaf_count=1429 656 565 610 693 526 921 513 511 962 545 509 627 550 904 511 502 522 512 534 502 608 859 834 879 525 555 505 501 551 729 612 501 885 616 977 534 596 517 809 544 560 671 609 1274 616
internal_value=-1.05 -1.04397 -1.06398 -1.03291 -1.03057 -1.06627 -1.02677 -1.0303 -1.0337 -1.04587 -1.0501 -1.06858 -1.03049 -1.04765 -1.02012 -1.01691 -1.05073 -1.06969 -1.05285 -1.06994 -1.04614 -1.0547 -1.02818 -1.03015 -1.01396 -1.03334 -1.05692 -1.06419 -1.02895 -1.07193 -1.06532 -1.01115 -1.07203 -1.01408 -1.06864 -1.06746 -1.06788 -1.06944 -1.07322 -1.06869 -1.00895 -1.07362 -1.07247 -1.07418 -1.07434
internal_weight=0 7413.72 2639.01 4774.71 4204.87 2983.64 3368.2 2480.68 1859.66 836.675 569.84 2669.38 1477.83 683.467 621.023 887.517 657.193 1955.54 490.677 2455.43 381.827 471.227 1290.16 1005.58 716.224 677.325 396.158 582.465 377.391 1716.69 738.745 541.178 1373.08 384.557 582.124 529.917 374.32 347.705 1012.75 360.33 370.225 1134.56 436.764 710.765 697.798
internal_count=30471 21727 7734 13993 12323 8744 9871 7270 5450 2452 1670 7823 4331 2003 1820 2601 1926 5731 1438 7196 1119 1381 3781 2947 2099 1985 1161 1707 1106 5031 2165 1586 4024 1127 1706 1553 1097 1019 2968 1056 1085 3325 1280 2083 2045
is_linear=0
shrinkage=1


Tree=2
num_leaves=30
num_cat=0
split_feature=643 644 644 643 596 246 643 107 644 644 644 596 643 605 607 407 607 643 534 644 607 611 636 142 434 298 96 439 554
split_gain=12193.8 632.547 508.838 173.517 123.554 153.813 109.287 63.153 58.9415 46.4549 31.9935 31.983 30.7733 19.5486 18.3954 12.609 8.28213 7.80531 7.58015 8.85446 5.28169 4.97894 4.8079 4.59061 1.66011 1.46863 0.494644 0.393154 0.138447
threshold=-48.504345011856252 -2.4933651618209534 -10.453526679400042 -81.967594040651747 30.621677141031594 -11.497152923537771 -64.346793927370783 41.752992803036527 -7.0224033261852421 3.2251780011609057 -19.999323080122331 -31.389641044303488 -91.616275664599897 -0.0012787668983770724 -58.490566037736436 -0.16718953929811534 -52.577319587627599 25.29747150534104 0.00057971501746425938 0.52719454880602046 -55.424397673774486 48.926556369694481 -0.00055022270634452742 -0.0021690545091018012 -0.0038550000000000524 -69.270177371956365 0.0031809903540708571 47.086084494240019 49.298082458711058
decision_type=2 2 2 2 2 2 2 2 2 2 2 2 2 2 2 2 2 2 2 2 2 2 2 2 2 2 2 2 2
left_child=2 4 3 10 5 -2 11 -5 -7 13 16 12 -4 -3 21 -9 22 20 19 -15 -11 25 27 -24 -19 -12 -20 -1 -26
right_child=1 9 6 7 -6 8 -8 15 -10 17 14 -13 -14 18 -16 -17 -18 24 26 -21 -22 -23 23 -25 28 -27 -28 -29 -30
leaf_value=-1.0359556832817203 -1.0942904583410924 -1.0962807710841374 -1.0467222119539106 -1.0669270955687258 -1.0995734075760268 -1.0610790665759648 -1.0760893203387958 -1.0447219147883675 -1.0785647302691668 -1.1005616939790566 -1.0422557282374283 -1.0664858369779384 -1.0607556375340179 -1.0970257085917505 -1.051166572127904 -1.0529360989181316 -1.0431105326983325 -1.1048352287662873 -1.1049859350161286 -1.1046212340656634 -1.1058934968690703 -1.0453760787966633 -1.0416895863830569 -1.0370142329241818 -1.1064635415387545 -1.0393922261317901 -1.1068528860166531 -1.0371551959361971 -1.1071965580432799
leaf_weight=548.86173421144485 256.96403101086617 331.86988580226898 173.99655956029892 171.30935400724411 233.78688311576843 194.82240259647369 303.99012818932533 172.65295678377151 258.30763378739357 182.3940769135952 201.54041647911072 175.34016233682632 186.76078593730927 173.32475817203522 168.95804914832115 287.53099417686462 171.30935400724411 187.09668663144112 167.9503470659256 181.05047413706779 260.99483934044838 198.51731023192406 245.54340741038322 242.18440046906471 178.02736788988113 222.03035882115364 171.64525470137596 252.5973219871521 3733.8721159696579
leaf_count=1634 765 988 518 510 696 580 905 514 769 543 600 522 556 516 503 856 510 557 500 539 777 591 731 721 530 661 511 752 11116
internal_value=-1.08308 -1.10261 -1.04816 -1.04337 -1.08444 -1.07946 -1.06459 -1.05448 -1.07105 -1.10569 -1.04025 -1.05807 -1.05399 -1.10107 -1.04414 -1.04985 -1.03814 -1.10673 -1.10337 -1.10091 -1.1037 -1.04223 -1.03748 -1.03937 -1.10706 -1.04075 -1.10593 -1.03633 -1.10716
internal_weight=0 6512.11 3723.12 2883.04 943.881 710.094 840.088 631.493 453.13 5568.23 2251.54 536.098 360.757 1025.84 791.046 460.184 1460.5 4542.39 693.971 354.375 443.389 622.088 1289.19 487.728 4099 423.571 339.596 801.459 3911.9
internal_count=30471 19387 11084 8583 2810 2114 2501 1880 1349 16577 6703 1596 1074 3054 2355 1370 4348 13523 2066 1055 1320 1852 3838 1452 12203 1261 1011 2386 11646
is_linear=0
shrinkage=1


Tree=3
num_leaves=32
num_cat=0
split_feature=643 640 644 579 644 637 596 631 640 643 640 467 640 643 640 594 644 596 640 53 471 644 640 309 629 623 401 630 256 92 596
split_gain=10193.7 772.429 563.017 178.13 134.756 82.9172 150.401 74.1219 59.5882 50.8217 39.7512 34.3659 32.8509 27.036 19.4355 16.9117 13.5725 11.6949 10.2998 7.00141 9.07007 4.76154 2.96319 3.62788 0.804437 0.517218 0.499731 0.825374 0.22321 0.134649 0.116325
threshold=57.211667150616087 58.735955492866189 2.3890561333521805 0.037783374706606969 18.863121948035811 -49.33205863607315 -28.179535869085974 44.920541056881511 54.750694654309889 105.08180569139672 54.560633437981245 122.48984628370853 47.366933089168192 75.845929089878666 63.210643805595588 -31.018225472005721 -1.6407624998999157 130.27565459302997 61.924079198428409 -0.00076346347597970674 32.267289974874878 27.228071833094464 49.179597283510958 48.703943289625144 -0.00012074169170081917 57.512406435873281 31.666666666666671 -0.00078499999999992454 122.60660316725601 -0.00049912694043130468 0.74855694040827403
decision_type=2 2 2 2 2 2 2 2 2 2 2 2 2 2 2 2 2 2 2 2 2 2 2 2 2 2 2 2 2 2 2
left_child=2 3 10 13 9 12 -7 -8 15 -3 16 -10 -4 -2 17 -5 22 -6 -11 -18 -21 -16 24 29 30 -23 -26 -28 -27 -24 -1
right_child=1 4 5 8 14 6 7 -9 11 18 -12 -13 -14 -15 21 -17 19 -19 -20 20 -22 25 23 -25 26 28 27 -29 -30 -31 -32
leaf_value=-0.022966610369821245 -4.8195056591769189e-05 0.02327065003996295 -0.018247914432609078 0.011699936984554146 0.037341138271470044 -0.014355281759998006 -0.0013677396237536466 0.017020698693471781 0.024882756015683065 0.033090844748706362 -0.011944334534918661 0.038117860548552117 -0.0050918891663763949 0.011884184881125019 0.044581328604627796 0.022252599096367065 -0.021969634465939452 0.044911069332275927 0.04067917996902673 -0.012333738085735582 -0.019920087851132591 0.047014906687007529 -0.023008014345873219 -0.01852117506738574 -0.022679474941206056 0.047730718490892304 -0.022439231933454425 -0.020345035588004184 0.048822209622932468 -0.021957642066628095 -0.022248790209255697
leaf_weight=2707.6050650179386 229.42678567767143 231.31330949068069 212.17489260435104 171.71203410625458 230.91986292600632 231.62680694460869 225.05977526307106 287.56735149025917 284.31541669368744 186.59320938587189 236.6304520368576 187.77446606755257 225.66875174641609 208.94649836421013 325.63498482108116 178.62109634280205 222.87993150949478 240.88369083404541 231.61036247014999 162.61051872372627 206.19372445344925 216.61801394820213 161.4121672809124 228.75885343551636 434.40182170271873 194.35451006889343 251.38133868575096 197.99098280072212 370.13399252295494 158.92938339710236 160.36030903458595
leaf_count=8529 712 709 664 530 703 723 700 888 873 569 741 573 704 645 988 550 700 731 705 509 647 656 508 719 1367 589 791 623 1120 500 505
internal_value=0 0.033008 -0.0181124 0.0179956 0.0415029 -0.00318045 0.00169462 0.00894712 0.0245818 0.0323002 -0.0215537 0.0301475 -0.0114677 0.00563871 0.0452894 0.017081 -0.0220184 0.0412065 0.037294 -0.018608 -0.0165758 0.0470297 -0.0224875 -0.0208356 -0.0227293 0.04805 -0.0220887 -0.0215171 0.0484468 -0.0224876 -0.0229266
internal_weight=0 3488.86 6311.25 1260.8 2228.06 1182.1 744.254 512.627 822.423 649.517 5129.15 472.09 437.844 438.373 1578.55 350.333 4892.52 471.804 418.204 591.684 368.804 1106.74 4300.84 549.1 3751.74 781.107 883.774 449.372 564.489 320.342 2867.97
internal_count=30471 10653 19818 3883 6770 3679 2311 1588 2526 1983 16139 1446 1368 1357 4787 1080 15398 1434 1274 1856 1156 3353 13542 1727 11815 2365 2781 1414 1709 1008 9034
is_linear=0
shrinkage=0.024


Tree=4
num_leaves=45
num_cat=0
split_feature=644 644 640 644 631 640 53 193 631 623 397 631 631 644 644 644 631 631 636 623 607 631 640 607 631 119 424 80 262 636 616 640 611 635 640 479 631 611 494 610 502 236 623 263
split_gain=1757.73 2776.89 397.971 337.758 287.151 258.916 188.896 183.391 149.014 181.042 138.917 98.606 65.1184 58.7181 60.02 54.7941 54.5709 50.5379 43.5508 41.0552 40.3865 39.6817 32.043 25.4229 24.6947 23.4535 22.3441 18.1455 13.6834 12.3126 12.2963 12.2255 10.1028 8.66236 7.62049 6.80325 6.5331 4.35478 2.23659 1.74542 1.44948 1.06034 0.796474 0.235227
threshold=-11.468670138456845 13.15078595239091 58.735955492866189 -6.132208584080673 -20.126058055565377 57.412129601216485 0.0018610302791954305 46.470561341473946 4.1826439662791985 50.676924174776296 -0.0024480214798931481 37.365823246957753 -8.7081401988099376 -2.6023216201905122 4.9257821166106952 21.768386963471997 38.14288916988405 115.45531302256967 -0.00055022270634452742 50.039885200248257 -63.245553245559229 -65.93054930394085 47.553697855327783 -35.294117647052026 113.06491661691453 9.6215284322132013e-05 137.9101426730052 -63.231746170560363 -0.0034950000000000254 0.00039765264035307451 75.000000000000014 41.758778602648071 53.954133318572836 -0.00017112511702577213 62.495283360864612 -0.00046822544148739093 69.792254258718103 48.926556369694481 54.976577188658588 48.357141049112904 -86.185098620203078 45.722676217846363 44.181013682053255 -23.959606764474348
decision_type=2 2 2 2 2 2 2 2 2 2 2 2 2 2 2 2 2 2 2 2 2 2 2 2 2 2 2 2 2 2 2 2 2 2 2 2 2 2 2 2 2 2 2 2
left_child=4 3 11 8 18 6 10 -7 9 21 23 -3 35 22 25 24 -16 -9 31 20 30 33 -12 -5 -4 27 36 -15 -22 -17 -20 40 -26 -2 -31 -8 -13 39 -36 41 42 -32 -1 -40
right_child=1 2 15 5 -6 7 12 17 -10 -11 13 26 -14 14 16 29 -18 -19 19 -21 28 -23 -24 -25 32 -27 -28 -29 -30 34 37 -33 -34 -35 38 -37 -38 -39 43 -41 -42 -43 -44 -45
leaf_value=-0.024252714300305452 -0.015210059787116049 0.0136113142909797 -0.0052001306208015784 0.02519984966893625 0.010264387845265602 0.026642097742053839 0.04026220723753085 0.0074046975888157375 0.023977898842217633 0.020689218615999858 0.0016290524136548274 0.0023207759381434225 0.023515538140071335 0.025884130772302161 0.021177696905035459 -0.015908802849703547 0.0066158568024858181 -0.0092963414022539555 -0.014453723719652277 -0.0051770348172625663 -0.0058569227904624903 0.00083165150888346031 0.015526115545287145 0.036907213541235877 -0.01206222457662408 0.02864351803033361 -0.011366728738988098 0.016494464167467762 -0.014637597268837269 -0.018440583190983233 -0.021711149267091289 -0.016752444194354694 -0.019507468251618632 -0.0076561586603606244 -0.02086353254870971 0.035011108189098028 -0.0040943287573016783 -0.017942844762055904 -0.023161276410333491 -0.020261236680458247 -0.021364116056274755 -0.024142038838243868 -0.02234658451309865 -0.024094105856949374
leaf_weight=546.77543646097183 175.68806558847427 252.54665672779083 177.57929947972298 194.27370235323906 217.08566212654114 176.80875796079636 246.76670297980309 177.92770028114319 186.33275130391121 189.44905588030815 203.445776283741 171.78974509239197 302.97442638874054 189.91375622153282 265.61992466449738 203.50481688976288 335.57935607433319 252.40262338519096 185.62822219729424 182.53068020939827 170.12925124168396 267.30407959222794 180.30049949884415 237.93633303046227 205.28042185306549 283.52266877889633 182.57834720611572 316.23844107985497 256.55684545636177 237.96886441111565 182.46306836605072 200.27928513288498 215.43433180451393 174.4661885201931 186.191436201334 338.72720539569855 195.44096049666405 171.0002573132515 245.89382016658783 175.80316853523254 177.68964645266533 248.62455356121063 169.5374136865139 538.75404033064842
leaf_count=1621 517 736 522 563 635 515 712 520 542 552 595 503 880 551 771 601 978 740 548 537 501 782 525 688 605 822 537 919 756 703 540 591 636 512 551 978 573 505 728 520 526 736 502 1596
internal_value=0 0.00576433 -0.0130928 0.0170608 -0.0162784 0.0203947 0.0232056 0.00606391 0.00463308 0.000165632 0.0194434 0.001197 0.03255 0.0164715 0.0187647 -0.0187954 0.0130499 -0.00239044 -0.018439 -0.0158803 -0.0172854 -0.00613104 0.00815912 0.0316454 -0.0127072 0.0231152 -0.0045049 0.020018 -0.0111371 -0.0213744 -0.0200079 -0.0221163 -0.0158753 -0.011447 -0.0222944 0.0372247 -0.0010927 -0.021333 -0.0232388 -0.0222878 -0.0233176 -0.0231137 -0.0238019 -0.0238021
internal_weight=0 7508.64 2812.96 4695.68 2884.1 3702.44 3095.3 607.139 993.24 806.907 2206.83 802.356 888.468 1774.62 1390.87 2010.61 601.199 430.33 2667.02 1572.74 1390.21 617.458 383.746 432.21 598.294 789.675 549.809 506.152 426.686 1412.31 963.519 1094.28 420.715 350.154 1208.81 585.494 367.231 777.891 970.839 606.891 894.002 431.088 716.313 784.648
internal_count=30471 21953 8291 13662 8518 10757 8982 1775 2905 2363 6412 2349 2570 5161 4041 5942 1749 1260 7883 4643 4106 1811 1120 1251 1763 2292 1613 1470 1257 4179 2849 3240 1241 1029 3578 1690 1076 2301 2875 1796 2649 1276 2123 2324
is_linear=0
shrinkage=0.024


Tree=5
num_leaves=29
num_cat=0
split_feature=638 641 631 641 638 641 638 197 641 631 514 631 641 634 641 477 525 526 641 641 618 641 567 450 532 143 641 591
split_gain=10956.7 735.944 531.474 488.76 153.193 103.454 96.2394 69.7882 38.9466 36.4063 34.533 28.1288 26.5808 24.7587 16.4455 15.9607 15.0732 13.0583 12.4 11.1393 7.25931 5.54146 4.03543 1.35331 1.02097 0.614936 0.515318 0.735492
threshold=-9.949114290319637e-05 47.913375980493022 -20.126058055565377 49.594153214207175 -1.0000000180025095e-35 50.337549025155383 -0.00022009785786847311 -0.00026563582748312967 47.437078187125678 -58.350625137997433 -63.120642741335793 6.8987880549948963 41.632982027356952 -2.5429273559307571e-05 46.026830704901471 -0.0044000000000000697 48.6747349154437 -0.0008745765332282689 51.895214341765026 47.604770632439326 -0.00086409561833683415 50.864852372688091 48.357141049112904 0.055269276440476862 -0.0014884638640944219 81.666666666666686 52.165632839723678 9.2303204763832816e-05
decision_type=2 2 2 2 2 2 2 2 2 2 2 2 2 2 2 2 2 2 2 2 2 2 2 2 2 2 2 2
left_child=1 2 6 4 7 10 9 -2 -9 12 -3 -4 20 18 17 -11 22 -8 -5 -6 24 23 -14 -15 -1 -26 27 -23
right_child=3 5 11 13 19 -7 14 8 -10 15 -12 -13 16 21 -16 -17 -18 -19 -20 -21 -22 26 -24 -25 25 -27 -28 -29
leaf_value=0.045009846069901799 -0.010801009165568056 0.019232671045532761 0.014052694647965417 -0.013047500345864691 -0.010617548988678869 -0.0099492162340701733 0.027616775348895419 0.014370319820930084 0.00033727143506692806 0.028007285805766207 0.0048873258553784847 0.00055931394447844552 0.042711147696304845 -0.019192259798533912 0.02309695663692219 0.037698500170411084 0.034197290601333065 0.03650129515561349 -0.021484786962618196 -0.018108782840483846 0.03982041590288992 -0.021707157637598201 0.038499953474602125 -0.022090343655000347 0.042590275235031047 0.044549641520245466 -0.023828937631560753 -0.023732138152460173
leaf_weight=665.41445133090019 167.51282560825348 201.36085617542267 177.18082883954048 200.2586190700531 178.68582424521446 173.61733821034431 194.64536148309708 226.57412391901016 229.17944285273552 172.48576530814171 185.99324303865433 178.85673806071281 274.13412263989449 181.34023255109787 175.67079812288284 227.24173980951309 339.79089248180389 187.42344978451729 201.53827446699142 318.48496672511101 243.64840969443321 172.51788091659546 255.22335612773895 195.13782960176468 224.18072181940079 173.14756959676743 3836.6754189133644 274.9203163087368
leaf_count=1939 500 595 523 599 535 517 572 672 683 506 552 531 801 545 518 666 995 550 605 956 712 519 746 587 654 505 11560 828
internal_value=0 0.0309598 0.0350621 -0.0198242 -0.00548058 0.00544477 0.0382198 0.00244507 0.00731421 0.0401776 0.0123452 0.00727492 0.0414012 -0.0229987 0.0291796 0.0335173 0.0381466 0.0319757 -0.0172802 -0.0154169 0.0435663 -0.0234917 0.0406812 -0.020695 0.0444249 0.0434447 -0.0237374 -0.0229519
internal_weight=0 4050.02 3489.04 6182.83 1120.44 560.971 3133.01 623.266 455.754 2575.27 387.354 356.038 2175.54 5062.39 557.74 399.728 869.148 382.069 401.797 497.171 1306.39 4660.59 529.357 376.478 1062.74 397.328 4284.11 447.438
internal_count=30471 11882 10218 18589 3346 1664 9164 1855 1355 7524 1147 1054 6352 15243 1640 1172 2542 1122 1204 1491 3810 14039 1547 1132 3098 1159 12907 1347
is_linear=0
shrinkage=0.024


Tree=6
num_leaves=32
num_cat=0
split_feature=641 631 595 600 641 10 640 631 638 631 600 558 631 225 641 511 428 638 317 641 641 186 622 638 605 619 641 18 641 627 108
split_gain=8942.55 1153.51 521.626 345.555 177.125 121.245 102.547 98.8062 90.4201 39.204 30.511 27.8809 25.2124 31.6095 24.9513 23.3396 21.216 13.8634 13.8281 13.6199 11.4812 6.63295 3.83138 3.75102 2.59181 4.76492 1.15293 0.46414 0.24821 0.230853 0.134333
threshold=52.924099830331734 36.677649864045271 3.6273394140029509e-05 95.030902544049738 50.702937238403536 0.00090779343901393778 60.229157294378822 10.084927448395758 0.00011494226421804311 89.634524643337969 57.211667150616087 17.989107990854922 -25.58173083665066 -0.0015226604140698801 50.381193504638595 52.402783983378328 98.402283820331093 -2.9559117566080314e-05 0.00028972172712413217 59.584342493631731 56.663042108041864 35.000000000000007 0.13144850718068277 -0.00014619232735146867 -0.0010018184369484128 -7.4999999999936215e-05 62.245536327038167 -0.0011247936645333836 45.714626062799368 -0.00014653033956649818 -0.0022324322177655009
decision_type=2 2 2 2 2 2 2 2 2 2 2 2 2 2 2 2 2 2 2 2 2 2 2 2 2 2 2 2 2 2 2
left_child=2 7 14 8 12 10 16 15 -3 11 -6 -10 -4 -14 23 -2 -5 -16 -11 21 -18 -8 -21 28 27 -26 -24 30 -1 -30 -25
right_child=1 3 4 6 5 -7 19 -9 9 18 -12 -13 13 -15 17 -17 20 -19 -20 22 -22 -23 26 24 25 -27 -28 -29 29 -31 -32
leaf_value=-0.022740527074157524 -0.0149266046741574 0.0098011777997177637 -0.019171231826181443 0.024906088836890286 0.005747270276842761 -0.011640785229652822 0.043360309638436227 0.010403978974523501 0.016009988200825845 0.02742306284278595 0.018495898907678075 0.029096202358259188 -0.015421315701586509 -0.0023072325604050954 -0.019843413075583856 -0.0026014507736001591 0.030556930321290397 -0.011386793605039238 0.036485369544792451 0.041782081474874555 0.038707381652892399 0.037234239658223069 0.044452936811850433 -0.021859148028222527 -0.02139620144330057 -0.016285433077899841 0.046241579010608526 -0.021038793575568197 -0.022476881729939918 -0.021437414592597317 -0.022800531458549881
leaf_weight=2508.6202197372913 187.55017119646072 219.26539209485054 240.16971305012703 175.31510853767395 228.4103856086731 180.07129749655724 185.44542369246483 258.02887645363808 213.61354899406433 171.79621270298958 205.46829414367676 167.35857781767845 232.5050567984581 194.46145105361938 268.72276729345322 167.668626755476 186.44149813055992 191.36302611231804 223.72642514109612 175.15273621678352 214.77420455217361 228.24434638023376 318.72537326812744 156.7702673971653 305.9212783575058 160.88845899701118 655.26336923241615 203.80750277638435 513.85923594236374 179.32008111476898 272.18367859721184
leaf_count=8010 591 674 762 530 706 564 552 794 651 519 629 503 730 607 852 522 562 601 674 520 642 680 945 500 974 511 1937 649 1641 572 867
internal_value=0 0.0292039 -0.0179831 0.0350923 -0.00438839 0.00491389 0.0405284 -0.000898726 0.0234127 0.0272559 0.0117851 0.0217593 -0.0129494 -0.00944908 -0.0216407 -0.00910962 0.0318757 -0.0163266 0.0325497 0.0437203 0.0349205 0.039981 0.0450662 -0.0222091 -0.0209967 -0.0196353 0.0456565 -0.0220006 -0.0226254 -0.0222083 -0.022457
internal_weight=0 3748.37 6042.54 3135.12 1281.09 613.95 2139.36 613.248 995.76 776.495 433.879 380.972 667.136 426.967 4761.46 355.219 576.531 460.086 395.523 1562.83 401.216 413.69 1149.14 4301.37 1099.57 466.81 973.989 632.761 3201.8 693.179 428.954
internal_count=30471 11296 19175 9389 3998 1899 6368 1907 3021 2347 1335 1154 2099 1337 15177 1113 1734 1453 1193 4634 1204 1232 3402 13724 3501 1485 2882 2016 10223 2213 1367
is_linear=0
shrinkage=0.024


Tree=7
num_leaves=45
num_cat=0
split_feature=639 643 643 643 639 338 117 643 643 624 381 622 459 643 483 508 73 66 611 643 623 90 279 459 512 643 564 490 595 493 622 512 502 570 511 606 60 548 7 623 178 639 623 564
split_gain=1372.67 2237.18 1612.76 278.114 187.649 152.265 136.025 130.825 103.941 97.0611 84.1021 83.8667 78.5341 55.8898 40.1105 39.1445 38.3014 35.5694 34.513 33.3215 30.3882 28.0368 25.6889 24.4067 19.6678 18.6456 17.9743 17.5611 17.3415 26.0217 14.4775 11.7984 10.5246 9.13446 7.45291 5.54497 5.25525 5.01645 4.19125 3.32045 1.59895 1.37391 0.495582 0.419966
threshold=-102.20080879530165 84.80245328881459 -58.611747032177924 56.523982691677638 131.18617340398848 59.316700457918664 -10.091008567314425 -32.729227679546717 -94.111072681941451 -0.00048685479387119491 -37.01018225825797 0.026842577249105385 38.860435720935349 -41.165369299766617 0.0015699107262316782 -73.615371506475256 -81.788726886767051 0.00021947546698000689 54.853042338450884 142.46110735836137 50.299664975358901 -0.0016450000000000074 46.356703785263832 -55.232040642512438 58.342897234017947 146.00628507242575 -31.185457255402277 0.00059500000000001229 -8.7878534102636672e-05 0.048871703263298268 -0.097497631269710006 56.43097551114311 -72.057807341525788 51.018479982660565 61.018937370435829 -0.0018650000000000053 -0.00021999999999999795 4.7357786675084064e-05 0.00012301363657862832 56.233773645188968 -0.00012748805680673489 -144.7452621100152 43.450811988251608 -26.271186440676782
decision_type=2 2 2 2 2 2 2 2 2 2 2 2 2 2 2 2 2 2 2 2 2 2 2 2 2 2 2 2 2 2 2 2 2 2 2 2 2 2 2 2 2 2 2 2
left_child=8 2 9 5 11 6 10 23 30 16 13 -3 -5 -4 -7 -10 -2 28 27 21 32 -13 38 -8 25 -6 -23 -14 -9 33 35 37 36 -30 -28 41 -18 -16 -15 -26 -41 42 -1 -42
right_child=1 4 3 12 24 14 7 17 15 -11 -12 19 18 22 31 -17 20 -19 -20 -21 -22 26 -24 -25 39 -27 34 -29 29 -31 -32 -33 -34 -35 -36 -37 -38 -39 -40 40 43 -43 -44 -45
leaf_value=-0.02399994921282933 -0.0046203892132628977 0.0070213018503639223 0.020682190392253191 0.017316247473400732 -0.009919792526768478 0.0229908262523741 -0.0045296099847521787 0.0098773081853732389 -0.014335247901227192 0.0030746631112194322 0.011177459924165826 0.00094533954100394597 0.01267597889879951 0.039952946405076135 0.032557709880498588 0.0010109200236483927 -0.021191152162581509 0.027186458480139123 -0.0054137568244496713 -0.016605300494401294 -0.0069577710809342417 -0.0044639693863817772 0.026447333316602106 0.0082695502188899293 -0.019321505174435184 -0.020273556243987932 -0.0098827488551629233 0.0025956418112612943 0.025350391862813619 0.011960600900790904 -0.016112707361862731 0.028609060097130958 -0.012653552237152766 0.018144574285760294 -0.016663242950192128 -0.019408625771153251 -0.016147695343522162 0.037482508241973668 0.03485857543408788 -0.02077616296203505 -0.022381136061420219 -0.021598018845637557 -0.022491408597301824 -0.023816660264129316
leaf_weight=582.0007658302784 261.64030233025551 191.32910773158073 274.43606013059616 341.84357944130898 172.33229100704193 268.52997198700905 170.68603646755219 174.11050948500633 209.95580732822418 277.97843998670578 173.77708783745766 175.98007497191429 173.1439753472805 194.42795610427856 186.17458474636078 175.94248795509338 312.01727566123009 235.66971188783646 194.24142029881477 327.82452580332756 206.35614487528801 216.77944225072861 179.21882456541061 172.566177546978 188.53091707825661 239.70953464508057 194.13981303572655 234.36711290478706 222.02691456675529 229.83052587509155 263.32219132781029 180.94590097665787 191.7341320514679 187.09253406524658 180.4082425236702 297.97349140048027 193.32705572247505 336.36495727300644 180.91943755745888 167.19627052545547 167.6707721054554 251.48191213607788 168.09861105680466 459.48782676458359
leaf_count=1746 772 559 793 989 509 773 500 504 623 812 503 517 503 557 534 518 929 677 568 975 607 638 515 500 562 714 572 684 638 663 783 518 566 538 536 891 575 959 518 500 501 752 503 1377
internal_value=0 0.0038553 0.0122934 0.0196456 -0.01425 0.022873 0.019621 0.0147658 -0.0184933 -0.00966742 0.0263604 -0.00763851 0.00812977 0.0295428 0.0308847 -0.00733785 -0.0127078 0.0189752 0.00291071 -0.0101999 -0.0150497 -0.00746298 0.0339272 0.00190432 -0.0203473 -0.0159438 -0.00996571 0.00687918 0.0165948 0.0184249 -0.0212476 0.0338975 -0.0174448 0.0220557 -0.0131493 -0.0222878 -0.0192622 0.0357283 0.0374981 -0.0221931 -0.0228743 -0.0231442 -0.0236622 -0.0234333
internal_weight=0 8434.82 5753.43 4310.37 2681.39 3366.78 2394.76 1391.98 1948.78 1443.05 1002.78 1286.46 943.596 829.002 972.015 385.898 1165.07 1048.73 601.753 1095.13 903.435 767.308 554.566 343.252 1394.93 412.042 591.327 407.511 813.06 638.95 1562.88 703.485 697.078 409.119 374.548 1299.55 505.344 522.54 375.347 982.886 794.355 1001.58 750.099 627.159
internal_count=30471 24655 16695 12434 7960 9690 6906 4020 5816 4261 2886 3797 2744 2383 2784 1141 3449 3020 1755 3238 2677 2263 1590 1000 4163 1223 1746 1187 2343 1839 4675 2011 2070 1176 1108 3892 1504 1493 1075 2940 2378 3001 2249 1878
is_linear=0
shrinkage=0.024


Tree=8
num_leaves=28
num_cat=0
split_feature=600 631 635 623 631 636 623 598 635 631 618 631 623 637 634 630 613 610 635 288 635 623 96 182 637 571 596
split_gain=10179.9 742.614 686.135 191.958 264.122 191.456 55.4228 53.2597 52.2169 50.016 46.7356 44.252 36.3337 19.9872 17.4372 17.3829 9.85368 9.88735 5.31764 4.69544 3.49532 2.83185 2.01933 1.83849 0.931158 0.684138 0.255675
threshold=-48.504345011856252 -20.126058055565377 -1.0000000180025095e-35 50.38767302546762 0.82005331880524424 -0.00018545311423845409 48.976936952173041 50.668501363626483 -6.961882789580097e-05 -64.119392406811002 0.00023190932132963543 -111.25934922489492 52.950783526210692 -67.007934677791624 -0.00051332123793568208 0.00020000000000008902 43.693506053720647 49.019508875146421 6.4502734279270349e-05 -71.586863106200397 6.8662162791666162e-05 45.328403746105941 0.001300760657956147 3.8995835483055713e-05 -54.884389200751379 -46.428571428571423 1.5146560975674626
decision_type=2 2 2 2 2 2 2 2 2 2 2 2 2 2 2 2 2 2 2 2 2 2 2 2 2 2 2
left_child=1 5 3 4 8 9 11 15 -2 14 -3 -7 -5 -11 21 -4 23 19 -17 -18 22 25 -9 -16 -22 -1 -26
right_child=2 10 7 12 -6 6 -8 20 -10 13 -12 -13 -14 -15 16 18 17 -19 -20 -21 24 -23 -24 -25 26 -27 -28
leaf_value=0.043142901671778103 0.023683202166425901 0.012923865966619819 -0.012025781868325279 -0.0080924913657445634 -0.012591540491659056 0.036414513380893423 0.011843256770495402 -0.018973835982030791 0.0070064268535110852 0.036072407995065718 -0.0013987385690922261 0.020024330424836582 -0.020820819673325615 0.027213652378538688 0.041954967762406752 -0.015883551335686197 0.036162911049186716 0.031856101059912136 -0.021244118590242517 0.041040664562003372 -0.022144172865243009 0.039492131948444781 -0.022684859369901705 0.038728422930532684 -0.022796135860819966 0.041444766106189357 -0.023572087886525029
leaf_weight=615.98136833310127 268.54335969686508 234.64726570248604 313.9290908575058 308.37304830551147 284.17778232693672 183.48069527745247 182.54008916020393 167.20043250918388 181.1436148583889 311.54141041636467 297.68306902050972 196.71061009168625 222.41804248094559 277.95049154758453 255.88432946801186 166.10404670238495 312.89271733164787 223.80016657710075 300.02997151017189 180.43072336912155 317.80297216773033 193.41134741902351 173.66466969251633 174.06395000219345 285.40333494544029 187.54081225395203 3405.6603502035141
leaf_count=1762 786 693 947 924 853 530 536 508 538 899 883 574 672 806 734 502 900 646 911 519 968 555 529 500 870 537 10389
internal_value=0 0.0312169 -0.0182657 -0.00243191 0.00551995 0.0354646 0.0227155 -0.0221692 0.016966 0.0380892 0.00491411 0.0279349 -0.0134265 0.0318958 0.0397919 -0.0163934 0.0377721 0.0360468 -0.0193344 0.0379474 -0.0232049 0.0421157 -0.0208652 0.0406493 -0.0234038 0.0427469 -0.0235122
internal_weight=0 3828.56 6394.45 1264.66 733.865 3296.23 562.731 5129.79 449.687 2733.5 532.33 380.191 530.791 589.492 2144.01 780.063 1147.07 717.124 466.134 493.323 4349.73 996.934 340.865 429.948 4008.87 803.522 3691.06
internal_count=30471 11074 19397 3773 2177 9498 1640 15624 1324 7858 1576 1104 1596 1705 6153 2360 3299 2065 1413 1419 13264 2854 1037 1234 12227 2299 11259
is_linear=0
shrinkage=0.024


Tree=9
num_leaves=31
num_cat=0
split_feature=644 631 644 644 623 644 631 623 636 631 631 631 623 631 244 596 631 611 10 644 422 623 631 492 632 636 644 425 575 636
split_gain=8769.64 745.479 481.826 271.699 178.026 123.194 98.3114 123.89 64.3551 62.7112 45.1344 41.748 37.8655 57.7598 28.4586 21.7051 16.3624 13.5312 9.2619 6.16549 5.39311 2.7313 3.85186 2.34972 1.76937 0.744696 0.672013 0.315319 0.242532 0.248448
threshold=7.8185361074426787 48.197719858716134 2.3890561333521805 19.618860735539929 49.208985933066884 18.114947033345498 -4.7165125750577239 49.553391032089898 -6.7253512819886993e-05 115.45531302256967 77.859416284673699 1.6365220023744098 50.927258275215543 -8.7081401988099376 83.162057144355117 128.489597312504 109.05601404683387 52.707893425089352 0.0012421514853600618 24.579604186810801 -55.844155844154734 50.616078030442033 -33.708468677731638 -9.5000000000067239e-05 -14.879911126711402 -0.00010814810252435246 30.57468401486349 44.999562563852535 0.00027265020269427704 -0.00025796296237989841
decision_type=2 2 2 2 2 2 2 2 2 2 2 2 2 2 2 2 2 2 2 2 2 2 2 2 2 2 2 2 2 2
left_child=2 5 8 4 -3 11 -4 -8 21 14 -9 -2 20 -14 -6 16 -5 -11 -13 -17 -10 25 27 -22 -21 28 -26 -23 -1 -30
right_child=1 3 6 15 9 -7 7 10 12 17 -12 18 13 -15 -16 19 -18 -19 -20 24 23 22 -24 -25 26 -27 -28 -29 29 -31
leaf_value=-0.022472960843958053 -0.00772523734464357 0.0027345571167304182 -0.014259298471816628 0.032452099642645685 0.019086888227119212 0.023453367916201683 -0.011889642990727678 0.0032616020243486331 -0.015386071543629781 0.030586224385563045 0.018378693188515153 0.010408035934975862 -0.017456682246445629 0.001500300903859332 0.029982923422406108 0.038844646441416865 0.040420390715193183 0.038583090012463968 0.0024100540055132708 0.041075646420866169 -0.021447469342756525 -0.022465460503382356 -0.017286717465787211 -0.017999074889233975 0.042641472663653618 -0.021061471994283824 0.044264095924989012 -0.021001544654424473 -0.022421233473590926 -0.02104386886936108
leaf_weight=2923.8288144469261 192.27415955066681 166.74650889635086 279.50131893157959 273.69620987772942 316.28833281993866 196.51277327537537 228.04928740859032 267.0168933570385 192.35635286569595 200.55675762891769 198.26726147532463 162.93457686901093 215.49849221110344 162.26634654402733 245.33931294083595 225.00742590427399 325.6674824655056 312.39606714248657 171.04861190915108 173.04609623551369 302.11582708358765 195.83428910374641 157.34019342064857 184.71380040049553 218.24680525064468 264.84997779130936 534.86043265461922 165.27895069122314 167.09846460819244 156.96591311693192
leaf_count=9465 603 510 888 807 949 592 717 826 615 594 602 501 691 506 733 657 951 920 524 504 972 632 502 593 634 854 1549 533 540 507
internal_value=0 0.0291137 -0.0177186 0.0343982 0.025809 0.00723858 -0.00224281 0.00260102 -0.0206775 0.0293893 0.00970382 0.00118326 -0.0154055 -0.0093132 0.0238471 0.0404888 0.0367821 0.0354569 0.00631261 0.0424185 -0.0187937 -0.0220597 -0.0204281 -0.0201396 0.0432865 -0.0223004 0.0437942 -0.0217961 -0.0224014 -0.0217548
internal_weight=0 3714.62 6060.98 2991.85 1241.33 722.77 972.835 693.333 5088.15 1074.58 465.284 526.257 1056.95 377.765 561.628 1750.52 599.364 512.953 333.983 1151.16 679.186 4031.2 518.453 486.83 926.153 3512.74 753.107 361.113 3247.89 324.064
internal_count=30471 11028 19443 8808 3706 2220 3033 2145 16410 3196 1428 1628 3377 1197 1682 5102 1758 1514 1025 3344 2180 13033 1667 1565 2687 11366 2183 1165 10512 1047
is_linear=0
shrinkage=0.024


Tree=10
num_leaves=44
num_cat=0
split_feature=600 644 640 644 640 637 639 268 631 510 440 631 638 639 631 644 631 631 322 637 631 600 638 640 553 644 644 40 528 623 640 191 553 639 503 639 618 143 508 623 608 173 521
split_gain=1610.85 2560.09 372.589 311.598 235.658 229.001 177.069 134.574 111.199 144.192 109.279 88.7989 64.3086 62.7689 55.0077 52.3303 50.9631 41.8653 76.4283 41.3418 37.2052 35.4112 33.8474 33.3115 31.7296 29.1828 21.7774 16.437 11.7573 10.8385 10.5468 7.94973 7.68165 7.21383 6.96923 4.56814 4.13557 3.36748 2.09365 0.90394 0.562016 0.373798 0.16451
threshold=-71.274579601966195 13.15078595239091 58.735955492866189 -7.0224033261852421 57.412129601216485 -60.384930005710338 19.101868104837457 0.0020094357407188334 -4.7165125750577239 16.608702759653514 -0.0023344567556856919 37.365823246957753 -0.00017803126984528014 -65.038402825247033 116.19263968551743 21.768386963471997 -8.7081401988099376 53.292186316977798 49.489382813980619 -64.583333333332249 -33.708468677731638 97.054486412773343 -4.2680063433220277e-05 40.38265315646148 120.78724911843753 -2.7049655762861851 4.9257821166106952 -45.00000000000189 -24.999999999999996 46.52992731888677 63.210643805595588 0.0024499999999999526 135.91254067769333 -111.24812820186251 -24.146364954326284 118.59353953642211 -0.0011290330734857192 38.333333333333343 -85.714285714285481 56.674020175714688 -0.00085825014468166028 49.058407015801407 -77.215189873415014
decision_type=2 2 2 2 2 2 2 2 2 2 2 2 2 2 2 2 2 2 2 2 2 2 2 2 2 2 2 2 2 2 2 2 2 2 2 2 2 2 2 2 2 2 2
left_child=5 3 11 8 7 12 -6 10 9 19 22 -3 23 -12 -8 21 31 25 -19 -2 -7 -4 -5 29 -13 -15 27 -27 33 36 32 -9 -17 -25 -33 -32 40 -23 -38 -37 42 -41 -1
right_child=1 2 15 4 6 20 14 16 -10 -11 13 24 -14 17 -16 30 -18 18 -20 -21 -22 37 -24 28 -26 26 -28 -29 -30 -31 35 34 -34 -35 -36 39 38 -39 -40 41 -42 -43 -44
leaf_value=-0.023669497491699179 -0.013251625097909911 0.012811596257984472 -0.004504544402590906 0.021392389213446113 0.023688764554641775 -0.0061307374514337695 0.0065738115362926498 0.029680790840448359 0.017836128088431519 0.016793229862345393 0.0028331345564964372 0.00063177635177383295 -0.0052440974798585302 0.013087043861587466 -0.011383782157441078 -0.01353858394359728 0.021413493968025943 0.021740126260515327 0.0020203356135509525 0.0013942145268823261 0.0085029219906264161 -0.019189569624548559 0.034562053464550845 -0.019850382355254839 -0.011056927666558943 0.02110174093344469 0.017360271647774352 0.029184778142554876 -0.010052136857595479 -0.017091388155100435 -0.018577590603760703 0.038602125153245313 -0.020513886681292292 -0.014379615982134606 0.032468936140578684 -0.021215947235057115 -0.022003754945583879 -0.014627235694546326 -0.018436015709869993 -0.022208246971822845 -0.021881089108739357 -0.023548473954734514 -0.022770804519201441
leaf_weight=543.52480039000511 313.49113178253174 255.4118133187294 214.66423588991165 186.48243203759193 209.2319418489933 194.59016793966293 174.04439178109169 179.96728512644768 240.57526057958603 185.87395721673965 178.50605484843254 315.40115976333618 204.53384572267532 258.22732129693031 225.60111972689629 167.79614487290382 271.05685755610466 220.7820109128952 232.40013942122459 171.84103921055794 206.01876419782639 172.69908526539803 283.50437563657761 258.86509829759598 232.24121683835983 297.93694230914116 336.23210614919662 282.82914346456528 194.09739190340042 288.30066913366318 178.05734062194824 226.40031865239143 199.35744270682335 300.67532914876938 203.50967198610306 166.04009255766869 184.90827468037605 204.22670191526413 197.51497632265091 168.06152099370956 167.16843396425247 504.58750346302986 173.05850425362587
leaf_count=1651 928 736 634 531 601 578 506 508 691 538 517 924 605 743 665 501 775 633 672 502 600 517 801 779 689 849 962 804 579 868 535 637 601 898 573 502 559 612 595 509 507 1531 525
internal_value=0 0.0055886 -0.0126587 0.0164257 0.019473 -0.015457 0.00580147 0.022109 0.00383635 -0.00118113 0.019027 0.00112523 -0.0181438 0.0163452 -0.0035627 -0.0182621 0.0300747 0.0178262 0.011628 -0.00806549 0.00139423 -0.0122868 0.0293371 -0.0192868 -0.00432467 0.0202161 0.0222234 0.0250385 -0.0151449 -0.0212948 -0.0208163 0.0339238 -0.0173267 -0.016911 0.0356994 -0.0220762 -0.0222517 -0.0167182 -0.0201617 -0.0228187 -0.0231558 -0.023214 -0.0234528
internal_weight=0 7457.04 2778.54 4678.49 3766.71 2913.26 608.877 3157.83 911.781 671.206 2276.9 803.054 2512.65 1806.91 399.646 1975.49 880.934 1628.41 453.182 485.332 400.609 591.59 469.987 2308.11 547.642 1175.23 916.998 580.766 753.638 1554.48 1383.9 609.877 367.154 559.54 429.91 1016.75 1266.17 376.926 382.423 838.689 883.752 672.649 716.583
internal_count=30471 21727 8291 13436 10777 8744 1772 9005 2659 1968 6512 2349 7566 5180 1171 5942 2493 4663 1305 1430 1178 1763 1332 6961 1613 3358 2615 1653 2256 4705 4179 1718 1102 1677 1210 3077 3837 1129 1154 2542 2683 2040 2176
is_linear=0
shrinkage=0.024


Tree=11
num_leaves=29
num_cat=0
split_feature=643 636 643 553 203 636 493 643 643 641 607 640 641 643 609 636 640 312 240 588 641 623 399 345 508 576 592 436
split_gain=10400.3 510.07 419.611 124.804 128.638 110.327 97.3781 73.281 65.8197 39.2081 30.7114 28.4874 27.323 26.0871 25.0623 35.5795 17.0797 11.7096 6.69371 4.62448 4.10478 3.73782 3.23837 2.14214 1.51973 1.12715 1.00689 0.121515
threshold=-48.504345011856252 -7.323146317206318e-05 -71.274579601966195 39.7952171111965 -9.5596919571907044 -0.00019709145939850178 0.027610304609082002 -1.0000000180025095e-35 -24.708415255667543 46.068200563166862 -45.324311074120324 48.721997547300056 49.594153214207175 -116.37345307862576 0.00037381600114361207 -0.00019709145939850178 37.422061536419513 48.306457377319042 -0.00026568373211291739 -103.01040201031628 51.604876234525328 46.353251088577238 -39.285714285714285 14.775744681614638 -81.377034619518753 -0.0010999999999999897 -1.9657283171659042e-05 -0.00085211265635753975
decision_type=2 2 2 2 2 2 2 2 2 2 2 2 2 2 2 2 2 2 2 2 2 2 2 2 2 2 2 2
left_child=2 3 5 4 -2 10 14 11 -6 13 16 -3 -9 -7 15 -4 21 22 -13 -19 23 25 24 -14 -18 27 -22 -1
right_child=1 7 6 -5 8 9 -8 12 -10 -11 -12 18 20 -15 -16 -17 17 19 -20 -21 26 -23 -24 -25 -26 -27 -28 -29
leaf_value=0.04144360796504027 -0.010590101547218416 -0.0082005896975123338 0.029921719285399946 -0.020152993499714115 0.019999057457979079 0.036188819055740874 0.0015326198913665776 -0.014808858886403625 0.0015991062300808559 0.016369877670894168 0.029788799234048077 -0.021780612441624599 -0.01902361569564873 0.023774353157912282 0.012956043697514616 0.015746292716993026 0.040201322208403778 0.035241425382341408 -0.015126580320040701 0.029921393634953008 -0.021575768985998403 0.037040332679251747 0.035267549103580993 -0.022194592539867958 0.037501742136298151 0.039157337894753307 -0.023283967146138479 0.040693967444651903
leaf_weight=589.03129631280899 270.43209606409073 285.2777723968029 237.29197970032692 174.22571861743927 213.82953453063965 193.26176050305367 207.98848336935043 251.67926907539368 235.16816690564156 179.70325377583504 276.13219082355499 173.08525121212006 208.11878621578217 197.13788515329361 173.07780832052231 179.03953996300697 269.71454882621765 196.80313402414322 176.06016951799393 182.41761967539787 213.92907786369324 176.7605265378952 189.68009528517723 305.01714810729027 225.04564395546913 190.42738646268845 3816.6079217791557 219.24780207872391
leaf_count=1658 812 862 683 529 626 551 614 766 700 522 788 529 638 568 505 523 763 558 535 519 657 500 538 938 638 538 11795 618
internal_value=0 -0.0187294 0.0311726 -0.00192735 0.00248606 0.0351837 0.0156525 -0.0214947 0.0103624 0.0256497 0.0373445 -0.0138283 -0.022509 0.0299206 0.0206347 0.0238263 0.0382762 0.0360705 -0.0184259 0.0326829 -0.0229354 0.0402719 0.0379471 -0.020909 0.0389739 0.0408436 -0.0231934 0.0412406
internal_weight=0 6323.43 3882.76 893.656 719.43 3085.36 797.398 5429.78 448.998 570.103 2515.26 634.423 4795.35 390.4 589.409 416.332 2239.13 1063.66 349.145 379.221 4543.67 1175.47 684.44 513.136 494.76 998.706 4030.54 808.279
internal_count=30471 19387 11084 2667 2138 8759 2325 16720 1326 1641 7118 1926 14794 1119 1711 1206 6330 3016 1064 1077 14028 3314 1939 1576 1401 2814 12452 2276
is_linear=0
shrinkage=0.024


Tree=12
num_leaves=33
num_cat=0
split_feature=640 596 635 600 637 640 502 634 498 640 600 640 137 467 614 640 373 168 450 640 596 18 611 640 550 601 619 640 279 640 596 451
split_gain=7713.33 915.685 809.578 366.66 115.16 106.915 94.5562 86.409 69.7241 68.1877 59.7183 51.8371 27.0004 23.9017 19.9679 19.4878 16.8334 14.2675 13.8312 7.76166 7.39763 7.1197 4.61377 3.78441 2.63805 2.28658 1.53933 0.780171 0.674421 0.533294 0.320641 0.102314
threshold=54.813315614068948 -21.119691169706897 0.00011403208921922926 95.030902544049738 -49.33205863607315 59.694815771973019 46.918609530906458 7.5267794251709938e-06 -0.00013575250577564318 60.229157294378822 66.126468945282042 48.437718485000453 50.3299330750094 138.99441370926505 -1.0000000180025095e-35 61.924079198428409 86.639184430160313 52.165632839723678 0.10917093766423931 51.743841687909715 129.32362390374544 -0.00099275178433402074 53.982713099927246 45.178235033342197 -4.3593774497474584e-05 24.796209588611067 -0.00045499999999998314 49.179597283510958 46.855570237535254 65.781205183678722 29.089147812611227 51.27265835938401
decision_type=2 2 2 2 2 2 2 2 2 2 2 2 2 2 2 2 2 2 2 2 2 2 2 2 2 2 2 2 2 2 2 2
left_child=2 8 7 5 14 6 -3 19 -2 13 17 23 -13 -5 -4 -7 -12 -6 -8 24 22 -21 -11 -9 27 -22 -26 30 -29 -27 31 -1
right_child=1 3 4 9 10 15 18 11 -10 20 16 12 -14 -15 -16 -17 -18 -19 -20 21 25 -23 -24 -25 26 29 -28 28 -30 -31 -32 -33
leaf_value=-0.022288766028748287 -0.018032505155316712 0.0052034779915372097 -0.013361070181709954 0.026435413522976958 -0.0039331005590598125 0.024168574962131564 0.018539388318956591 -0.020801980310615819 0.003197739674554027 0.035199952787230343 0.0097144165799305758 -0.012747626904355566 0.00058188431992219135 0.037037718424197751 -0.0022049883759727245 0.034349699622845759 0.020215176912841235 0.0057514479903117057 0.028255949164066523 -0.021648398429513684 0.039579289558162332 -0.014480398121484205 0.039758182563620771 -0.015995388650218115 -0.021151740574223844 0.041065054031844364 -0.018212144727565605 -0.022082021556632359 -0.019954613074007217 0.042473163239625897 -0.021126228330630985 -0.021639310297911631
leaf_weight=2868.09217903018 196.1700165271759 319.33682858943939 199.3782953619957 337.7840128839016 161.10506731271744 194.0482342839241 168.36546194553375 220.27789440751076 163.22831666469574 219.08154946565628 165.78469651937485 172.52660495042801 177.60803732275963 192.46300753951073 172.36148348450661 245.74677708745003 187.55594033002853 192.0679976940155 169.65047097206116 155.68683642148972 307.67567056417465 164.4889889061451 312.43176844716072 166.23809489607811 299.34927275776863 238.0002301633358 158.72517523169518 171.5981320142746 180.88096728920937 539.0196385383606 162.51644369959831 175.11917611956596
leaf_count=9419 626 978 633 992 504 573 504 718 501 631 504 547 558 556 537 718 562 594 502 508 882 529 896 535 981 679 517 562 588 1533 529 575
internal_value=0 0.0279576 -0.0162619 0.031985 0.0026235 0.0206981 0.0145693 -0.0202759 -0.00838967 0.0377541 0.00831299 -0.0126756 -0.00598546 0.0302842 -0.00818907 0.0298581 0.015289 0.00133302 0.0234168 -0.021567 0.0402048 -0.0179666 0.0378798 -0.0187353 -0.021854 0.0413438 -0.0201337 -0.0220753 -0.020991 0.0420422 -0.0221945 -0.0222515
internal_weight=0 3603 6151.36 3243.6 1078.25 1097.15 657.353 5073.11 359.398 2146.46 706.514 736.651 350.135 530.247 371.74 439.795 353.341 353.173 338.016 4336.46 1616.21 320.176 531.513 386.516 4016.28 1084.7 458.074 3558.21 352.479 777.02 3205.73 3043.21
internal_count=30471 10571 19900 9444 3334 3275 1984 16566 1127 6169 2164 2358 1105 1548 1170 1291 1066 1098 1006 14208 4621 1037 1527 1253 13171 3094 1498 11673 1150 2212 10523 9994
is_linear=0
shrinkage=0.024


Tree=13
num_leaves=45
num_cat=0
split_feature=638 638 637 182 637 311 638 637 623 637 637 597 638 638 107 311 603 623 553 638 637 132 545 619 83 182 642 623 422 70 61 8 619 611 638 623 611 422 311 558 624 623 613 256
split_gain=1443.74 2029.85 333.172 312.041 260.41 243.487 198.18 193.121 150.329 138.361 128.868 92.8042 85.7488 75.4609 74.2177 58.922 56.7497 51.4628 36.2615 34.8067 34.2608 30.9465 28.27 20.1985 19.7515 24.3515 19.7505 18.1669 16.8286 15.5338 15.2767 15.1258 13.0743 12.4907 8.79104 7.67472 6.45656 4.85976 3.61587 2.15113 1.2942 0.901297 0.245078 0.179838
threshold=-0.00022538696089957619 0.00029790818237129818 -30.800500773253241 0.0025356606201078157 -63.754194630872625 -0.002638670439664511 -0.00012742024791434489 -22.580645161295596 50.26893986701922 -37.33057851239473 -51.158953104614213 60.768388483129705 0.00018511279190347454 -6.8732749555988612e-05 42.965187700509915 0.00067797352434155933 3.5424416756240054 50.039885200248257 124.67821109329867 0.00015081012602724544 -38.814902823096141 -0.0019988051599091009 -48.837810644129682 0.00039500000000003427 -41.361704867371536 -0.00097627295985516034 -24.151742884552196 53.964074569942618 -57.672699135964109 0.00033899297353515151 0.00066376777798033304 45.490970620393874 -0.00086500000000000455 48.653440983069125 0.00044919668932474904 45.234832266635685 48.388460776304989 -78.19144635783347 0.0043721344219161485 22.93875393033051 -0.0034888604652164993 56.9019655953607 46.50499057130525 123.4350320566304
decision_type=2 2 2 2 2 2 2 2 2 2 2 2 2 2 2 2 2 2 2 2 2 2 2 2 2 2 2 2 2 2 2 2 2 2 2 2 2 2 2 2 2 2 2 2
left_child=4 3 20 5 17 10 16 12 -9 26 -2 18 13 28 -6 21 33 22 -4 -10 -3 -15 32 -12 25 -23 29 -13 -8 -5 -17 -25 35 -7 -29 40 -37 -34 -31 -36 42 -41 -1 -43
right_child=1 2 11 9 14 6 7 8 19 -11 23 27 -14 15 -16 30 -18 -19 -20 -21 -22 24 -24 31 -26 -27 -28 34 -30 38 -32 -33 37 -35 39 36 -38 -39 -40 41 -42 43 -44 -45
leaf_value=-0.023395173627807263 0.0047720426571350926 0.012526984526385357 -0.0034220461765531313 0.027512330479428172 0.01284343435142884 -0.014094729422694007 0.011366071924706107 0.017649359624059138 -0.00043396863548240272 0.0091806801322195982 0.022063979115186119 -0.013606827544779744 0.0022211674645549297 0.022673217272408817 -0.0064043061427256128 0.020332412041436609 0.0065153917319169382 -0.0057179675598489754 -0.01589049484037559 -0.014222029953330422 -0.00084595594364705482 0.016130341644894953 -0.01107341724332819 0.03584213895345105 0.019420568931063743 0.005531291839933331 0.023461295951410728 -0.016870781100143999 0.0015802982901619046 0.033003769185595569 0.029049717613016172 0.026458715228798654 -0.01869912094542818 -0.005522651169009434 -0.01982749071341507 -0.021213643334102417 -0.015489526735178593 -0.013566748719261557 0.037676537345055855 -0.020983138813702125 -0.02110762447782592 -0.022353663935110717 -0.022302642318391189 -0.023269241097384648
leaf_weight=589.39059090614319 173.3006971180439 233.1545398235321 333.49271601438522 223.14548853039742 184.29084721207619 203.01763987541199 229.09188178181648 174.97241467237473 176.72443529963493 225.60764759778976 200.62541133165359 222.22014680504799 298.80227157473564 236.93700098991394 308.6337853372097 194.11058768630028 173.77864980697632 169.99162426590919 225.06612467765808 261.64588126540184 209.44344946742058 222.62529653310776 209.80750295519829 209.8207091987133 181.07393845915794 284.5366225540638 177.87001651525497 235.26885452866554 181.46617957949638 181.94034957885742 287.99587288498878 187.87749302387238 290.32910001277924 189.36555758118629 206.54159560799599 288.4572497010231 187.8947359919548 168.38455939292908 203.98442333936691 165.04646852612495 236.15868723392487 196.53296720981598 162.82305392622948 449.39346766471863
leaf_count=1814 503 673 985 629 538 606 660 503 514 655 567 668 866 672 912 550 504 504 676 779 616 634 630 588 515 812 501 712 528 509 813 531 881 560 629 880 569 509 568 504 723 601 500 1380
internal_value=0 0.00514537 -0.0126718 0.0138295 -0.0150402 0.0108619 0.00802075 0.0107007 -0.00115706 0.0257515 0.0229979 -0.0167789 0.0141369 0.0160954 0.000791403 0.0187366 -0.0049015 -0.0184285 -0.00844652 -0.00866406 0.00619818 0.015191 -0.0194412 0.0282765 0.0126147 0.0101844 0.0305019 -0.019934 0.00704136 0.0325576 0.0255404 0.0314099 -0.0203539 -0.00995842 -0.0210562 -0.0214618 -0.0189563 -0.0168157 0.0354742 -0.0220237 -0.0226691 -0.0225827 -0.023159 -0.022991
internal_weight=0 7556.48 2476.16 5080.32 2796.16 4067.77 3296.14 2729.98 613.343 1012.55 771.624 2033.56 2116.64 1817.84 492.925 1407.28 566.162 2303.24 558.559 438.37 442.598 925.173 2133.25 598.324 688.236 507.162 786.94 1475 410.558 609.07 482.106 397.698 1923.44 392.383 1252.78 1464.72 476.352 458.714 385.925 1017.51 988.372 810.973 752.214 645.926
internal_count=30471 22011 7444 14567 8460 11705 9516 7846 1796 2862 2189 6155 6050 5184 1450 3996 1670 7010 1661 1293 1289 2633 6506 1686 1961 1446 2207 4494 1188 1706 1363 1119 5876 1166 3826 4486 1449 1390 1077 3114 3037 2485 2314 1981
is_linear=0
shrinkage=0.024


Tree=14
num_leaves=28
num_cat=0
split_feature=643 643 502 493 643 643 510 199 641 640 641 638 641 594 396 638 354 197 302 619 44 610 641 640 638 350 489
split_gain=9874.05 497.689 332.692 176.15 139.106 101.671 64.4532 105.06 39.2538 37.5821 32.8299 32.4138 23.1185 22.5561 11.6211 11.2599 9.95085 8.63014 6.37159 5.50997 2.70794 2.61781 2.5501 0.886046 0.266427 0.182417 0.105057
threshold=-48.504345011856252 1.0000000180025095e-35 -43.636009766765987 -0.026247456171920171 -64.861542987534449 -89.707159986830874 15.856047854277655 -0.00013239547856602114 49.594153214207175 41.009442879206681 47.038066370337283 -1.5762480371050987e-05 43.298401751111662 -67.007934677791624 49.746172003904341 3.9587994559164849e-06 0.0016384698466209017 -0.00018601642266345136 -79.115923664589943 -0.00084999999999990628 -73.235766714416812 48.307995693248778 50.782614935503233 36.394482175620816 0.00018511279190347454 -0.00047145997836450787 -0.00098690227842342863
decision_type=2 2 2 2 2 2 2 2 2 2 2 2 2 2 2 2 2 2 2 2 2 2 2 2 2 2 2
left_child=2 3 5 6 9 12 7 -2 -3 -4 13 -5 19 18 20 16 -10 -13 -7 21 -14 23 -17 26 25 -24 -1
right_child=1 8 4 11 -6 10 -8 -9 15 -11 -12 17 14 -15 -16 22 -18 -19 -20 -21 -22 -23 24 -25 -26 -27 -28
leaf_value=0.039906122828680432 -0.0041652661729979171 -0.013098995485764514 0.030593862969749027 -0.0073298199100224415 0.0043930250790452522 0.036247755884827745 -0.007499504890417192 0.020821491660831783 -0.014066516137625506 0.018755354845866497 0.018983265274512558 -0.020535962988126752 0.036951199445311583 0.023091624719585299 0.027578371347004617 -0.02038996727056543 -0.022278389053384227 -0.013711216017363956 0.030219324002770429 0.034931487640254645 0.032984793465693503 0.036237013005809636 -0.02200755231450149 0.038253820384609089 -0.02309191091692693 -0.022811616005769027 0.039150947470137067
leaf_weight=612.27229022979736 170.6681812107563 270.53018116950989 281.08800858259201 328.27454826235771 308.86176016926765 186.10789281129837 174.23395097255707 224.28376191854477 165.08180591464043 343.26533582806587 223.72569659352303 228.87643575668335 194.98194316029549 198.1372184753418 180.96607118844986 233.83972638845444 175.75755152106285 200.60121822357178 222.88504698872566 247.14689266681671 206.16702449321747 192.16392305493355 232.66312021017075 347.14635503292084 3069.9151140749454 782.11042332649231 180.74953263998032
leaf_count=1700 510 828 796 989 907 524 523 655 503 984 644 707 547 566 510 726 543 615 630 691 579 536 727 967 9614 2447 503
internal_value=0 -0.0184771 0.03008 -0.00542996 0.0175682 0.0339817 0.0046591 0.0100235 -0.0219888 0.0240855 0.0268452 -0.0130087 0.0367247 0.0297419 0.0326335 -0.0225049 -0.0183018 -0.0173488 0.0329631 0.0382324 0.0349133 0.0388445 -0.0228366 0.0392838 -0.0229766 -0.0226275 0.0397343
internal_weight=0 6256.84 3925.66 1326.94 933.215 2992.45 569.186 394.952 4929.9 624.353 830.856 757.752 2161.59 607.13 582.115 4659.37 340.839 429.478 408.993 1579.48 401.149 1332.33 4318.53 1140.17 4084.69 1014.77 793.022
internal_count=30471 19387 11084 3999 2687 8397 1688 1165 15388 1780 2364 2311 6033 1720 1636 14560 1046 1322 1154 4397 1126 3706 13514 3170 12788 3174 2203
is_linear=0
shrinkage=0.024


Tree=15
num_leaves=31
num_cat=0
split_feature=644 644 644 607 639 641 641 354 637 637 196 37 622 641 637 557 611 641 644 639 356 644 609 8 137 641 57 383 385 41
split_gain=7925.29 600.796 461.027 257.335 118.617 98.294 94.9221 83.3481 79.6381 60.8534 49.4615 43.662 31.2377 30.5341 26.7438 22.1659 12.1087 11.6744 9.86749 7.66401 4.69944 2.2639 1.97271 3.46255 1.05437 0.859575 0.705371 0.392132 0.124401 0.107905
threshold=7.8185361074426787 19.017864245344583 2.3890561333521805 -44.038216173523729 -1.773122969450462 51.74941337386155 50.381193504638595 0.0011248535405781709 -30.612244897959496 -47.954809822013594 0.00038645054802480695 72.814214072710868 0.031734891156372728 52.775245403320262 -22.406902397583568 95.030902544049738 52.685175878951995 60.280017769363845 -1.6407624998999157 -12.004742731075249 67.857142857142875 -7.7778690985193739 0.00017227103537109659 48.110664776084583 47.435236258394461 62.245536327038167 58.333333333333343 51.531349076863549 114.20150569176833 102.29668625597465
decision_type=2 2 2 2 2 2 2 2 2 2 2 2 2 2 2 2 2 2 2 2 2 2 2 2 2 2 2 2 2 2
left_child=2 3 5 9 -5 18 -4 13 -3 -2 14 -7 -11 -8 -6 -10 -16 20 21 24 -17 27 26 -24 -20 -19 -23 29 -27 -1
right_child=1 8 6 4 10 11 7 -9 15 12 -12 -13 -14 -15 16 17 -18 25 19 -21 -22 22 23 -25 -26 28 -28 -29 -30 -31
leaf_value=-0.022041045618933563 -0.005346888580466524 0.022540576300763983 -0.013370693721927521 0.0050074288263773975 0.023404413927496225 -0.0013916596394660306 0.003983193482585262 -0.0069996503509118834 0.031222757024878926 0.0027886372330786901 0.015454238211573729 -0.017602122920833792 0.01611105020501254 0.017543505152136003 0.028074417988565404 0.037946774888699096 0.035662782055786664 0.039090571192123884 -0.021967839461392958 -0.014630645067637648 0.033354602051487985 -0.022162975395756259 -0.02128332691411567 -0.016848640668245759 -0.019139256239804874 0.040038196068189098 -0.020233735225206575 -0.020721001710736899 0.040856440056065396 -0.021327436143146101
leaf_weight=2804.9346151053905 226.36610922217369 226.34320232272148 299.77810695767403 165.86322504281998 266.61488679051399 214.27413505315781 210.85446134209633 283.59557205438614 265.12862366437912 183.42979568243027 174.87899729609489 173.00699731707573 226.76204261183739 175.14070698618889 196.05668532848358 275.71346122026443 318.78016346693039 291.93222039937973 153.29073920845985 214.22105732560158 243.04525315761566 365.20684868097305 233.48205083608627 180.76625007390976 155.27710077166557 179.86326444149017 161.42183125019073 150.75177982449532 560.59119430184364 150.45158189535141
leaf_count=9346 708 662 964 504 784 676 653 892 762 560 514 559 679 524 567 783 917 822 505 697 690 1213 773 595 508 505 536 501 1571 501
internal_value=0 0.0271137 -0.0172838 0.016831 0.0237453 -0.020244 -0.00214636 0.00287845 0.0359673 0.00464143 0.0269949 -0.00863385 0.0101541 0.0101366 0.0295773 0.0376404 0.0327735 0.0387372 -0.0212278 -0.0181221 0.0357957 -0.021629 -0.0205934 -0.0193487 -0.0205452 0.040215 -0.0215721 -0.0219426 0.040658 -0.0220048
internal_weight=0 3801.37 5926.45 1758.75 1122.19 4957.08 969.369 669.591 2042.62 636.558 956.331 387.281 410.192 385.995 781.452 1816.27 514.837 1551.15 4569.8 522.789 518.759 4047.01 940.877 414.248 308.568 1032.39 526.629 3106.14 740.454 2955.39
internal_count=30471 11028 19443 5233 3286 16410 3033 2069 5795 1947 2782 1235 1239 1177 2268 5133 1484 4371 15175 1710 1473 13465 3117 1368 1013 2898 1749 10348 2076 9847
is_linear=0
shrinkage=0.024


Tree=16
num_leaves=47
num_cat=0
split_feature=643 643 643 640 595 640 644 209 311 579 644 643 622 640 644 644 637 70 90 510 622 602 510 644 644 53 637 643 637 643 644 494 312 616 644 459 567 399 634 573 622 637 640 25 349 424
split_gain=1708.66 2625.51 260.64 226.679 177.017 146.742 117.075 88.5222 133.037 80.1837 59.1035 70.669 54.5676 51.8277 45.114 40.9879 36.0591 32.9139 34.8561 31.5237 31.3246 28.5204 22.3216 21.575 20.4073 18.969 17.4674 16.0129 15.9612 15.0051 14.7431 12.7368 9.49085 8.71295 8.23277 7.04836 5.94909 4.99302 4.7832 4.59771 4.12757 1.35787 1.34788 0.591948 0.304822 0.125063
threshold=-71.274579601966195 84.80245328881459 -48.504345011856252 60.152837886354398 0.00021931167452104996 51.417227789929377 -8.9764618951758681 76.313323228182838 -0.0023786265639570725 0.0029176712618120726 7.6884469932890349 -24.708415255667543 0.028388237926950454 41.758778602648071 18.114947033345498 18.863121948035811 -49.33205863607315 0.00011537530211880609 -0.0022250000000000321 134.13858751206411 0.027606478586390565 39.285714285714299 23.022043878620888 3.2251780011609057 -10.230615280912067 0.0010454927568140945 -60.810810810809656 -97.030214016559697 -26.732673267326575 136.37063796913765 -18.554089416959467 47.109981466120026 48.096174517918605 78.333333333333357 28.987688384597885 -90.159582169688193 47.660882792607175 75.000000000000014 -0.00051332123793568208 91.666666666666686 0.15508371458890505 -79.12447992457372 65.781205183678722 -0.00011187113667172769 -74.725274725275952 134.13858751206411
decision_type=2 2 2 2 2 2 2 2 2 2 2 2 2 2 2 2 2 2 2 2 2 2 2 2 2 2 2 2 2 2 2 2 2 2 2 2 2 2 2 2 2 2 2 2 2 2
left_child=6 2 9 12 7 -6 13 8 20 24 11 21 -3 30 25 29 33 18 -13 28 -4 -10 -19 -20 -2 -7 32 -8 -14 -5 38 -22 35 -9 37 -15 -32 40 41 -40 -17 44 -36 -41 -1 -44
right_child=1 3 4 15 5 14 27 16 10 -11 -12 17 19 26 -16 34 -18 22 23 -21 31 -23 -24 -25 -26 -27 -28 -29 -30 -31 36 -33 -34 -35 42 -37 -38 -39 39 43 -42 -43 45 -45 -46 -47
leaf_value=-0.023092024834871779 -0.0059748307882769398 0.0084461472369975598 0.020297473149724958 -0.0066557323483044089 0.022989276524082676 0.0027709350833866942 -0.0080816270172035798 0.034109405346672533 0.001799114973645662 0.013676837224661051 0.0038438392502597642 0.02509603390156771 0.0023829947054234738 -0.019954436606563847 -0.0052842885036020089 -0.016994117012364803 0.020128604626265121 0.019441841855499176 0.017377997136217661 -0.013191473231212737 0.035605913028223149 0.015107593754496874 0.03037609635310615 0.0069929738910467715 0.0038935672589649286 0.013569036776632027 -0.0055742258703387485 0.0022186650936476121 -0.0067912943308689527 -0.015983018652662332 -0.019090357404494031 0.027273518666550263 -0.0098488354599760731 0.027717819950941504 -0.020494548872009005 -0.013127108714260977 -0.013628818451430937 -0.015255375836510623 -0.016072827631293352 -0.022015045331200776 -0.021893889288924877 -0.020398710728347962 -0.022277222814226238 -0.01994318903615162 -0.021916768931571774 -0.023123789457477482
