tree
version=v3
num_class=3
num_tree_per_iteration=3
label_index=0
max_feature_idx=719
objective=multiclass num_class:3
feature_names=Column_0 Column_1 Column_2 Column_3 Column_4 Column_5 Column_6 Column_7 Column_8 Column_9 Column_10 Column_11 Column_12 Column_13 Column_14 Column_15 Column_16 Column_17 Column_18 Column_19 Column_20 Column_21 Column_22 Column_23 Column_24 Column_25 Column_26 Column_27 Column_28 Column_29 Column_30 Column_31 Column_32 Column_33 Column_34 Column_35 Column_36 Column_37 Column_38 Column_39 Column_40 Column_41 Column_42 Column_43 Column_44 Column_45 Column_46 Column_47 Column_48 Column_49 Column_50 Column_51 Column_52 Column_53 Column_54 Column_55 Column_56 Column_57 Column_58 Column_59 Column_60 Column_61 Column_62 Column_63 Column_64 Column_65 Column_66 Column_67 Column_68 Column_69 Column_70 Column_71 Column_72 Column_73 Column_74 Column_75 Column_76 Column_77 Column_78 Column_79 Column_80 Column_81 Column_82 Column_83 Column_84 Column_85 Column_86 Column_87 Column_88 Column_89 Column_90 Column_91 Column_92 Column_93 Column_94 Column_95 Column_96 Column_97 Column_98 Column_99 Column_100 Column_101 Column_102 Column_103 Column_104 Column_105 Column_106 Column_107 Column_108 Column_109 Column_110 Column_111 Column_112 Column_113 Column_114 Column_115 Column_116 Column_117 Column_118 Column_119 Column_120 Column_121 Column_122 Column_123 Column_124 Column_125 Column_126 Column_127 Column_128 Column_129 Column_130 Column_131 Column_132 Column_133 Column_134 Column_135 Column_136 Column_137 Column_138 Column_139 Column_140 Column_141 Column_142 Column_143 Column_144 Column_145 Column_146 Column_147 Column_148 Column_149 Column_150 Column_151 Column_152 Column_153 Column_154 Column_155 Column_156 Column_157 Column_158 Column_159 Column_160 Column_161 Column_162 Column_163 Column_164 Column_165 Column_166 Column_167 Column_168 Column_169 Column_170 Column_171 Column_172 Column_173 Column_174 Column_175 Column_176 Column_177 Column_178 Column_179 Column_180 Column_181 Column_182 Column_183 Column_184 Column_185 Column_186 Column_187 Column_188 Column_189 Column_190 Column_191 Column_192 Column_193 Column_194 Column_195 Column_196 Column_197 Column_198 Column_199 Column_200 Column_201 Column_202 Column_203 Column_204 Column_205 Column_206 Column_207 Column_208 Column_209 Column_210 Column_211 Column_212 Column_213 Column_214 Column_215 Column_216 Column_217 Column_218 Column_219 Column_220 Column_221 Column_222 Column_223 Column_224 Column_225 Column_226 Column_227 Column_228 Column_229 Column_230 Column_231 Column_232 Column_233 Column_234 Column_235 Column_236 Column_237 Column_238 Column_239 Column_240 Column_241 Column_242 Column_243 Column_244 Column_245 Column_246 Column_247 Column_248 Column_249 Column_250 Column_251 Column_252 Column_253 Column_254 Column_255 Column_256 Column_257 Column_258 Column_259 Column_260 Column_261 Column_262 Column_263 Column_264 Column_265 Column_266 Column_267 Column_268 Column_269 Column_270 Column_271 Column_272 Column_273 Column_274 Column_275 Column_276 Column_277 Column_278 Column_279 Column_280 Column_281 Column_282 Column_283 Column_284 Column_285 Column_286 Column_287 Column_288 Column_289 Column_290 Column_291 Column_292 Column_293 Column_294 Column_295 Column_296 Column_297 Column_298 Column_299 Column_300 Column_301 Column_302 Column_303 Column_304 Column_305 Column_306 Column_307 Column_308 Column_309 Column_310 Column_311 Column_312 Column_313 Column_314 Column_315 Column_316 Column_317 Column_318 Column_319 Column_320 Column_321 Column_322 Column_323 Column_324 Column_325 Column_326 Column_327 Column_328 Column_329 Column_330 Column_331 Column_332 Column_333 Column_334 Column_335 Column_336 Column_337 Column_338 Column_339 Column_340 Column_341 Column_342 Column_343 Column_344 Column_345 Column_346 Column_347 Column_348 Column_349 Column_350 Column_351 Column_352 Column_353 Column_354 Column_355 Column_356 Column_357 Column_358 Column_359 Column_360 Column_361 Column_362 Column_363 Column_364 Column_365 Column_366 Column_367 Column_368 Column_369 Column_370 Column_371 Column_372 Column_373 Column_374 Column_375 Column_376 Column_377 Column_378 Column_379 Column_380 Column_381 Column_382 Column_383 Column_384 Column_385 Column_386 Column_387 Column_388 Column_389 Column_390 Column_391 Column_392 Column_393 Column_394 Column_395 Column_396 Column_397 Column_398 Column_399 Column_400 Column_401 Column_402 Column_403 Column_404 Column_405 Column_406 Column_407 Column_408 Column_409 Column_410 Column_411 Column_412 Column_413 Column_414 Column_415 Column_416 Column_417 Column_418 Column_419 Column_420 Column_421 Column_422 Column_423 Column_424 Column_425 Column_426 Column_427 Column_428 Column_429 Column_430 Column_431 Column_432 Column_433 Column_434 Column_435 Column_436 Column_437 Column_438 Column_439 Column_440 Column_441 Column_442 Column_443 Column_444 Column_445 Column_446 Column_447 Column_448 Column_449 Column_450 Column_451 Column_452 Column_453 Column_454 Column_455 Column_456 Column_457 Column_458 Column_459 Column_460 Column_461 Column_462 Column_463 Column_464 Column_465 Column_466 Column_467 Column_468 Column_469 Column_470 Column_471 Column_472 Column_473 Column_474 Column_475 Column_476 Column_477 Column_478 Column_479 Column_480 Column_481 Column_482 Column_483 Column_484 Column_485 Column_486 Column_487 Column_488 Column_489 Column_490 Column_491 Column_492 Column_493 Column_494 Column_495 Column_496 Column_497 Column_498 Column_499 Column_500 Column_501 Column_502 Column_503 Column_504 Column_505 Column_506 Column_507 Column_508 Column_509 Column_510 Column_511 Column_512 Column_513 Column_514 Column_515 Column_516 Column_517 Column_518 Column_519 Column_520 Column_521 Column_522 Column_523 Column_524 Column_525 Column_526 Column_527 Column_528 Column_529 Column_530 Column_531 Column_532 Column_533 Column_534 Column_535 Column_536 Column_537 Column_538 Column_539 Column_540 Column_541 Column_542 Column_543 Column_544 Column_545 Column_546 Column_547 Column_548 Column_549 Column_550 Column_551 Column_552 Column_553 Column_554 Column_555 Column_556 Column_557 Column_558 Column_559 Column_560 Column_561 Column_562 Column_563 Column_564 Column_565 Column_566 Column_567 Column_568 Column_569 Column_570 Column_571 Column_572 Column_573 Column_574 Column_575 Column_576 Column_577 Column_578 Column_579 Column_580 Column_581 Column_582 Column_583 Column_584 Column_585 Column_586 Column_587 Column_588 Column_589 Column_590 Column_591 Column_592 Column_593 Column_594 Column_595 Column_596 Column_597 Column_598 Column_599 Column_600 Column_601 Column_602 Column_603 Column_604 Column_605 Column_606 Column_607 Column_608 Column_609 Column_610 Column_611 Column_612 Column_613 Column_614 Column_615 Column_616 Column_617 Column_618 Column_619 Column_620 Column_621 Column_622 Column_623 Column_624 Column_625 Column_626 Column_627 Column_628 Column_629 Column_630 Column_631 Column_632 Column_633 Column_634 Column_635 Column_636 Column_637 Column_638 Column_639 Column_640 Column_641 Column_642 Column_643 Column_644 Column_645 Column_646 Column_647 Column_648 Column_649 Column_650 Column_651 Column_652 Column_653 Column_654 Column_655 Column_656 Column_657 Column_658 Column_659 Column_660 Column_661 Column_662 Column_663 Column_664 Column_665 Column_666 Column_667 Column_668 Column_669 Column_670 Column_671 Column_672 Column_673 Column_674 Column_675 Column_676 Column_677 Column_678 Column_679 Column_680 Column_681 Column_682 Column_683 Column_684 Column_685 Column_686 Column_687 Column_688 Column_689 Column_690 Column_691 Column_692 Column_693 Column_694 Column_695 Column_696 Column_697 Column_698 Column_699 Column_700 Column_701 Column_702 Column_703 Column_704 Column_705 Column_706 Column_707 Column_708 Column_709 Column_710 Column_711 Column_712 Column_713 Column_714 Column_715 Column_716 Column_717 Column_718 Column_719
feature_infos=[0:99.178482105282015] [0:100] [0:100] [-0.021873707333076635:0.025687723060202318] [0:100] [-3.0670000000000073:3.4979999999999905] [0:1.5943697525345024] [0:100] [-449.11202185796458:499.99999999996777] [0:100] [-0.67389204644237566:1.5723036873206979] [-99.999999999999986:0] [0:68.969462490313489] [-1.0445479248826359:0.91514343187998293] [-3.31553792570099:3.2257308587484648] [0:71.461439923056517] [-100:100] [-8.2249330030780943:10.548276827827289] [0:77.449385630239547] [0:100] [-0.012991613742641066:0.017107377969572124] [0:100] [-2.0169999999999959:2.3309999999999889] [-0.01850428500057652:0.019566199728874717] [-2.88900000000001:2.5979999999999848] [-1.947145553018979:2.8704380833930516] [0:74.494672025083176] [-0.50546652964726024:0.51841291726158056] [-5.1703528752593817:6.3032915551152344] [-0.49658632263057567:0.52902341892041937] [-0.51963296361771572:0.51123021561301107] [-0.017353009051514282:0.019038031977427757] [-0.50580723601638145:0.51816180121047117] [-2.7070000000000221:2.5910000000000082] [-561.42639704259227:576.22559922206642] [-0.56106778127170287:0.57798313526777179] [-99.999999999999986:0] [-0.56614087407677971:0.57309960968731843] [-0.5581553274062685:0.5843203394594525] [-58.263651532992029:63.727830384286335] [-0.56122617260217567:0.57729169507919664] [-99.999999999999986:0] [0:96.555555555557859] [-620.89747116732656:537.03986818187718] [0:83.623594130547758] [-99.999999999999986:0] [-912.96908014149858:578.35427644916956] [-76.496714946961077:76.452112094005798] [0:99.178482105282015] [0:100] [0:100] [-0.021873707333076635:0.025687723060202318] [0:100] [-3.0670000000000073:3.4979999999999905] [0:1.5943697525345024] [0:100] [-449.11202185796458:499.99999999996777] [0:100] [-0.67389204644237566:1.5723036873206979] [-99.999999999999986:0] [0:68.969462490313489] [-1.0445479248826359:0.91514343187998293] [-3.31553792570099:3.2257308587484648] [0:71.461439923056517] [-100:100] [-8.2249330030780943:10.548276827827289] [0:77.449385630239547] [0:100] [-0.012991613742641066:0.017107377969572124] [0:100] [-2.0169999999999959:2.3309999999999889] [-0.01850428500057652:0.019566199728874717] [-2.88900000000001:2.5979999999999848] [-1.947145553018979:2.8704380833930516] [0:74.494672025083176] [-0.50546652964726024:0.51841291726158056] [-5.1703528752593817:6.3032915551152344] [-0.49658632263057567:0.52902341892041937] [-0.51963296361771572:0.51123021561301107] [-0.017353009051514282:0.019038031977427757] [-0.50580723601638145:0.51816180121047117] [-2.7070000000000221:2.5910000000000082] [-561.42639704259227:576.22559922206642] [-0.56106778127170287:0.57798313526777179] [-99.999999999999986:0] [-0.56614087407677971:0.57309960968731843] [-0.5581553274062685:0.5843203394594525] [-58.263651532992029:63.727830384286335] [-0.56122617260217567:0.57729169507919664] [-99.999999999999986:0] [0:96.555555555557859] [-620.89747116732656:537.03986818187718] [0:83.623594130547758] [-99.999999999999986:0] [-912.96908014149858:578.35427644916956] [-76.496714946961077:76.452112094005798] [0:99.178482105282015] [0:100] [0:100] [-0.021873707333076635:0.025687723060202318] [0:100] [-3.0670000000000073:3.4979999999999905] [0:1.5943697525345024] [0:100] [-449.11202185796458:499.99999999996777] [0:100] [-0.67389204644237566:1.5723036873206979] [-99.999999999999986:0] [0:68.969462490313489] [-1.0445479248826359:0.91514343187998293] [-3.31553792570099:3.2257308587484648] [0:71.461439923056517] [-100:100] [-8.2249330030780943:10.548276827827289] [0:77.449385630239547] [0:100] [-0.012991613742641066:0.017107377969572124] [0:100] [-2.0169999999999959:2.3309999999999889] [-0.01850428500057652:0.019566199728874717] [-2.88900000000001:2.5979999999999848] [-1.947145553018979:2.8704380833930516] [0:74.494672025083176] [-0.50546652964726024:0.51841291726158056] [-5.1703528752593817:6.3032915551152344] [-0.49658632263057567:0.52902341892041937] [-0.51963296361771572:0.51123021561301107] [-0.017353009051514282:0.019038031977427757] [-0.50580723601638145:0.51816180121047117] [-2.7070000000000221:2.5910000000000082] [-561.42639704259227:576.22559922206642] [-0.56106778127170287:0.57798313526777179] [-99.999999999999986:0] [-0.56614087407677971:0.57309960968731843] [-0.5581553274062685:0.5843203394594525] [-58.263651532992029:63.727830384286335] [-0.56122617260217567:0.57729169507919664] [-99.999999999999986:0] [0:96.555555555557859] [-620.89747116732656:537.03986818187718] [0:83.623594130547758] [-99.999999999999986:0] [-912.96908014149858:578.35427644916956] [-76.496714946961077:76.452112094005798] [0:99.178482105282015] [0:100] [0:100] [-0.021873707333076635:0.025687723060202318] [0:100] [-3.0670000000000073:3.4979999999999905] [0:1.5943697525345024] [0:100] [-449.11202185796458:499.99999999996777] [0:100] [-0.67389204644237566:1.5723036873206979] [-99.999999999999986:0] [0:68.969462490313489] [-1.0445479248826359:0.91514343187998293] [-3.31553792570099:3.2257308587484648] [0:71.461439923056517] [-100:100] [-8.2249330030780943:10.548276827827289] [0:77.449385630239547] [0:100] [-0.012991613742641066:0.017107377969572124] [0:100] [-2.0169999999999959:2.3309999999999889] [-0.01850428500057652:0.019566199728874717] [-2.88900000000001:2.5979999999999848] [-1.947145553018979:2.8704380833930516] [0:74.494672025083176] [-0.50546652964726024:0.51841291726158056] [-5.1703528752593817:6.3032915551152344] [-0.49658632263057567:0.52902341892041937] [-0.51963296361771572:0.51123021561301107] [-0.017353009051514282:0.019038031977427757] [-0.50580723601638145:0.51816180121047117] [-2.7070000000000221:2.5910000000000082] [-561.42639704259227:576.22559922206642] [-0.56106778127170287:0.57798313526777179] [-99.999999999999986:0] [-0.56614087407677971:0.57309960968731843] [-0.5581553274062685:0.5843203394594525] [-58.263651532992029:63.727830384286335] [-0.56122617260217567:0.57729169507919664] [-99.999999999999986:0] [0:96.555555555557859] [-620.89747116732656:537.03986818187718] [0:83.623594130547758] [-99.999999999999986:0] [-912.96908014149858:578.35427644916956] [-76.496714946961077:76.452112094005798] [0:99.178482105282015] [0:100] [0:100] [-0.021873707333076635:0.025687723060202318] [0:100] [-3.0670000000000073:3.4979999999999905] [0:1.5943697525345024] [0:100] [-449.11202185796458:499.99999999996777] [0:100] [-0.67389204644237566:1.5723036873206979] [-99.999999999999986:0] [0:68.969462490313489] [-1.0445479248826359:0.91514343187998293] [-3.31553792570099:3.2257308587484648] [0:71.461439923056517] [-100:100] [-8.2249330030780943:10.548276827827289] [0:77.449385630239547] [0:100] [-0.012991613742641066:0.017107377969572124] [0:100] [-2.0169999999999959:2.3309999999999889] [-0.01850428500057652:0.019566199728874717] [-2.88900000000001:2.5979999999999848] [-1.947145553018979:2.8704380833930516] [0:74.494672025083176] [-0.50546652964726024:0.51841291726158056] [-5.1703528752593817:6.3032915551152344] [-0.49658632263057567:0.52902341892041937] [-0.51963296361771572:0.51123021561301107] [-0.017353009051514282:0.019038031977427757] [-0.50580723601638145:0.51816180121047117] [-2.7070000000000221:2.5910000000000082] [-561.42639704259227:576.22559922206642] [-0.56106778127170287:0.57798313526777179] [-99.999999999999986:0] [-0.56614087407677971:0.57309960968731843] [-0.5581553274062685:0.5843203394594525] [-58.263651532992029:63.727830384286335] [-0.56122617260217567:0.57729169507919664] [-99.999999999999986:0] [0:96.555555555557859] [-620.89747116732656:537.03986818187718] [0:83.623594130547758] [-99.999999999999986:0] [-912.96908014149858:578.35427644916956] [-76.496714946961077:76.452112094005798] [1.1997004183343338:99.178482105282015] [0:100] [0:100] [-0.021873707333076635:0.025687723060202318] [0:100] [-3.0670000000000073:3.4979999999999905] [0:1.5943697525345024] [0:100] [-449.11202185796458:499.99999999996777] [0:100] [-0.67389204644237566:1.5723036873206979] [-99.999999999999986:0] [0:68.969462490313489] [-1.0445479248826359:0.91514343187998293] [-3.31553792570099:3.2257308587484648] [0:71.461439923056517] [-100:100] [-8.2249330030780943:10.548276827827289] [0:77.449385630239547] [0:100] [-0.012991613742641066:0.017107377969572124] [0:100] [-2.0169999999999959:2.3309999999999889] [-0.01850428500057652:0.019566199728874717] [-2.88900000000001:2.5979999999999848] [-1.947145553018979:2.8704380833930516] [0:74.494672025083176] [-0.50546652964726024:0.51841291726158056] [-5.1703528752593817:6.3032915551152344] [-0.49658632263057567:0.52902341892041937] [-0.51963296361771572:0.51123021561301107] [-0.017353009051514282:0.019038031977427757] [-0.50580723601638145:0.51816180121047117] [-2.7070000000000221:2.5910000000000082] [-561.42639704259227:576.22559922206642] [-0.56106778127170287:0.57798313526777179] [-99.999999999999986:0] [-0.56614087407677971:0.57309960968731843] [-0.5581553274062685:0.5843203394594525] [-58.263651532992029:63.727830384286335] [-0.56122617260217567:0.57729169507919664] [-99.999999999999986:0] [0:96.555555555557859] [-620.89747116732656:537.03986818187718] [0:83.623594130547758] [-99.999999999999986:0] [-912.96908014149858:578.35427644916956] [-76.496714946961077:76.452112094005798] [1.1997004183343338:99.178482105282015] [0:100] [0:100] [-0.021873707333076635:0.025687723060202318] [0:100] [-3.0670000000000073:3.4979999999999905] [0:1.5943697525345024] [0:100] [-449.11202185796458:499.99999999996777] [0:100] [-0.67389204644237566:1.5723036873206979] [-99.999999999999986:0] [0:68.969462490313489] [-1.0445479248826359:0.91514343187998293] [-3.31553792570099:3.2257308587484648] [0:71.461439923056517] [-100:100] [-8.2249330030780943:10.548276827827289] [0:77.449385630239547] [0:100] [-0.012991613742641066:0.017107377969572124] [0:100] [-2.0169999999999959:2.3309999999999889] [-0.01850428500057652:0.019566199728874717] [-2.88900000000001:2.5979999999999848] [-1.947145553018979:2.8704380833930516] [0:74.494672025083176] [-0.50546652964726024:0.51841291726158056] [-5.1703528752593817:6.3032915551152344] [-0.49658632263057567:0.52902341892041937] [-0.51963296361771572:0.51123021561301107] [-0.017353009051514282:0.019038031977427757] [-0.50580723601638145:0.51816180121047117] [-2.7070000000000221:2.5910000000000082] [-561.42639704259227:576.22559922206642] [-0.56106778127170287:0.57798313526777179] [-99.999999999999986:0] [-0.56614087407677971:0.57309960968731843] [-0.5581553274062685:0.5843203394594525] [-58.263651532992029:63.727830384286335] [-0.56122617260217567:0.57729169507919664] [-99.999999999999986:0] [0:96.555555555557859] [-620.89747116732656:537.03986818187718] [0:83.623594130547758] [-99.999999999999986:0] [-912.96908014149858:578.35427644916956] [-76.496714946961077:76.452112094005798] [1.1997004183343338:99.178482105282015] [0:100] [0:100] [-0.021873707333076635:0.025687723060202318] [0:100] [-3.0670000000000073:3.4979999999999905] [0:1.5943697525345024] [0:100] [-449.11202185796458:499.99999999996777] [0:100] [-0.67389204644237566:1.5723036873206979] [-99.999999999999986:0] [0:68.969462490313489] [-1.0445479248826359:0.91514343187998293] [-3.31553792570099:3.2257308587484648] [0:71.461439923056517] [-100:100] [-8.2249330030780943:10.548276827827289] [0:77.449385630239547] [0:100] [-0.012991613742641066:0.017107377969572124] [0:100] [-2.0169999999999959:2.3309999999999889] [-0.01850428500057652:0.019566199728874717] [-2.88900000000001:2.5979999999999848] [-1.947145553018979:2.8704380833930516] [0:74.494672025083176] [-0.50546652964726024:0.51841291726158056] [-5.1703528752593817:6.3032915551152344] [-0.49658632263057567:0.52902341892041937] [-0.51963296361771572:0.51123021561301107] [-0.017353009051514282:0.019038031977427757] [-0.50580723601638145:0.51816180121047117] [-2.7070000000000221:2.5910000000000082] [-561.42639704259227:576.22559922206642] [-0.56106778127170287:0.57798313526777179] [-99.999999999999986:0] [-0.56614087407677971:0.57309960968731843] [-0.5581553274062685:0.5843203394594525] [-58.263651532992029:63.727830384286335] [-0.56122617260217567:0.57729169507919664] [-99.999999999999986:0] [0:96.555555555557859] [-620.89747116732656:537.03986818187718] [0:83.623594130547758] [-99.999999999999986:0] [-912.96908014149858:578.35427644916956] [-76.496714946961077:76.452112094005798] [1.1997004183343338:99.178482105282015] [0:100] [0:100] [-0.021873707333076635:0.025687723060202318] [0:100] [-3.0670000000000073:3.4979999999999905] [0:1.5943697525345024] [0:100] [-449.11202185796458:499.99999999996777] [0:100] [-0.67389204644237566:1.5723036873206979] [-99.999999999999986:0] [0:68.969462490313489] [-1.0445479248826359:0.91514343187998293] [-3.31553792570099:3.2257308587484648] [0:71.461439923056517] [-100:100] [-8.2249330030780943:10.548276827827289] [0:77.449385630239547] [0:100] [-0.012991613742641066:0.017107377969572124] [0:100] [-2.0169999999999959:2.3309999999999889] [-0.01850428500057652:0.019566199728874717] [-2.88900000000001:2.5979999999999848] [-1.947145553018979:2.8704380833930516] [0:74.494672025083176] [-0.50546652964726024:0.51841291726158056] [-5.1703528752593817:6.3032915551152344] [-0.49658632263057567:0.52902341892041937] [-0.51963296361771572:0.51123021561301107] [-0.017353009051514282:0.019038031977427757] [-0.50580723601638145:0.51816180121047117] [-2.7070000000000221:2.5910000000000082] [-561.42639704259227:576.22559922206642] [-0.56106778127170287:0.57798313526777179] [-99.999999999999986:0] [-0.56614087407677971:0.57309960968731843] [-0.5581553274062685:0.5843203394594525] [-58.263651532992029:63.727830384286335] [-0.56122617260217567:0.57729169507919664] [-99.999999999999986:0] [0:96.555555555557859] [-620.89747116732656:537.03986818187718] [0:83.623594130547758] [-99.999999999999986:0] [-912.96908014149858:578.35427644916956] [-76.496714946961077:76.452112094005798] [1.1997004183343338:99.178482105282015] [0:100] [0:100] [-0.021873707333076635:0.025687723060202318] [0:100] [-3.0670000000000073:3.4979999999999905] [0:1.5943697525345024] [0:100] [-449.11202185796458:499.99999999996777] [0:100] [-0.67389204644237566:1.5723036873206979] [-99.999999999999986:0] [0:68.969462490313489] [-1.0445479248826359:0.91514343187998293] [-3.31553792570099:3.2257308587484648] [0:71.461439923056517] [-100:100] [-8.2249330030780943:10.548276827827289] [0:77.449385630239547] [0:100] [-0.012991613742641066:0.017107377969572124] [0:100] [-2.0169999999999959:2.3309999999999889] [-0.01850428500057652:0.019566199728874717] [-2.88900000000001:2.5979999999999848] [-1.947145553018979:2.8704380833930516] [0:74.494672025083176] [-0.50546652964726024:0.51841291726158056] [-5.1703528752593817:6.3032915551152344] [-0.49658632263057567:0.52902341892041937] [-0.51963296361771572:0.51123021561301107] [-0.017353009051514282:0.019038031977427757] [-0.50580723601638145:0.51816180121047117] [-2.7070000000000221:2.5910000000000082] [-561.42639704259227:576.22559922206642] [-0.56106778127170287:0.57798313526777179] [-99.999999999999986:0] [-0.56614087407677971:0.57309960968731843] [-0.5581553274062685:0.5843203394594525] [-58.263651532992029:63.727830384286335] [-0.56122617260217567:0.57729169507919664] [-99.999999999999986:0] [0:96.555555555557859] [-620.89747116732656:537.03986818187718] [0:83.623594130547758] [-99.999999999999986:0] [-912.96908014149858:578.35427644916956] [-76.496714946961077:76.452112094005798] [1.1997004183343338:99.178482105282015] [0:100] [0:100] [-0.021873707333076635:0.025687723060202318] [0:100] [-3.0670000000000073:3.4979999999999905] [0:1.5943697525345024] [0:100] [-449.11202185796458:499.99999999996777] [0:100] [-0.67389204644237566:1.5723036873206979] [-99.999999999999986:0] [0:68.969462490313489] [-1.0445479248826359:0.91514343187998293] [-3.31553792570099:3.2257308587484648] [0:71.461439923056517] [-100:100] [-8.2249330030780943:10.548276827827289] [0:77.449385630239547] [0:100] [-0.012991613742641066:0.017107377969572124] [0:100] [-2.0169999999999959:2.3309999999999889] [-0.01850428500057652:0.019566199728874717] [-2.88900000000001:2.5979999999999848] [-1.947145553018979:2.8704380833930516] [0:74.494672025083176] [-0.50546652964726024:0.51841291726158056] [-5.1703528752593817:6.3032915551152344] [-0.49658632263057567:0.52902341892041937] [-0.51963296361771572:0.51123021561301107] [-0.017353009051514282:0.019038031977427757] [-0.50580723601638145:0.51816180121047117] [-2.7070000000000221:2.5910000000000082] [-561.42639704259227:576.22559922206642] [-0.56106778127170287:0.57798313526777179] [-99.999999999999986:0] [-0.56614087407677971:0.57309960968731843] [-0.5581553274062685:0.5843203394594525] [-58.263651532992029:63.727830384286335] [-0.56122617260217567:0.57729169507919664] [-99.999999999999986:0] [0:96.555555555557859] [-620.89747116732656:537.03986818187718] [0:83.623594130547758] [-99.999999999999986:0] [-912.96908014149858:578.35427644916956] [-76.496714946961077:76.452112094005798] [1.1997004183343338:99.178482105282015] [0:100] [0:100] [-0.021873707333076635:0.025687723060202318] [0:100] [-3.0670000000000073:3.4979999999999905] [0:1.5943697525345024] [0:100] [-449.11202185796458:499.99999999996777] [0:100] [-0.67389204644237566:1.5723036873206979] [-99.999999999999986:0] [0:68.969462490313489] [-1.0445479248826359:0.91514343187998293] [-3.31553792570099:3.2257308587484648] [0:71.461439923056517] [-100:100] [-8.2249330030780943:10.548276827827289] [0:77.449385630239547] [0:100] [-0.012991613742641066:0.017107377969572124] [0:100] [-2.0169999999999959:2.3309999999999889] [-0.01850428500057652:0.019566199728874717] [-2.88900000000001:2.5979999999999848] [-1.947145553018979:2.8704380833930516] [0:74.494672025083176] [-0.50546652964726024:0.51841291726158056] [-5.1703528752593817:6.3032915551152344] [-0.49658632263057567:0.52902341892041937] [-0.51963296361771572:0.51123021561301107] [-0.017353009051514282:0.019038031977427757] [-0.50580723601638145:0.51816180121047117] [-2.7070000000000221:2.5910000000000082] [-561.42639704259227:576.22559922206642] [-0.56106778127170287:0.57798313526777179] [-99.999999999999986:0] [-0.56614087407677971:0.57309960968731843] [-0.5581553274062685:0.5843203394594525] [-58.263651532992029:63.727830384286335] [-0.56122617260217567:0.57729169507919664] [-99.999999999999986:0] [0:96.555555555557859] [-620.89747116732656:537.03986818187718] [0:83.623594130547758] [-99.999999999999986:0] [-912.96908014149858:578.35427644916956] [-76.496714946961077:76.452112094005798] [1.1997004183343338:99.178482105282015] [0:100] [0:100] [-0.021873707333076635:0.025687723060202318] [0:100] [-3.0670000000000073:3.4979999999999905] [0:1.5943697525345024] [0:100] [-449.11202185796458:499.99999999996777] [0:100] [-0.67389204644237566:1.5723036873206979] [-99.999999999999986:0] [0:68.969462490313489] [-1.0445479248826359:0.91514343187998293] [-3.31553792570099:3.2257308587484648] [0:71.461439923056517] [-100:100] [-8.2249330030780943:10.548276827827289] [0:77.449385630239547] [0:100] [-0.012991613742641066:0.017107377969572124] [0:100] [-2.0169999999999959:2.3309999999999889] [-0.01850428500057652:0.019566199728874717] [-2.88900000000001:2.5979999999999848] [-1.947145553018979:2.8704380833930516] [0:74.494672025083176] [-0.50546652964726024:0.51841291726158056] [-5.1703528752593817:6.3032915551152344] [-0.49658632263057567:0.52902341892041937] [-0.51963296361771572:0.51123021561301107] [-0.017353009051514282:0.019038031977427757] [-0.50580723601638145:0.51816180121047117] [-2.7070000000000221:2.5910000000000082] [-561.42639704259227:576.22559922206642] [-0.56106778127170287:0.57798313526777179] [-99.999999999999986:0] [-0.56614087407677971:0.57309960968731843] [-0.5581553274062685:0.5843203394594525] [-58.263651532992029:63.727830384286335] [-0.56122617260217567:0.57729169507919664] [-99.999999999999986:0] [0:96.555555555557859] [-620.89747116732656:537.03986818187718] [0:83.623594130547758] [-99.999999999999986:0] [-912.96908014149858:578.35427644916956] [-76.496714946961077:76.452112094005798] [1.1997004183343338:99.178482105282015] [0:100] [0:100] [-0.021873707333076635:0.025687723060202318] [0:100] [-3.0670000000000073:3.4979999999999905] [0.012071428571437198:1.5943697525345024] [0:100] [-449.11202185796458:499.99999999996777] [0:100] [-0.67389204644237566:1.5723036873206979] [-99.999999999999986:0] [0:68.969462490313489] [-1.0445479248826359:0.91514343187998293] [-3.31553792570099:3.2257308587484648] [0:71.461439923056517] [-100:100] [-8.2249330030780943:10.548276827827289] [0:77.449385630239547] [0:100] [-0.012991613742641066:0.017107377969572124] [0:100] [-2.0169999999999959:2.3309999999999889] [-0.01850428500057652:0.019566199728874717] [-2.88900000000001:2.5979999999999848] [-1.947145553018979:2.8704380833930516] [0:74.494672025083176] [-0.50546652964726024:0.51841291726158056] [-5.1703528752593817:6.3032915551152344] [-0.49658632263057567:0.52902341892041937] [-0.51963296361771572:0.51123021561301107] [-0.017353009051514282:0.019038031977427757] [-0.50580723601638145:0.51816180121047117] [-2.7070000000000221:2.5910000000000082] [-561.42639704259227:576.22559922206642] [-0.56106778127170287:0.57798313526777179] [-99.999999999999986:0] [-0.56614087407677971:0.57309960968731843] [-0.5581553274062685:0.5843203394594525] [-58.263651532992029:63.727830384286335] [-0.56122617260217567:0.57729169507919664] [-99.999999999999986:0] [0:96.555555555557859] [-620.89747116732656:537.03986818187718] [0:83.623594130547758] [-99.999999999999986:0] [-912.96908014149858:578.35427644916956] [-76.496714946961077:76.452112094005798] [1.1997004183343338:99.178482105282015] [0:100] [0:100] [-0.021873707333076635:0.025687723060202318] [0:100] [-3.0670000000000073:3.4979999999999905] [0.012071428571437198:1.5943697525345024] [0:100] [-449.11202185796458:499.99999999996777] [0:100] [-0.67389204644237566:1.5723036873206979] [-99.999999999999986:0] [0:68.969462490313489] [-1.0445479248826359:0.91514343187998293] [-3.31553792570099:3.2257308587484648] [0:71.461439923056517] [-100:100] [-8.2249330030780943:10.548276827827289] [0:77.449385630239547] [0:100] [-0.012991613742641066:0.017107377969572124] [0:100] [-2.0169999999999959:2.3309999999999889] [-0.01850428500057652:0.019566199728874717] [-2.88900000000001:2.5979999999999848] [-1.947145553018979:2.8704380833930516] [0:74.494672025083176] [-0.50546652964726024:0.51841291726158056] [-5.1703528752593817:6.3032915551152344] [-0.49658632263057567:0.52902341892041937] [-0.51963296361771572:0.51123021561301107] [-0.017353009051514282:0.019038031977427757] [-0.50580723601638145:0.51816180121047117] [-2.7070000000000221:2.5910000000000082] [-561.42639704259227:576.22559922206642] [-0.56106778127170287:0.57798313526777179] [-99.999999999999986:0] [-0.56614087407677971:0.57309960968731843] [-0.5581553274062685:0.5843203394594525] [-58.263651532992029:63.727830384286335] [-0.56122617260217567:0.57729169507919664] [-99.999999999999986:0] [0:96.555555555557859] [-620.89747116732656:537.03986818187718] [0:83.623594130547758] [-99.999999999999986:0] [-912.96908014149858:578.35427644916956] [-76.496714946961077:76.452112094005798]
tree_sizes=3400 4439 3193 3601 4819 3310 3377 4817 2947 3386 5032 2841 3396 4788 2964 3594 4677 3177 3729 4927 2968 3949 4698 3184 3590 4691 2950 3504 4944 3282 3716 5142 2951 3834 5117 2846 3609 4718 3193 3623 4820 2968 3505 4807 3300 3727 4818 3193 3491 4710 3293 3496 5024 3405 3715 4930 3184 3705 4812 2838 3622 4816 3395 3941 4925 2974 3945 4928 3192 3732 4938 2953 3820 5146 3407 3624 4923 2968 3617 5051 3391 3602 5047 2951 3814 4924 3303 3517 4915 3293 3829 4935 3279 3836 5161 3182 3838 5062 3295 3933 4956 3305 3833 5046 3391 3616 4939 3078 3719 4827 3305 3613 5170 3184 3613 5156 3071 3393 4722 3189 3609 5276 3287 3726 5142 3393 3836 4948 3293 3517 4962 3401 4055 5394 3186 3837 5066 3086 3610 5064 3424 3408 5168 3303 3944 5276 3079 3846 5171 3305 3733 5181 3095 3618 5061 3293 4067 5156 3409 3826 5085 3400 3850 5064 3302 3727 4950 3191 3937 5045 3294 3840 4963 3081 3859 5295 3185 4076 4949 3302 4079 5175 3649 3831 5172 3633 4180 4961 3405 3953 5507 3625 3842 5404 3078 3842 5174 3316 3737 5078 3405 3859 5179 3396 3953 4946 3414 4173 5083 3524 3957 5072 3518 4186 4963 3848 4082 4756 3631 3967 5188 3631 3747 4956 3746 3839 5201 3416 4075 4958 3514 3622 5080 3302 3969 5174 3735 4402 5188 3854 3761 5633 3856 4064 5199 3298 4299 4973 3731 3861 5841 3848 3749 4972 3527 4189 5409 3730 4073 5060 3319 3970 5299 3637 3867 5323 3756 3738 5427 3640 3984 5061 3648 4189 5294 3081 4314 5189 3518 3987 5082 3535 3856 5318 3403 4180 5211 3432 3745 5195 3945 3861 5320 3309 4071 5319 3757 3982 5183 3300 3988 5183 3634 4088 5191 4050 4190 5422 3858 4316 4869 3967 4200 5319 3879 3975 5326 3965 3865 5428 4084 4079 5316 3649 4195 4989 3972 4294 5298 4182 4084 5180 4192 4192 5851 3658 4303 5077 3849 4078 5091 3758 4305 5537 3979 4190 5303 3533 4200 5631 4047 4302 5303 3868 4296 5840 3739 4081 5437 3639 4084 5416 4618 4419 5526 3741 4407 5071 3971 4193 5221 3874 4295 5185 4089 4190 5544 4078 3987 5094 3869 4311 5437 3992 4097 5642 4324 4215 5425 3875 4091 5432 3866 4620 5550 4291 4098 4974 3746 4190 5330 4315 4426 5419 3764 4100 5567 3874 4410 5529 4299 4433 5298 4185 4090 5550 3951 4179 5651 4317 4206 5439 3763 3884 5650 3635 4539 5645 4220 3988 5431 4212 4433 5430 3974 4211 5225 3975 4315 5560 4095 4093 5306 3658 4316 5318 3953 4325 5315 3971 4427 5415 3760 4111 5526 3774 4091 5329 3863 4646 5689 3866 4433 5311 3963 4320 5097 4204 4515 5337 3762 4544 5330 3982 4541 5548 3870 4088 5761 3991 4422 5180 4094 4122 5404 4095 4087 5216 3870 4541 5639 4087 4098 5087 3874 3987 5750 4103 3991 5665 4086 4339 5322 3881 4437 5425 4103 4426 5525 3989 4526 5317 4304 4314 5647 4091 4668 5532 3987 4210 5310 4317 4307 5108 4100 4102 5652 4645 4385 5435 4656 4100 5431 4223 3874 5547 3988 4097 5323 4202 4418 5538 3892 4210 5214 4320 4650 5193 4102 4326 5883 4206 4322 5458 4088 4442 5442 3993 4090 5121 4206 4321 5434 4318 4330 5651 4188 4439 5801 4433 5082 4998 4100 3974 5102 3999 4753 5653 4335 4212 5527 4221 5203 5540 3990 4657 5428 3993 4555 5665 4204 4312 5549 4199 4557 5448 4441 4098 5307 4205 4889 5326 3660 4877 5434 4209 4551 5337 3654 4557 5308 3876 4431 5874 4197 4761 5973 4119 4660 5219 4660 4210 4986 4087 4752 5426 4214 4668 5549 4222 4454 5365 3999 4765 5205 4319 4888 5630 3977 4336 5541 4884 4996 5345 4543 4326 5447 4436 4233 5429 4074 5443 5204 4544 4882 5675 4326 5202 5758 4344 4340 5557 4104 4440 5219 4331 4202 5321 4337 4865 5691 4555 4114 5454 4213 3895 5541 4313 4433 5886 4425 4992 5332 4334 4558 5554 4774 4769 5536 3996 4322 5326 4545 5298 5318 4673 5753 5667 4210 4323 5541 4430 4553 5003 4548 5315 5108 3887 5503 5453 4450 4314 5441 4774 4104 5428 4544 5873 5227 4230 4218 5437 4555 4099 5662 4531 4340 5529 4651 4454 5423 4460 5545 5534 4636 4300 5323 4648 5428 5226 4090 4213 5461 4533 4314 5660 4660 4323 5107 4893 4637 5561 5110 4327 5345 5077 4517 5441 5185 4870 5207 4988 4666 5333 5191 4778 5555 4888 4439 5406 4318 5650 5329 4981 4550 4989 3866 4551 5664 6173 4537 5321 4896 4770 5572 5528 4335 5331 5228 5855 5319 4192 4983 5309 4661 4438 5530 4101 5529 5881 4330 4639 5671 4989 5546 5224 4766 5530 5784 4665 4967 5326 4647 4872 5348 4450 5217 4974 4670 6305 5779 4206 5091 5553 3990 4990 5099 5322 4761 5544 5434 5443 5463 4330 5970 5097 5228 4987 5447 4104 5972 5337 4663 5330 5527 4415 5420 5547 4322 5214 5658 4213 5098 5018 5013 5752 5295 5327 5414 5423 6195 5555 5233 5540 4869 5221 3998 4879 4894 5458 4985 5434 4762 5316 5326 4982 5094 5782 4226 5410 5669 5408 4538 5676 4859 5094 5451 5522 5190 5535 4200 5199 5449 4326

Tree=0
num_leaves=31
num_cat=0
split_feature=719 719 712 680 685 717 542 685 670 26 542 26 685 206 680 712 672 372 492 712 418 675 719 182 670 717 51 680 719 571
split_gain=9954.21 761.53 734.491 317.744 159.103 131.754 109.375 91.9402 72.5431 54.745 78.4958 47.513 67.7404 41.6596 40.0409 35.0983 30.2896 25.3774 22.6095 21.3449 9.78199 8.23661 7.99797 6.95025 6.17189 2.571 1.90614 1.33338 0.758891 0.210468
threshold=7.930189123789833 17.248797118572728 -0.0017586114692704766 30.552113808395092 -0.060803778808889312 -43.554990314047942 0.39512128802916691 -0.079847511484828701 76.301947549260788 48.248325930939465 0.060096070788778204 48.14362736388594 -0.069496816624763355 0.41857650998291035 123.50914381966531 0.082145788788196242 56.050476379761598 -27.168720689279382 51.227988121038798 -0.014704970247620961 70.777833032553517 2.6306964708167461e-05 25.283147089576385 0.0021423190076461656 121.4948549870645 -13.27653371078846 -0.002360895597241302 111.36745701162231 -6.4136806823119006 154.9346516089918
decision_type=2 2 2 2 2 2 2 2 2 2 2 2 2 2 2 2 2 2 2 2 2 2 2 2 2 2 2 2 2 2
left_child=2 3 19 7 -3 11 9 -2 18 -7 -11 -4 -13 -9 20 16 -6 -12 -5 27 -10 26 -17 -23 -18 -24 -21 28 -1 -27
right_child=1 4 5 8 15 6 -8 13 14 10 17 12 -14 -15 -16 22 24 -19 -20 21 -22 23 25 -25 -26 29 -28 -29 -30 -31
leaf_value=-1.0855158610967384 -1.0675535102288654 -1.0417053205632556 -1.0813832626417257 -1.049340820129981 -1.0304346851660036 -1.0671133713692278 -1.0731167569191797 -1.04350822186109 -1.0377671245852553 -1.0392113167910393 -1.0524676965288273 -1.0798310995525027 -1.0614524349807168 -1.0585310348025836 -1.0215477816465028 -1.0208580054668681 -1.0233225336527061 -1.065240382653134 -1.0372838846754557 -1.0851150462350145 -1.0302786360733365 -1.0753454119779244 -1.0182363311485108 -1.0816554848925177 -1.0181790515189166 -1.0159387625855878 -1.0818647936543726 -1.0834148760235705 -1.0842911449268036 -1.0150060507423158
leaf_weight=3275.3987890183926 240.67341086268425 207.74630105495453 301.43580937385559 170.74573436379433 251.87541729211807 184.32392397522926 296.00453352928162 281.06852495670319 204.69120839238167 183.64501449465752 189.75519981980324 199.59938728809357 274.27943015098572 171.0851891040802 231.16867813467979 253.91214573383331 236.59995397925377 169.72737014293671 188.73683559894562 196.88374936580658 198.24156832695007 196.54429462552071 237.61831820011139 206.72793683409691 315.01399898529053 254.93050995469093 224.7190380692482 208.42521053552628 329.27109807729721 464.7135394513607
leaf_count=9649 709 612 888 503 742 543 872 828 603 541 559 588 808 504 681 748 697 500 556 580 584 579 700 609 928 751 662 614 970 1369
internal_value=-1.06114 -1.03093 -1.07949 -1.04309 -1.02171 -1.06647 -1.06082 -1.05557 -1.0344 -1.05581 -1.05198 -1.07393 -1.06919 -1.04919 -1.02951 -1.01964 -1.02353 -1.0585 -1.04301 -1.08454 -1.03408 -1.08104 -1.01706 -1.07858 -1.02038 -1.01606 -1.08338 -1.0853 -1.0854 -1.01534
internal_weight=0 3908.82 6436.74 1686.41 2222.41 1798.77 1023.46 692.827 993.584 727.452 543.128 775.315 473.879 452.154 634.101 2014.66 803.489 359.483 359.483 4637.97 402.933 824.875 1211.17 403.272 551.614 957.262 421.603 3813.1 3604.67 719.644
internal_count=30477 11515 18962 4968 6547 5299 3015 2041 2927 2143 1600 2284 1396 1332 1868 5935 2367 1059 1059 13663 1187 2430 3568 1188 1625 2820 1242 11233 10619 2120
is_linear=0
shrinkage=1


Tree=1
num_leaves=41
num_cat=0
split_feature=718 718 671 705 718 87 53 694 718 684 446 649 649 649 718 327 718 14 671 718 678 216 684 689 570 668 712 523 684 162 696 678 145 705 668 619 667 682 694 474
split_gain=1948.58 3466.42 275.171 242.146 184.558 246.617 157.001 150.759 99.6079 92.0168 82.9057 81.0639 68.6077 66.7463 59.733 57.6568 53.1544 45.1 41.6867 37.4651 28.6096 27.4535 25.7642 23.9924 23.5209 20.2252 19.5622 19.168 16.3829 16.3264 14.583 11.3844 11.1836 4.90524 4.87524 1.63356 1.36468 0.70413 0.624868 0.210592
threshold=-78.224411564781647 77.85472766029315 -7.1045955725504131 0.25400000000000494 58.964782368333388 9.9872990342650123 -0.25450000000000722 0.087000000000003311 -33.057886170557246 51.89139714456801 0.12414490664570811 0.0079859619803924232 -0.025717797695425714 -0.03111897512126121 106.38674525423414 -15.162746090095888 123.1086924928827 -0.37454254056714631 7.1238774269680745 -103.42806025332057 0.18107427522739442 -0.26250000000000279 50.397173111045539 -0.4745209814900932 58.299101935236799 56.509936093384113 0.082145788788196242 -38.678243952031146 53.66411640489855 50.967776799598354 0.27200000000000563 0.17439833213985442 17.500000000000004 -0.21649999999999633 59.124888726335733 145.58354453341579 -123.75936465190917 -0.04145280907542314 0.28699999999999198 40.162167467033221
decision_type=2 2 2 2 2 2 2 2 2 2 2 2 2 2 2 2 2 2 2 2 2 2 2 2 2 2 2 2 2 2 2 2 2 2 2 2 2 2 2 2
left_child=9 2 7 11 5 6 15 8 17 13 18 -3 -6 19 26 -4 20 -2 21 33 -13 -8 -19 30 -14 -16 -5 -17 -25 -23 -7 -18 -21 36 -27 -36 39 -38 -37 -1
right_child=1 3 4 14 12 23 10 -9 -10 -11 -12 16 24 -15 25 27 31 22 -20 32 -22 29 -24 28 -26 34 -28 -29 -30 -31 -32 -33 -34 -35 35 38 37 -39 -40 -41
leaf_value=-1.12090617600206 -1.0899856952989364 -1.0863294916372204 -1.058810621178319 -1.1031586650225849 -1.0725143835988822 -1.0622087851971582 -1.0744565732041167 -1.0715536100906669 -1.0784655116563875 -1.0980024610293726 -1.0704531739362386 -1.1053326880358825 -1.0858664658807615 -1.1052150964068526 -1.1102644985168855 -1.0689198194318412 -1.1149896471793306 -1.1095092746520878 -1.095437972470485 -1.1069493432639199 -1.094678765173873 -1.089225500963205 -1.0967710837489717 -1.0609042651376779 -1.0963726624439025 -1.1160942558354496 -1.1132920716181907 -1.0782758540261257 -1.0695698024726457 -1.0810536846339651 -1.0528778416670901 -1.1067154227416629 -1.1146454261206629 -1.1167507205663376 -1.1182264625448719 -1.119276964226154 -1.1199606112797171 -1.1178220443673055 -1.120799950766175 -1.119994291262097
leaf_weight=739.9589404463768 222.52146676182747 167.80854240059853 256.88385218381882 233.53077471256256 171.47831171751022 170.81108093261719 173.48000407218933 229.86100539565086 188.15908133983612 168.47577318549156 278.56885269284248 279.90331426262856 307.92700722813606 273.2310064136982 173.14638867974281 313.26485350728035 213.847466558218 199.50200468301773 189.15992751717567 168.14215779304504 301.58831477165222 298.91939163208008 168.80938857793808 278.23523730039597 204.17262017726898 267.55954474210739 207.17515870928764 211.51215881109238 229.86100539565086 266.55869856476784 222.85508215427399 173.81361946463585 308.92785340547562 286.57562211155891 300.92108398675919 231.19546696543694 196.49946615099907 169.47661936283112 519.77278143167496 203.50538939237595
leaf_count=2218 667 503 770 700 514 512 520 689 564 505 835 839 923 819 519 939 641 598 567 504 904 896 506 834 612 802 621 634 689 799 668 521 926 859 902 693 589 508 1558 610
internal_value=-1.09692 -1.09079 -1.07756 -1.11052 -1.07444 -1.07179 -1.07651 -1.08863 -1.09367 -1.11514 -1.08194 -1.10173 -1.08565 -1.11637 -1.11569 -1.06813 -1.1044 -1.09852 -1.08538 -1.11784 -1.09981 -1.08281 -1.10367 -1.06138 -1.09005 -1.11798 -1.10792 -1.07269 -1.06482 -1.08537 -1.05693 -1.11128 -1.11193 -1.1196 -1.11899 -1.11973 -1.12022 -1.11897 -1.12033 -1.12071
internal_weight=0 7652.8 4582.54 3070.26 3573.69 2890.11 1988.35 1008.85 778.992 2514.79 1206.69 1136.96 683.578 2346.32 1933.3 781.661 969.153 590.833 928.118 2073.09 581.492 738.958 368.311 901.762 512.1 1492.6 440.706 524.777 508.096 565.478 393.666 387.661 477.07 1596.02 1319.45 1051.89 1309.44 365.976 750.968 943.464
internal_count=30477 22939 13736 9203 10712 8663 5960 3024 2335 7538 3617 3408 2049 7033 5795 2343 2905 1771 2782 6214 1743 2215 1104 2703 1535 4474 1321 1573 1523 1695 1180 1162 1430 4784 3955 3153 3925 1097 2251 2828
is_linear=0
shrinkage=1


Tree=2
num_leaves=29
num_cat=0
split_feature=719 706 719 684 719 698 719 672 681 446 683 475 698 622 698 475 698 719 222 719 672 695 488 706 336 698 463 683
split_gain=11906.1 673.49 589.086 347.483 156.62 137.878 69.1559 61.5743 58.038 51.9998 50.8119 48.8312 42.3502 31.6923 29.2676 11.1058 9.06878 5.55233 4.34889 3.41126 3.31512 2.56839 0.967686 0.761193 0.679704 0.360873 0.264325 0.128099
threshold=-6.2122676009352293 -22.490983114324056 -1.2360335579333697 52.566088236204429 -10.862116487683501 51.554342703944712 2.2983835511929498 59.16571071100811 63.333333333333343 0.11296121321562579 -53.957548154851075 -51.082970197935161 50.154054399546403 -78.224411564781647 48.827595336492813 -144.50933360919618 47.443058355260064 -22.077669140004975 0.012739943292036994 6.4276897051516029 41.981187619222375 -0.00019160091793533429 -102.03369961506058 -85.770947500842723 51.43028610263525 49.712266763529406 -0.001458006314448467 -73.417005555872777
decision_type=2 2 2 2 2 2 2 2 2 2 2 2 2 2 2 2 2 2 2 2 2 2 2 2 2 2 2 2
left_child=1 3 5 4 10 7 12 9 -3 11 13 -2 -4 17 -6 -12 -8 23 -14 21 22 -18 -19 26 -23 -21 -1 -27
right_child=2 8 6 -5 14 -7 16 -9 -10 -11 15 -13 18 -15 -16 -17 19 20 -20 25 -22 24 -24 -25 -26 27 -28 -29
leaf_value=-1.0894230541023011 -1.1345645233247619 -1.12209446021445 -1.1477953324370547 -1.1283500407467644 -1.1047155771434933 -1.1560689667766295 -1.1568607584369068 -1.1477693912899802 -1.139717041977458 -1.1422883333046703 -1.0970225346089333 -1.1168731264010034 -1.1565425484446514 -1.1000177094929919 -1.1175533512270734 -1.1049791795890149 -1.1586326834967855 -1.0930784906982887 -1.1616805241461674 -1.1617837610145803 -1.0955539190528123 -1.1625345001916332 -1.090685284427992 -1.0914685923443554 -1.1608357670715359 -1.1622040582175666 -1.0905440882939543 -1.1627931775530684
leaf_weight=683.19969892501831 186.71296119689941 216.74371719360352 323.80989074707031 211.52097702026367 263.42195749282837 248.08015823364258 176.59390211105347 170.3918981552124 213.80592584609985 165.82200050354004 177.57316589355469 173.32968950271606 163.8634729385376 262.44269371032715 167.45410680770874 236.00257158279419 205.31897306442261 172.35042572021484 227.51561880111694 249.71226453781128 184.75443363189697 313.03798913955688 245.7952094078064 167.45410680770874 251.34437084197998 263.74837875366211 176.26748085021973 3450.2727270126343
leaf_count=2093 572 664 992 648 807 760 541 522 655 508 544 531 502 804 513 723 629 528 697 765 566 959 753 513 770 808 540 10570
internal_value=-1.13931 -1.10281 -1.15825 -1.09871 -1.09642 -1.14071 -1.16119 -1.13523 -1.13085 -1.13117 -1.09394 -1.12605 -1.15422 -1.09227 -1.1097 -1.10156 -1.16221 -1.09103 -1.15953 -1.16241 -1.09286 -1.16094 -1.09167 -1.08995 -1.16178 -1.16269 -1.08965 -1.16275
internal_weight=0 3378.79 6569.55 2948.24 2736.72 944.337 5625.22 696.257 430.55 525.865 2305.84 360.043 715.189 1892.26 430.876 413.576 4910.03 1629.82 391.379 4733.43 602.9 769.701 418.146 1026.92 564.382 3963.73 859.467 3714.02
internal_count=30477 10351 20126 9032 8384 2893 17233 2133 1319 1611 7064 1103 2191 5797 1320 1267 15042 4993 1199 14501 1847 2358 1281 3146 1729 12143 2633 11378
is_linear=0
shrinkage=1


Tree=3
num_leaves=32
num_cat=0
split_feature=712 714 712 670 714 670 714 684 350 410 135 254 698 623 135 669 712 683 453 250 634 684 326 712 714 690 332 695 672 571 623
split_gain=9038.4 1364.64 465.904 271.56 177.156 111.657 100.012 99.5404 129.822 59.5962 46.7879 46.7607 69.5558 45.5642 39.7643 37.9906 20.9448 18.0733 17.8809 14.2369 10.6262 8.91422 8.93713 4.31643 3.03881 2.72754 2.57606 2.34326 0.689083 0.306713 0.258608
threshold=0.017188248144506705 55.946509108458834 -0.0017586114692704766 76.853379236676616 49.732946213717 85.765189405877933 62.955537088442362 50.710010550903519 0.18755345847410992 49.570158807498807 9.8212568278156738 0.47404688475063866 50.202900041242678 17.402181454937097 -4.5284187942265568 -43.777615096796751 -0.014704970247620961 -58.0459770114931 48.333333333333343 0.088749148207213593 0.08991498973973934 50.012878261158548 0.0066741456683132592 0.099611231143271098 51.444324985385997 57.54307788584584 62.254086529178501 -0.0010126011239649107 79.654773815237391 152.17310978512424 -4.4020906329319391
decision_type=2 2 2 2 2 2 2 2 2 2 2 2 2 2 2 2 2 2 2 2 2 2 2 2 2 2 2 2 2 2 2
left_child=2 4 16 9 -2 11 13 14 15 -3 -11 12 -6 18 -4 -9 24 -10 -5 -15 -7 27 -23 25 30 -8 -21 -18 -27 -25 -1
right_child=1 3 7 6 5 20 23 8 17 10 -12 -13 -14 19 -16 -17 21 -19 -20 26 -22 22 -24 29 -26 28 -28 -29 -30 -31 -32
leaf_value=-0.024089413548899246 -0.0096017148743610357 0.0077253008099718986 -0.021437346611025213 0.030867022231095748 -0.0022458187588179058 0.025104296191755391 0.039338581395992993 0.0018497421433355248 -0.01691217263472054 0.033510567060820735 0.016141088743660971 -0.0033458580175973925 0.017412653327839908 0.031608062415420621 -0.0087844164737560862 0.017148539230682682 -0.023949540207263083 -0.0060397222207571417 0.021504855869304264 0.038016442773260044 0.01711842081532047 -0.014445248672158198 -0.021526416157712072 0.042992834113920228 -0.021171341236184141 0.041410887188766538 0.041732646026645254 -0.020175995599668258 0.043585427296612779 0.044133885993118079 -0.023354504697914003
leaf_weight=3210.0589354336262 318.92227387428284 174.68668863177299 252.5501030087471 340.6369543671608 170.50178331136703 193.02219477295876 291.33161321282387 205.09585705399513 174.89580288529396 178.83293300867081 178.63315653800964 248.43369251489639 264.40997487306595 187.21270757913589 330.23745322227478 171.87965503334999 212.84447267651558 177.57219213247299 179.74016642570496 277.08783540129662 191.51902469992638 261.45260092616081 169.48396047949791 218.35529613494873 231.05314043164253 177.03285151720047 179.18269750475883 173.34172981977463 175.97758746147156 498.36273583769798 327.46354097127914
leaf_count=9569 941 513 749 990 502 563 843 604 518 522 522 731 775 543 975 504 634 524 523 803 559 776 504 631 688 512 519 516 509 1439 976
internal_value=0 0.0258408 -0.0194828 0.0347985 0.00609434 0.0107822 0.0380824 -0.00687279 -0.000964098 0.0192165 0.0248314 0.0049601 0.00970524 0.0329161 -0.014268 0.00882577 -0.0230912 -0.0114353 0.0276338 0.0371876 0.0211276 -0.0196063 -0.0172308 0.0425 -0.0238468 0.0410686 0.0394764 -0.0222564 0.0424956 0.0437866 -0.0240215
internal_weight=0 4443.88 5897.93 3057.07 1386.81 1067.89 2524.92 1312.23 729.444 532.153 357.466 683.345 434.912 1163.86 582.788 376.976 4585.7 352.468 520.377 643.483 384.541 817.123 430.937 1361.06 3768.58 644.342 456.271 386.186 353.01 716.718 3537.52
internal_count=30477 12940 17537 8869 4071 3130 7312 3874 2150 1557 1044 2008 1277 3378 1724 1108 13663 1042 1513 1865 1122 2430 1280 3934 11233 1864 1322 1150 1021 2070 10545
is_linear=0
shrinkage=0.024


Tree=4
num_leaves=43
num_cat=0
split_feature=718 718 718 718 231 668 51 593 636 649 283 247 707 649 442 291 703 706 302 707 718 529 51 718 188 706 571 28 187 120 285 466 609 486 289 718 703 688 618 527 658 668
split_gain=1872.07 3261.44 338.143 254.36 200.808 167.755 147.704 89.6619 86.4209 74.536 64.6099 92.3068 66.356 59.2931 55.8859 52.9314 41.7188 41.0383 39.8763 35.1084 34.1707 31.7943 24.7602 24.6787 23.2518 22.262 26.0718 21.5977 20.5876 20.5416 11.7766 11.2396 9.83109 7.67955 6.79123 5.9013 4.97559 1.07474 0.833114 0.404126 0.34343 0.265419
threshold=-79.63102519697118 83.485862941199102 -55.386757027834385 58.964782368333388 13.334002187071958 58.513693342911019 -0.0047068450259511877 -0.17884410235143364 52.013146999680941 0.0060121788966777303 51.792427771718273 77.500000000000014 -0.022512065471460115 -0.029925788168158992 0.055425191757308319 -0.00097972935073343203 0.0016660487737644924 115.39246553609664 0.20791876889206232 0.021692837312940586 -103.42806025332057 32.500000000000007 -0.0010952095814391551 103.56934227240696 59.134198222920027 -23.174225400105652 50.155070966736695 -0.71446491743873664 26.66448613147281 -0.43350000000000927 -19.111548745537835 97.501417304600025 0.35299999999999448 0.26048009901104213 17.500000000000004 157.15250461561166 -0.0015320795399129791 60.71428571428573 41.414896908583707 -12.595117240782441 -91.963921080493677 63.949276352983539
decision_type=2 2 2 2 2 2 2 2 2 2 2 2 2 2 2 2 2 2 2 2 2 2 2 2 2 2 2 2 2 2 2 2 2 2 2 2 2 2 2 2 2 2
left_child=8 2 14 4 6 9 27 -5 13 -3 11 12 -8 20 29 -13 17 31 -12 22 36 -9 -14 -7 -23 26 -6 -4 -24 -2 -18 -11 35 -28 -22 -25 38 -34 39 40 -1 -39
right_child=1 5 3 7 25 23 10 21 -10 16 18 15 19 -15 -16 -17 30 -19 -20 -21 34 24 28 32 -26 -27 33 -29 -30 -31 -32 -33 37 -35 -36 -37 -38 41 -40 -41 -42 -43
leaf_value=-0.023712952490344798 0.0045591189310061559 0.0060364362509309107 0.038647371938553672 0.022797485725617506 0.028393722857528877 -0.012095748477001234 -0.0013949372082490219 -0.0040774268422336694 -0.0017602055417912643 0.0037887151635159588 0.017575429845979977 0.033298972399809793 0.022244367416005707 -0.0083302159889436303 0.013390264231897988 0.016551199258942269 -0.018422072731247397 -0.012981453755207515 0.030917746575055621 0.0043388767163691109 -0.011088929477374285 0.011562094812049629 0.009086701743121546 -0.014833667521005709 0.00072236453503776092 0.026572449099552201 0.036264690788139285 0.028129258089178419 0.019600462960057838 -0.0056107124816652887 -0.011231319352962161 -0.0049772662684458699 -0.02142309574702753 0.042673925729595365 -0.017174513192053018 -0.020566922460905745 -0.019605068401448832 -0.022592638791761207 -0.021449306891354433 -0.022184557539024308 -0.022491873246246595 -0.023665117980591191
leaf_weight=775.69978603720665 178.36989477276802 180.89890530705452 190.41912734508514 208.67030519247055 168.97292307019234 199.62818068265915 196.35179594159126 172.84508627653122 172.49091684818268 167.59580942988396 239.43798476457596 202.07120704650879 261.42425838112831 249.2547781765461 188.26528358459473 235.43059039115906 313.43982911109924 285.77374684810638 280.11494758725166 174.21880385279655 167.09742343425751 332.40250128507614 289.05787149071693 178.71027505397797 173.54131188988686 170.93973422050476 213.15621963143349 275.46218198537827 170.7322359085083 318.92128759622574 226.04353654384613 169.3993533551693 298.19708269834518 219.51509946584702 288.55055209994316 246.92870166897774 297.45220199227333 248.02373462915421 165.37233901023865 167.90499466657639 171.17905595898628 335.49460601806641
leaf_count=2353 533 541 563 620 501 602 586 517 517 503 712 599 775 750 560 700 946 861 829 519 504 993 860 540 520 505 629 816 507 955 682 509 904 647 872 748 900 752 501 509 519 1018
internal_value=0 0.0059222 0.0178752 0.0204405 0.0235186 -0.0144611 0.0202305 0.00903846 -0.0181419 -0.00829331 0.0174566 0.0149721 0.0112391 -0.0193798 0.00225329 0.0242871 -0.0105239 -0.00629115 0.0247694 0.0140098 -0.0207342 0.00480837 0.0163456 -0.0199582 0.00784449 0.0342207 0.0363934 0.0324288 0.0129913 -0.00196248 -0.0154096 -0.00061702 -0.0211586 0.039517 -0.0149433 -0.0181603 -0.0224066 -0.0226057 -0.0230574 -0.0232957 -0.0234925 -0.0232097
internal_weight=0 7710.45 4860.32 4174.76 3287.3 2850.13 2514.72 887.459 2455 1343.15 2048.84 1529.29 1091.78 2282.51 685.556 437.502 1162.25 622.769 519.553 895.433 2033.26 678.789 721.214 1506.98 505.944 772.584 601.644 465.881 459.79 497.291 539.483 336.995 1307.35 432.671 455.648 425.639 1577.61 881.715 1280.16 1114.78 946.879 583.518
internal_count=30477 23052 14446 12398 9748 8606 7466 2650 7425 4042 6087 4546 3247 6908 2048 1299 3501 1873 1541 2661 6158 2030 2142 4564 1513 2282 1777 1379 1367 1488 1628 1012 3962 1276 1376 1288 4782 2674 3882 3381 2872 1770
is_linear=0
shrinkage=0.024


Tree=5
num_leaves=29
num_cat=0
split_feature=712 706 667 712 110 712 692 706 667 706 708 683 287 692 101 706 698 683 705 708 53 337 692 712 692 708 709 63
split_gain=11092.4 736.386 545.952 492.194 125.902 101.855 67.7982 58.475 52.6674 44.2562 43.5589 25.7857 37.5293 23.6359 23.0483 22.0216 18.7351 6.99626 5.17995 6.43522 3.1484 3.87422 1.79485 1.74469 0.773799 0.287007 0.417847 0.254259
threshold=-0.017646024707488547 -18.903913842144359 25.126692704659039 -0.00067169062386085432 0.37288614372561307 -0.035452905797328065 0.00075841533238204856 -80.777538412352115 -131.48283874266593 -73.626690497745912 -62.810238180791728 -25.142050040351247 -2.946525788097444 0.00057870029634093012 -0.54449999999999921 -109.89689744627657 48.827595336492813 -56.527201223513991 0.046000000000006487 -44.541273759043413 -0.54949999999999466 55.833333333333343 -0.00035156985304965374 0.010205850350288872 -0.001504087441025713 -49.037635612367971 0.035213452818553044 50.241018561953325
decision_type=2 2 2 2 2 2 2 2 2 2 2 2 2 2 2 2 2 2 2 2 2 2 2 2 2 2 2 2
left_child=1 2 5 4 7 8 -3 -2 17 16 13 12 -9 -5 -11 -7 20 24 19 -12 -10 -22 -21 -20 -1 26 -25 -24
right_child=3 6 -4 10 -6 15 -8 11 9 14 18 -13 -14 -15 -16 -17 -18 -19 23 22 21 -23 27 25 -26 -27 -28 -29
leaf_value=0.047419877023540405 0.012732032461361885 0.012260151230549292 -0.0012942237597828132 -0.008067506465589503 -0.020699734293486236 0.037120227397802234 -0.0069406899706891088 0.0067863486088119472 0.04176465613718959 0.025948062253929684 -0.017384462190842484 -0.010940689247569364 -0.0066876860486773078 -0.020260580849460297 0.037300569955353254 0.026635743201566014 0.035327547563708067 0.041962009848138436 -0.020902880522209108 -0.019908471312839373 0.047227923241608981 0.042719072995384987 -0.021973186624385556 -0.021525736624550498 0.045752817749475254 -0.023183294979921977 -0.023270359338807552 -0.023154720035434933
leaf_weight=746.99839505553246 172.33574375510216 300.71102514863014 192.08404380083084 186.58674755692482 205.49196681380272 184.09883445501328 163.5111326277256 232.4537056684494 213.70917397737503 167.8933416903019 217.37978419661522 172.66237792372704 244.10464218258858 180.00537046790123 267.37003818154335 310.15464746952057 173.85232791304588 187.36315682530403 218.9642525613308 163.49666914343834 261.59859377145767 192.32502961158752 161.75763270258904 161.44464442133904 217.58731791377068 3507.0937440693378 169.17671212553978 372.10730731487274
leaf_count=2232 526 916 585 576 634 555 501 711 640 505 672 531 749 557 805 938 524 562 678 507 783 576 501 500 651 10883 525 1154
internal_value=0 0.0336964 0.0378988 -0.0191133 -0.00389804 0.0404745 0.0054966 0.000304198 0.0424958 0.0391375 -0.0220408 -0.0029944 -0.000114872 -0.0140552 0.0329221 0.0305415 0.0423521 0.0462177 -0.0226296 -0.0209951 0.044181 0.0453181 -0.0221203 -0.022998 0.0470441 -0.0231175 -0.0224192 -0.0227972
internal_weight=0 3579.26 3115.03 6365.06 1027.05 2922.95 464.222 821.556 2428.7 1276.75 5338.01 649.221 476.558 366.592 435.263 494.253 841.485 1151.95 4971.42 914.741 667.633 453.924 697.362 4056.68 964.586 3837.72 330.621 533.865
internal_count=30477 10773 9356 19704 3151 8771 1417 2517 7278 3833 16553 1991 1460 1133 1310 1493 2523 3445 15420 2834 1999 1359 2162 12586 2883 11908 1025 1655
is_linear=0
shrinkage=0.024


Tree=6
num_leaves=30
num_cat=0
split_feature=718 712 718 716 716 494 610 711 671 706 652 706 683 523 475 716 716 706 671 593 644 706 712 718 636 657 600 523 346
split_gain=9259.81 680.843 614.155 169.127 157.12 158.674 121.733 107.365 62.6263 40.3056 39.7229 39.5122 27.4046 24.2386 25.3459 22.7696 17.0551 12.2556 19.6831 10.3285 9.47804 9.20588 4.14378 3.77078 3.00925 1.71945 0.755002 0.201216 0.194026
threshold=58.964782368333388 -0.0017586114692704766 87.425817928759272 58.01963768017653 50.43444139987632 0.12602344784046896 27.981698620046938 0.95009745668772194 7.7165426531519552 30.707904803380568 0.18412340068298952 -22.490983114324056 -44.59459459459076 -43.455937429320549 52.802827281496356 50.622567395691071 59.923926876545856 124.28821118376386 17.815191290878186 -0.4745209814900932 0.0011304931167058277 67.848130891953033 -0.018401110914254556 116.36293474956635 50.30754814260542 0.35000000000000858 -0.10199999999998964 127.07151420715222 0.11845562524588617
decision_type=2 2 2 2 2 2 2 2 2 2 2 2 2 2 2 2 2 2 2 2 2 2 2 2 2 2 2 2 2
left_child=1 15 6 8 13 7 -2 -6 -4 -8 -11 -7 -10 -3 -15 22 20 18 -14 -17 -5 -12 28 -18 26 -25 -24 -27 -1
right_child=2 4 3 16 5 11 9 -9 12 10 21 -13 17 14 -16 19 23 -19 -20 -21 -22 -23 24 25 -26 27 -28 -29 -30
leaf_value=-0.023784195371048027 0.00044204364050998309 -0.021030001293358438 0.016109463774272109 0.031491881399861588 -0.0022083594887427746 -0.015341021072327125 0.0083197236077356251 0.018170845804167893 0.022631242348389487 0.01193480972577334 0.022340108498628299 -0.002990124371312726 0.026030306035595141 -0.0071158001321761149 -0.018459267552037115 -0.021755045821601589 0.038042893443346722 0.036732729344995475 0.036337616224102524 -0.014029403676029747 0.038519371642458278 0.029603353608909248 -0.023722783210291337 0.039870785690178989 -0.01970455790479609 0.041317144630739315 -0.02165107661471783 0.042314325349664617 -0.022946852685876633
leaf_weight=3209.2478561103344 300.17957574129105 232.7925588786602 220.66772511601448 194.57166460156441 287.6200353205204 298.28425005078316 172.02226656675339 308.71033620834351 204.87738862633705 173.43053856492043 220.48265925049782 298.61504012346268 265.6166795194149 288.66158327460289 187.05098804831505 178.00262045860291 219.32085213065147 261.51408693194389 178.76421871781349 227.24323180317879 257.83678072690964 185.51824170351028 274.13488042354584 276.85422137379646 268.01546815037727 176.3352724313736 167.28686898946762 611.6472060084343 185.81706127524376
leaf_count=9686 881 695 641 557 847 888 502 901 590 504 638 883 764 855 556 536 625 748 511 680 735 535 826 788 804 501 503 1736 561
internal_value=0 -0.0177743 0.0290513 0.034804 -0.00573055 -0.000414641 0.0133623 0.00834121 0.027583 0.0185232 0.021552 -0.00916255 0.0303626 -0.014683 -0.0115766 -0.0228531 0.0395087 0.0326062 0.0301772 -0.0174235 0.0354975 0.0256596 -0.0233891 0.0409216 -0.0217169 0.0415143 -0.0229382 0.0420915 -0.0237384
internal_weight=0 6411.48 3919.64 2868.01 1901.73 1193.23 1051.63 596.33 1131.44 751.454 579.431 596.899 910.772 708.505 475.713 4509.75 1736.57 705.895 444.381 405.246 452.408 406.001 4104.5 1284.16 709.437 1064.84 441.422 787.982 3395.06
internal_count=30477 19221 11256 8196 5625 3519 3060 1748 3254 2179 1677 1771 2613 2106 1411 13596 4942 2023 1275 1216 1292 1173 12380 3650 2133 3025 1329 2237 10247
is_linear=0
shrinkage=0.024


Tree=7
num_leaves=43
num_cat=0
split_feature=712 716 62 658 706 712 671 62 706 558 684 694 139 3 91 706 398 706 700 678 694 716 706 706 254 706 716 716 327 667 622 487 610 607 667 665 23 521 667 367 692 677
split_gain=1309.6 2178.15 564.713 390.515 348.522 294.729 384.806 183.092 179.563 162.008 106.49 80.6617 79.7983 105.619 79.2434 50.4367 49.2094 48.0407 46.2421 44.0834 41.2846 35.5119 33.8358 33.3351 31.6082 30.9095 56.013 29.8611 19.0659 18.9439 15.6786 9.56696 8.70886 4.1608 3.95855 4.12492 3.81752 2.38898 0.941981 0.689257 0.5088 0.134222
threshold=-0.042539970882543791 56.136398460080692 0.37288614372561307 35.004056618028478 -21.785015788141362 -0.023053293840476382 8.7117871741932404 -0.46613840263672018 32.183084561666597 -0.053304779421942318 51.37737396139952 0.15599999999999173 55.297627302178149 -0.0012345521886665066 60.949282632868908 -59.443213346543104 -0.096160981396561832 -4.7430992960049307 0.62564631893388245 0.14597307867520201 0.085999999999998536 52.638856033070716 81.816247525377619 -85.770947500842723 0.22099122513356745 69.826340415904937 48.224690403044264 58.916081902027727 15.751993705319352 20.577962809239427 -78.224411564781647 47.500000000000007 116.1274759622862 0.0023255817229200049 -131.48283874266593 -79.382011616408036 0.0016279861028252382 -48.548599880839312 151.0709715812674 -0.0013862503847012321 -0.0013703215335061593 0.65300000000000591
decision_type=2 2 2 2 2 2 2 2 2 2 2 2 2 2 2 2 2 2 2 2 2 2 2 2 2 2 2 2 2 2 2 2 2 2 2 2 2 2 2 2 2 2
left_child=4 2 5 -3 10 9 7 20 -8 -2 15 18 13 16 -4 30 -9 28 19 -5 -7 -10 -23 -11 -14 26 -15 32 -16 -28 34 -24 -13 36 40 39 -29 -30 -35 -36 -1 -40
right_child=1 3 14 11 -6 6 8 12 21 23 -12 27 24 25 17 -17 -18 -19 -20 -21 -22 22 31 -25 -26 -27 29 33 37 -31 -32 -33 -34 38 35 -37 -38 -39 41 -41 -42 -43
leaf_value=-0.023324576961576707 0.016117998400677555 0.014137004139659863 0.016683105176218297 -0.013056911668399443 0.016765372601790347 0.023711674700969156 0.019010826278531467 0.026801198351248511 0.0037372147018301469 -0.016130429429390115 -0.00077468123684185238 -0.010631749232619232 0.018272820645390379 -0.0023745576706474861 0.031147697860611816 -0.010993636900537151 0.012574763738585477 0.023824476219774619 -0.016787589489568336 0.002914587825338572 0.037336116217088336 -0.001080835483254268 -0.016663695595249745 -0.0045047853451575196 0.03134743429461944 -0.00069447928283016002 0.0098891134001977497 -0.021988509876010694 0.04193361803545835 0.019935790641227417 -0.014458023490327487 -0.0086688197884865065 -0.017661388941718995 -0.021306703670041244 -0.023045351449585767 -0.017799331052575484 -0.016981618674205255 0.037984336995466064 -0.022598069531230405 -0.020902404583668911 -0.02191875297072177 -0.023465992727949286
leaf_weight=764.62456986308098 177.31657773256302 265.29848778247833 221.71281072497368 187.20727169513702 179.01463136076927 247.69186925888062 238.4907708466053 290.36734226346016 214.70153105258942 276.47784841060638 187.98216027021408 202.65840524435043 268.80272680521011 169.67349314689636 230.41411110758781 324.5803174674511 270.70502728223801 241.66546368598938 321.91548338532448 212.53065425157547 265.68552988767624 259.99744415283203 167.42808759212494 292.37531417608261 176.57382872700691 242.59154510498047 279.57802855968475 182.45216399431229 183.16976925730705 176.43423575162888 172.35297361016273 178.1323823928833 203.94401103258133 204.99638703465462 193.98298454284668 206.94435796141624 170.31882745027542 174.85417184233665 164.08963316679001 163.63104149699211 192.65838330984116 412.94365638494492
leaf_count=2348 525 784 654 566 529 728 703 854 639 838 564 614 794 506 674 983 800 713 981 639 776 781 506 876 517 721 827 558 532 521 522 537 621 628 594 632 520 508 504 501 590 1269
internal_value=0 0.00488731 0.0137081 -0.0134106 -0.0154405 0.00976379 0.0127243 0.0180637 0.000680642 -0.00391172 -0.0180532 -0.0166401 0.0145859 0.0118216 0.0294319 -0.019662 0.0199377 0.0328367 -0.0100174 -0.00456466 0.0307631 -0.00464857 -0.00762217 -0.0101556 0.0234569 0.00657684 0.00939647 -0.0197406 0.0365375 0.0137768 -0.0213226 -0.0125431 -0.0141583 -0.0217405 -0.0220999 -0.0205021 -0.0195718 0.0400055 -0.0227185 -0.0220655 -0.0230419 -0.0232196
internal_weight=0 7773.19 5244.84 2528.35 2385.77 4193.02 3446.85 2388.1 1058.75 746.17 2206.76 2263.06 1874.73 1429.35 1051.82 2018.77 561.072 830.104 721.653 399.738 513.377 820.259 605.558 568.853 445.377 868.277 625.686 1541.4 588.438 456.012 1694.19 345.56 406.602 1134.8 1521.84 564.558 352.771 358.024 782.03 357.614 957.283 577.033
internal_count=30477 23214 15530 7684 7263 12449 10210 7044 3166 2239 6734 6900 5540 4229 3081 6170 1654 2427 2186 1205 1504 2463 1824 1714 1311 2575 1854 4714 1714 1348 5187 1043 1235 3479 4665 1727 1078 1040 2401 1095 2938 1773
is_linear=0
shrinkage=0.024


Tree=8
num_leaves=26
num_cat=0
split_feature=718 718 718 707 7 108 649 698 704 718 714 570 413 97 703 698 718 713 714 708 618 714 96 388 666
split_gain=10860.4 589.563 586.091 116.342 119.123 91.1006 83.9663 80.8555 52.4082 46.6972 38.5656 32.0378 20.3145 18.4311 11.3769 9.30554 9.05116 7.69093 7.64798 2.58905 2.25997 0.732801 0.694111 0.407503 0.241882
threshold=-47.311024985938168 -8.1400144571288191 -78.224411564781647 -0.003173760490938093 72.500000000000014 52.392511938952474 1.0000000180025095e-35 48.79625015083402 0.002315817599040597 -103.42806025332057 53.304691744917704 45.412635866436659 -0.0083300488604043637 15.833333333333336 -0.0011837578593131392 49.184928877197727 12.582388296213079 -65.346534653466051 56.340036676697146 -58.213256484150556 41.598523448992978 50.778815321728388 55.949972006571549 43.333333333333343 38.459824798174225
decision_type=2 2 2 2 2 2 2 2 2 2 2 2 2 2 2 2 2 2 2 2 2 2 2 2 2
left_child=2 3 7 4 5 -2 11 9 10 14 -3 17 -9 -11 20 -5 -10 -4 -12 -18 23 22 -21 -1 -25
right_child=1 8 6 15 -6 -7 -8 12 16 13 18 -13 -14 -15 -16 -17 19 -19 -20 21 -22 -23 -24 24 -26
leaf_value=0.043881141080545832 0.018529705218069955 -0.00848233655272293 0.031133294796087514 -0.009607605280691536 -0.0098414539018312121 -0.003664501991781199 0.0076985646221872832 0.035079114328105308 -0.017951479210154234 0.029949085911743136 -0.015863144558523241 0.015502767025109094 0.023519186844288411 0.039173044236010035 0.03819287163757535 -0.017468940617167757 -0.020051014946527886 0.023939042802781987 -0.022294865331116645 -0.02113942903126351 0.042468688501120296 -0.022958115498956835 -0.022823513174352453 0.045345963018573396 0.044304577845844406
leaf_weight=179.6679350733757 301.82268771529198 276.60559388995171 174.35275667905807 180.82089391350746 249.76818433403969 164.61161717772484 323.41882130503654 181.9485285282135 243.84739461541176 199.64647322893143 171.93849089741707 199.8745464682579 169.18914997577667 334.17814245820045 181.54759034514427 167.06095460057259 203.57929536700249 169.11632919311523 281.36382463574409 274.10594496130943 250.73459130525589 3680.6395865380764 306.489701628685 888.64893484115601 178.2422342300415
leaf_count=526 915 853 519 561 767 502 984 540 761 590 534 603 505 985 535 520 637 507 879 860 737 11575 962 2598 522
internal_value=0 -0.0183345 0.0344432 -0.00199677 0.00353378 0.0106965 0.0173817 0.0402112 -0.021531 0.0419093 -0.0155461 0.0231451 0.0295099 0.0357238 0.043876 -0.0133835 -0.0224587 0.0275917 -0.0198558 -0.0227048 0.0445649 -0.0228316 -0.0220289 0.0449863 0.0451722
internal_weight=0 6502.65 3430.57 1064.08 716.202 466.434 866.762 2563.8 5438.57 2212.67 729.908 543.344 351.138 533.825 1678.84 347.882 4708.66 343.469 453.302 4464.81 1497.29 4261.24 580.596 1246.56 1066.89
internal_count=30477 20326 10151 3265 2184 1417 2613 7538 17061 6493 2266 1629 1045 1575 4918 1081 14795 1026 1413 14034 4383 13397 1822 3646 3120
is_linear=0
shrinkage=0.024


Tree=9
num_leaves=30
num_cat=0
split_feature=718 718 718 713 703 523 610 610 678 713 692 716 716 673 623 718 492 707 718 713 707 698 610 718 698 541 420 678 465
split_gain=8790.37 612.226 568.354 179.306 141.981 134.561 115.103 82.274 49.9144 49.63 40.5028 38.7139 35.1153 26.9691 24.0699 22.9003 20.8931 20.8864 15.1299 12.4015 7.94904 9.01635 7.50722 3.84828 0.801276 0.64722 0.326414 0.271699 0.144585
threshold=58.964782368333388 -1.6780060783677557 87.425817928759272 -46.846846846846709 0.0016660487737644924 -47.665196537895746 27.981698620046938 71.350627870695646 0.18169923617155423 -35.492664568450955 -0.00041310593040530709 49.764911669513943 59.349655652662527 40.833333333333343 16.855987448668383 115.69146452415323 52.124032087371745 -0.00507376087414002 123.1086924928827 -68.509925514095428 -0.012641068494914974 48.983285133308748 100.55297855408504 112.21546654638659 47.63129030819983 -0.0054715335963919634 -3.4776395802142095 0.19615715018599147 0.060499999999990457
decision_type=2 2 2 2 2 2 2 2 2 2 2 2 2 2 2 2 2 2 2 2 2 2 2 2 2 2 2 2 2
left_child=1 11 6 10 8 -5 -2 13 18 -8 19 20 22 -7 -11 -10 -12 -13 -4 -3 27 24 -6 -14 -22 -25 -27 -1 -29
right_child=2 3 4 5 12 7 9 -9 15 14 16 17 23 -15 -16 -17 -18 -19 -20 -21 21 -23 -24 25 -26 26 -28 28 -30
leaf_value=-0.022452195994441568 0.0004049543227416952 -0.022900190205868219 0.026834082907006861 -0.015017860846254245 0.030291618043345958 0.0059202882419735047 0.0091846658234926454 0.017682026639186752 0.014430629132740538 0.017830206718041721 -0.013703863716688683 -0.01949403924116673 0.036300514560292367 -0.0059231001004601963 0.028423716715117592 0.025364060249972439 -0.0028235560622440568 -0.0089722905575977605 0.035273526201624113 -0.014957258290738611 -0.023465931011469487 -0.017289009691101774 0.035307881153133068 0.038719963163363874 -0.021370810125980272 0.040596190900622255 0.039481873808312758 -0.023532494187284682 -0.022809353254673405
leaf_weight=164.23134517669678 300.37488240003586 190.80248260498047 243.65236899256706 210.88448065519333 344.05809757113457 248.05240252614021 248.95293942093849 256.26190397143364 218.58935779333115 295.20251414179802 189.08007761836052 297.88250756263733 184.25712165236473 200.07002264261246 212.73695886135101 223.15652260184288 220.02035853266716 171.25102636218071 246.63498759269714 279.30524188280106 305.9200134575367 280.16757723689079 345.83647641539574 181.14347133040428 166.05039703845978 697.86006164550781 219.54716202616692 2979.3688539862633 192.5000227689743
leaf_count=501 881 578 694 630 976 729 722 746 627 850 565 903 518 594 607 635 655 509 696 839 930 845 975 508 502 1953 614 9106 589
internal_value=0 -0.0175097 0.0280434 -0.00563531 0.0335275 0.00179998 0.0129761 0.00683538 0.0258072 0.0179647 -0.0133758 -0.0221852 0.037175 0.00063212 0.0222675 0.0199544 -0.00785286 -0.0156537 0.03108 -0.0181816 -0.0229347 -0.0207032 0.0328066 0.0395241 -0.0227293 0.0400646 0.0403298 -0.0234377 -0.0234887
internal_weight=0 6351.85 3962 1794.48 2904.74 915.269 1057.27 704.384 932.033 756.892 879.208 4557.37 1972.7 448.122 507.939 441.746 409.1 469.134 490.287 470.108 4088.24 752.138 689.895 1282.81 471.97 1098.55 917.407 3336.1 3171.87
internal_count=30477 19221 11256 5336 8196 2699 3060 2069 2652 2179 2637 13885 5544 1323 1457 1262 1220 1412 1390 1417 12473 2277 1951 3593 1432 3075 2567 10196 9695
is_linear=0
shrinkage=0.024


Tree=10
num_leaves=45
num_cat=0
split_feature=714 718 718 719 302 26 719 706 719 601 327 718 706 718 683 719 718 23 183 697 714 719 118 11 692 84 73 82 253 683 158 483 718 300 719 683 101 714 675 490 609 305 718 569
split_gain=1274.89 2879.23 865.615 252.228 144.361 202.806 138.346 134.067 134.031 87.4754 84.0318 90.02 63.6069 60.0364 50.0857 49.0375 39.5963 30.9126 27.2073 27.1792 23.4456 21.811 19.7005 19.2988 16.9085 16.5117 16.4307 15.9502 15.9055 15.2927 14.2452 14.0777 13.3456 10.8189 10.419 7.8951 6.1135 5.03052 3.43858 1.07831 0.735803 0.638195 0.45908 0.253092
threshold=60.445027545861642 -72.988495208348226 77.85472766029315 -7.1045955725504131 0.2164246636246428 47.784109160150315 -10.051501888878029 -6.1985849748123041 11.074491833918275 0.0049395083948504349 -25.310719198499996 -33.057886170557246 69.288116537819931 -101.78364761311782 -17.556055421283364 13.444614721255322 98.572535097663078 0.0016649985869929525 -19.261839179145841 -0.095975476763327419 64.271005110686033 7.4190939577902402 0.091999999999998763 -53.358607777447901 -0.00069310010575483912 -23.672220685840561 0.029894381026980468 104.78463858506332 -0.018933060964357647 -53.957548154851075 -0.23089883107202608 -0.0042156563735838001 40.565185585383638 52.011488919269603 19.138422991426655 -40.738307295462555 0.53099999999999181 42.190734856881484 0.0010069127456632636 0.075442265923527443 0.30200000000000676 0.057909643146077959 -118.10802960151155 -73.834492501629299
decision_type=2 2 2 2 2 2 2 2 2 2 2 2 2 2 2 2 2 2 2 2 2 2 2 2 2 2 2 2 2 2 2 2 2 2 2 2 2 2 2 2 2 2 2 2
left_child=1 6 3 10 5 14 13 19 -2 -4 -3 30 17 33 18 25 22 21 -5 36 27 23 -11 -7 -8 -9 -18 34 -25 -15 -12 -20 -21 37 -10 -28 -6 41 -22 -40 -41 42 43 -1
right_child=8 2 9 4 7 12 24 15 20 16 11 -13 -14 29 -16 -17 26 -19 31 32 38 -23 -24 28 -26 -27 35 -29 -30 -31 -32 -33 -34 -35 -36 -37 -38 -39 39 40 -42 -43 -44 -45
leaf_value=-0.023196729241522541 0.0022989250239829322 0.021719858126875876 0.011399147222181539 0.031296554125632647 0.03466706330598375 0.009057118385099339 -0.0078835359349418016 0.017353112966470796 -0.0084796273564293288 0.0050054811376726563 0.0026743319026701581 0.017102951465006219 0.00093580350344904311 -0.01573917515189931 0.036778564460893573 0.0076533042248920977 -0.0049930923694731849 0.02315873422980691 0.025317378205322479 0.032498817263284463 -0.01855842800458209 0.0048169356308410084 -0.0053024911389881243 0.013413137731814847 0.0025251052522487528 0.027113212783004843 -0.0094893918016890448 -0.020586819928573044 0.022982576083627655 -0.0078172339612023346 -0.0059118891698493325 0.016619338385228378 0.024184059243835973 -0.016388674338443317 -0.016416675291527044 -0.016235341485130141 0.040711385754149031 -0.018173873832425424 -0.020420464962249755 -0.021138638347001078 -0.022977982579267947 -0.021189998893357081 -0.021617490283376464 -0.022113741620963173
leaf_weight=759.1170996427536 178.715306609869 174.57519826292992 183.89996045827866 176.76655668020248 174.28740710020065 249.57722818851471 189.34493908286095 173.80747744441032 176.58346620202065 181.973228931427 180.81982469558716 186.31137758493423 258.11968389153481 318.75465562939644 214.71181792020798 170.79700374603271 208.61560520529747 184.74553292989731 181.00064006447792 311.76491409540176 177.79646590352058 176.63761782646179 258.47896927595139 232.77849763631821 171.10803318023682 235.24447900056839 178.08584982156754 247.1356782913208 175.73580598831177 251.09496736526489 289.36259776353836 263.5628248155117 173.32220697402954 225.33916944265366 207.32323783636093 228.42656844854355 218.16319939494133 170.45522409677505 162.85691523551941 163.02347120642662 606.29813033342361 170.70122203230858 168.96415281295776 162.29706040024757
leaf_count=2361 531 512 547 511 501 732 572 507 537 546 537 546 764 975 621 505 633 541 525 898 548 522 780 682 514 685 543 762 514 764 866 770 500 691 637 698 624 526 503 504 1887 529 523 503
internal_value=0 0.00422706 0.0138409 0.0188293 0.0216008 0.0175935 -0.0167367 0.0274123 -0.017493 -0.00387566 0.00692043 0.00298459 0.0115793 -0.0189696 0.0267838 0.0184565 -0.00653702 0.0142739 0.0233296 0.0333297 -0.0195248 0.0123072 -0.0010432 0.0143173 -0.00294186 0.0229667 -0.0104704 -0.0158296 0.0175303 -0.0122489 -0.00260934 0.0201612 0.0295284 -0.0212809 -0.0127665 -0.0132807 0.0380277 -0.0220509 -0.0216253 -0.02221 -0.0225885 -0.0225747 -0.0227913 -0.0230062
internal_weight=0 8228.75 5641.57 4402.09 3571.02 2113.64 2587.18 1457.39 1919.73 1239.48 831.069 656.494 1277.59 2226.72 836.042 579.849 1055.58 1019.47 621.33 877.538 1741.02 834.729 440.452 658.092 360.453 409.052 615.128 631.042 408.514 569.85 470.182 444.563 485.087 1656.87 383.907 406.512 392.451 1431.53 1109.97 932.179 769.322 1261.08 1090.38 921.414
internal_count=30477 24568 16610 12863 10402 6182 7958 4220 5909 3747 2461 1949 3755 6872 2427 1697 3200 2991 1806 2523 5378 2450 1326 1928 1086 1192 1874 1936 1196 1739 1403 1295 1398 5133 1174 1241 1125 4442 3442 2894 2391 3916 3387 2864
is_linear=0
shrinkage=0.024


Tree=11
num_leaves=25
num_cat=0
split_feature=709 716 709 697 716 715 715 62 43 715 471 715 716 446 682 716 682 433 716 709 715 400 683 683
split_gain=9570 790.745 456.672 304.027 233.824 125.949 122.259 66.6126 66.4898 53.9804 52.9108 37.4606 25.6131 22.9386 19.2022 11.7133 9.77315 7.92759 5.27463 2.05536 1.75439 1.25181 0.596388 0.207016
threshold=-0.01586027110752752 48.010982594309525 0.0031474247036697993 0.027039317346624608 48.969791530620306 33.672883334876154 -106.4205367640955 -0.3394548159302942 -23.660848727612983 -34.886203652083118 6.2713436771878488 41.095678256741714 46.556378638204798 -0.42721100227794939 0.032163008236494768 49.688884799957641 0.026371461939234567 57.500000000000007 43.24690755786947 0.013281201908426967 51.264155498227886 1.0000000180025095e-35 -66.327822268149333 -72.34042553191081
decision_type=2 2 2 2 2 2 2 2 2 2 2 2 2 2 2 2 2 2 2 2 2 2 2 2
left_child=1 3 4 6 12 8 14 -8 -3 13 16 -6 -2 -4 18 -11 17 -9 21 20 -17 22 -1 -21
right_child=2 5 9 -5 11 -7 7 10 -10 15 -12 -13 -14 -15 -16 19 -18 -19 -20 23 -22 -23 -24 -25
leaf_value=0.043402764425154457 0.014476195735094849 -5.2859238392306915e-05 -0.019058174227283939 0.009507035296822482 -0.0087767407870593082 -0.012279342749565655 0.021855513681824961 0.041644094246853516 0.019185427837043949 -0.016408061717109602 0.022716844832831415 -0.020704608764068169 0.0033117145035766568 -0.0069273015181574114 0.03498319838684591 -0.019060974613373489 0.032904115760772373 0.035414149019343276 0.038362078387932458 -0.022057774564608786 -0.022233375755476448 0.040994526438911917 0.041844207114956851 -0.022696072773735792
leaf_weight=930.16424080729485 198.60661804676056 165.67198410630226 168.6631626188755 248.4025003015995 319.97747042775154 171.43249246478081 318.27029329538345 322.73907822370529 275.52816981077194 191.14112222194672 170.40916755795479 288.48759514093399 293.12423175573349 192.17478984594345 239.80919834971428 179.17304888367653 184.32417750358582 186.35084575414658 172.72635772824287 349.06652671098709 233.62394598126411 186.10932177305222 178.7621978521347 3750.7364886403084
leaf_count=2669 601 505 530 746 991 527 937 937 824 600 503 907 895 600 695 566 540 542 500 1111 742 536 515 11958
internal_value=0 0.0301183 -0.0185011 0.0349873 -0.00448586 0.00517734 0.0371776 0.0312435 0.0119608 -0.0215456 0.0347022 -0.0144324 0.00782146 -0.0125982 0.0412854 -0.0222319 0.0376473 0.0393641 0.0423149 -0.0224786 -0.020857 0.0428419 0.0431517 -0.0226418
internal_weight=0 3750.7 6164.78 3138.07 1100.2 612.633 2889.66 1182.09 441.2 5064.58 863.823 608.465 491.731 360.838 1707.57 4703.74 693.414 509.09 1467.76 4512.6 412.797 1295.04 1108.93 4099.8
internal_count=30477 10976 19501 9120 3394 1856 8374 3459 1329 16107 2522 1898 1496 1130 4915 14977 2019 1479 4220 14377 1308 3720 3184 13069
is_linear=0
shrinkage=0.024


Tree=12
num_leaves=30
num_cat=0
split_feature=718 709 718 716 302 703 610 379 610 713 710 713 694 716 610 683 570 309 619 703 716 610 718 668 710 709 655 199 325
split_gain=8348.53 576.766 526.635 167.892 157.232 131.777 108.782 84.1071 47.3316 46.7559 46.6289 37.7344 34.0714 32.3271 30.2007 24.3185 23.8963 16.9998 15.8583 10.0703 8.69328 6.97187 3.55933 2.65372 0.724106 0.618014 0.446407 0.331189 0.195167
threshold=58.964782368333388 0.0024871307370517575 87.425817928759272 49.975950081531892 0.17996212438339779 0.0016660487737644924 27.981698620046938 -44.120322783402052 79.5952167856682 -36.78029666518961 -0.0099913036010690331 -32.612591553688638 -0.069500000000004988 59.349655652662527 116.1274759622862 -55.37634408602063 60.130498223163734 45.000000000000007 -36.466178880047423 0.0011688284420795453 50.804634733848609 100.55297855408504 112.21546654638659 48.604219240397541 -0.029020410075574429 0.074111953348023021 -0.0001438858818832223 4.1666666666666679 -0.032587697591623048
decision_type=2 2 2 2 2 2 2 2 2 2 2 2 2 2 2 2 2 2 2 2 2 2 2 2 2 2 2 2 2
left_child=1 10 6 18 7 11 -2 -5 -9 -8 20 -4 -6 21 17 23 19 -13 -3 -11 24 -7 -15 -12 -1 -24 28 -27 -26
right_child=2 3 5 4 12 13 9 8 -10 16 15 14 -14 22 -16 -17 -18 -19 -20 -21 -22 -23 25 -25 26 27 -28 -29 -30
leaf_value=-0.023255108801523264 0.00038491191354438103 -0.021188673462635369 0.015001744267399536 -0.0067564992417775381 -0.016504776274238731 0.029242778146994559 0.0082994052988835595 0.0070140471752308505 0.02284902915075742 0.013574405615871586 -0.022459872093805351 0.027417891460466973 -0.0046484101163925175 0.034980027538329558 0.032516629870862707 -0.011118683748793526 0.028324308985784735 0.017700553082748604 -0.012983521340429462 0.021704322803959036 -0.018315905358139213 0.034050325790742172 0.037355243878192279 -0.01825760267287534 -0.022026676298775687 0.037977798932309466 -0.021405401225318366 0.03911690112239357 -0.023061688577630662
leaf_weight=2873.7297355532646 300.46738967299461 238.73825123906136 178.79054245352745 169.85488039255142 242.46910619735718 347.73616474866867 226.64073786139488 288.29632505774498 174.6244914829731 175.80032888054848 169.05967372655869 223.93177199363708 329.27219405770302 186.46626123785973 344.59099680185318 318.34355452656746 183.69889545440674 193.54076746106148 314.9217591881752 175.74804469943047 235.5482189655304 349.89992094039917 204.24216574430466 179.70550748705864 162.14227074384689 209.90770891308784 196.74367502331734 698.27905780076981 397.17254611849785
leaf_count=8899 881 726 508 502 733 976 655 843 504 504 520 632 981 518 964 962 519 548 947 501 719 975 566 549 501 580 608 1929 1227
internal_value=0 -0.0172512 0.0270963 -0.00558295 -0.000554572 0.0323336 0.012615 0.00768756 0.0129879 0.0174379 -0.0217774 0.0249277 -0.00967698 0.0358234 0.0272562 -0.0159166 0.021307 0.0229135 -0.016522 0.0176394 -0.0227888 0.0316544 0.0380625 -0.0202953 -0.023079 0.038579 -0.0224094 0.0388539 -0.0227621
internal_weight=0 6290.62 3999.74 1758.18 1204.52 2937.39 1062.36 632.776 462.921 761.888 4532.45 940.854 571.741 1996.53 762.064 667.109 535.247 417.473 553.66 351.548 3865.34 697.636 1298.9 348.765 3629.79 1112.43 756.058 908.187 559.315
internal_count=30477 19221 11256 5236 3563 8196 3060 1849 1347 2179 13985 2652 1714 5544 2144 2031 1524 1180 1673 1005 11954 1951 3593 1069 11235 3075 2336 2509 1728
is_linear=0
shrinkage=0.024


Tree=13
num_leaves=43
num_cat=0
split_feature=719 719 714 254 110 719 714 714 719 714 714 714 39 135 714 719 670 714 719 132 231 51 23 584 418 719 719 636 630 523 636 636 523 540 714 405 710 713 670 694 618 571
split_gain=1408.64 2361.88 384.047 362.316 253.083 211.916 186.615 179.377 110.234 96.8347 94.2079 93.4111 75.3961 67.9422 65.6495 46.7701 45.6692 39.5155 38.0005 33.5055 33.4352 28.3581 46.3461 23.2935 21.7529 21.0516 17.8711 17.1017 16.6713 13.9328 12.6859 12.6783 7.92874 7.47803 5.92947 5.17936 4.8312 3.11741 2.16193 1.77421 0.565016 0.267166
threshold=-12.008234523022807 13.661750907587377 57.956201533704039 0.37886461106158975 -0.46159117654822918 -6.6599646637123326 43.775750566387835 55.700053849730942 7.1238774269680745 53.085336898550409 54.553745560460534 49.010389710214291 9.9023427649576892 -20.843831842196789 47.857958515485336 8.3156532198645348 -88.728513189960111 63.053101422767703 -2.8563463226206132 -30.980651866439636 -18.755831605801003 -0.001456083751705689 0.0009918921002662355 -27.84615945446868 -27.514889133658379 19.776463131458446 18.986557293367216 51.24710027362719 0.23341585849986332 -106.4205367640955 51.849944461798479 49.948601833531789 141.59819937274793 50.903483371349758 41.414896908583707 8.3333333333333357 0.10372133054660539 -12.809917355370446 121.4948549870645 -0.18149999999999974 38.34158945999939 152.17310978512424
decision_type=2 2 2 2 2 2 2 2 2 2 2 2 2 2 2 2 2 2 2 2 2 2 2 2 2 2 2 2 2 2 2 2 2 2 2 2 2 2 2 2 2 2
left_child=6 3 9 4 11 14 16 12 -9 -3 19 -2 15 -8 31 18 33 26 24 -5 -13 -20 27 -14 -7 -11 -4 -23 -21 -15 -10 -6 -28 34 39 -30 37 -19 -39 40 -1 -38
right_child=1 2 17 10 5 7 13 8 30 25 -12 20 23 29 -16 -17 -18 36 21 28 -22 22 -24 -25 -26 -27 32 -29 35 -31 -32 -33 -34 -35 -36 -37 41 38 -40 -41 -42 -43
leaf_value=-0.022837166542929999 0.011932430159790786 0.016213645484751016 -0.009056274599413508 0.021223566486813214 -0.015705286800000339 0.013344695871482374 0.0086965378887285619 0.011182816155069383 -0.0043853605353571913 0.00052239620011033364 0.013515524537894407 0.035507719999453111 0.030412450698147117 -0.014011286044475778 0.0063031809749701647 0.0024076610664789592 -0.010653777172226726 -0.016625230787453989 0.023145246365285917 0.02693970718932176 0.023506553259139241 0.01392544329046363 0.022643925986764939 0.018241072118567209 0.0014347469456337306 -0.009824301469297669 -0.013915195713241601 0.0044040987987944234 0.037546222532005812 -0.0044339410604453304 -0.013533815064777346 -0.0066422600595727006 -0.020043438479006314 -0.0161467929338939 -0.017232662801504053 0.03267188561913871 -0.021693909876067195 -0.018254746509516633 -0.021710460337693048 -0.020327756094653471 -0.021396246619363391 -0.022833058288426286
leaf_weight=798.44307422637939 279.06506726145744 206.34707528352737 268.3823629617691 186.98622578382492 190.18629613518715 179.5045522749424 180.49794170260429 281.38498097658157 173.21418875455856 294.59051260352135 245.92593973875046 248.40840202569962 190.04685690999031 182.75498008728027 180.10413113236427 227.66282206773758 293.01191967725754 161.70068243145943 278.2665499150753 209.56477999687195 290.05911228060722 228.78561225533485 234.03174960613251 173.31646639108658 174.01119744777679 183.98073941469193 262.06935551762581 207.12561053037643 241.26789402961731 168.030557513237 176.24628400802612 167.18948256969452 227.63279604911804 166.76944291591644 164.71743255853653 264.92411106824875 178.82597482204437 161.35097765922546 301.48128879070282 265.7201244533062 203.17362952232361 437.17047715187073
leaf_count=2516 820 606 819 538 580 524 537 825 522 885 724 710 546 559 531 674 893 505 804 598 839 667 679 503 513 561 807 606 685 508 535 505 709 516 513 757 562 500 946 831 638 1381
internal_value=0 0.00514168 -0.0130386 0.0148463 0.0113399 0.0081715 -0.0158363 0.0110858 2.06902e-06 0.00247044 0.0266858 0.0232029 0.0147798 -0.00326749 -0.00551131 0.0124447 -0.0193659 -0.0183537 0.0141999 0.0302734 0.0290434 0.0167039 0.0140281 0.0246076 0.00748294 -0.00345476 -0.0140358 0.00940187 0.0326373 -0.0094243 -0.00899996 -0.011466 -0.0167643 -0.0209623 -0.021523 0.0349956 -0.0209921 -0.0195018 -0.0205063 -0.0220804 -0.0225451 -0.0225027
internal_weight=0 7710.81 2683.53 5027.28 3878.61 3061.08 2423.12 2523.6 630.845 684.918 1148.67 817.533 1892.75 531.283 537.48 1529.39 1891.84 1998.61 1301.73 902.743 538.468 948.21 669.943 363.363 353.516 478.571 758.085 435.911 715.757 350.786 349.46 357.376 489.702 1598.82 1432.05 506.192 1240.53 624.533 462.832 1267.34 1001.62 615.996
internal_count=30477 22966 8281 14685 11383 9014 7511 7398 1882 2052 3302 2369 5516 1604 1616 4467 5907 6229 3793 2578 1549 2756 1952 1049 1037 1446 2335 1273 2040 1067 1057 1085 1516 5014 4498 1442 3894 1951 1446 3985 3154 1943
is_linear=0
shrinkage=0.024


Tree=14
num_leaves=26
num_cat=0
split_feature=719 670 709 698 706 698 694 706 231 149 231 719 698 706 703 472 698 30 713 698 709 694 387 698 587
split_gain=9610.42 644.351 334.988 161.191 173.87 122.297 79.3804 67.7708 78.3863 42.5661 48.2188 35.146 33.4398 25.2274 22.7214 22.0566 19.4255 11.5629 10.5546 7.64669 3.04221 1.44456 1.07597 0.955781 0.279775
threshold=-5.1521362814296481 -80.338810962950205 0.0037327143297574143 51.690819004022437 9.2848723179957506 51.475712172659264 -0.078999999999993506 -1.0000000180025095e-35 5.3216824348568714 -0.70150000000000989 7.1714483698975373 2.5871197388983727 48.827595336492813 -47.476400234753335 -0.0011702806088818251 -0.027797761880421486 49.372093187328709 0.01924873743876232 -69.135802469133651 47.443058355260064 0.012957965449601263 -0.18749999999999997 0.0013325444651635686 49.544212467210464 -70.535452194925611
decision_type=2 2 2 2 2 2 2 2 2 2 2 2 2 2 2 2 2 2 2 2 2 2 2 2 2
left_child=1 6 5 4 9 7 12 8 -2 -3 13 16 18 -11 -8 -9 -4 -7 21 -13 -21 22 24 -22 -1
right_child=2 3 11 -5 -6 17 14 15 -10 10 -12 19 -14 -15 -16 -17 -18 -19 -20 20 23 -23 -24 -25 -26
leaf_value=0.041762354514324321 0.012615803999387396 0.013430159937576297 -0.0081450176213734952 -0.0053816120441827226 -0.00052376198602328741 -0.013320275826411028 0.032161190573895354 -0.016046040273353528 -0.0084710218431342868 0.036050964826505293 0.017309067425182015 -0.016838171649758087 0.030512715080239703 0.024848613214147174 0.021406278507062095 -0.0039847269042898531 -0.018810415521717479 -0.02175266140275299 0.035299223350229489 -0.019640686302805351 -0.020971659876875635 0.039470227843335232 0.039525699646195504 -0.022435571744443317 0.040680937410220469
leaf_weight=885.72829866409302 270.25456768274307 170.60839477181435 160.3461018204689 176.5757962167263 203.75956916809082 162.4311603307724 327.550706833601 160.58335879445076 162.64006969332695 263.12792003154755 211.1980519592762 160.5485677421093 230.94294962286949 207.17154625058174 173.13415372371674 191.60044065117836 254.88734382390976 221.94482937455177 221.07867667078972 257.86474630236626 281.04292541742325 327.01781004667282 177.77528896927834 3843.9949059784412 187.67544341087341
leaf_count=2501 816 502 502 537 619 510 941 500 503 763 623 511 667 613 506 595 814 706 631 826 902 928 503 12427 531
internal_value=0 0.0300733 -0.0186528 0.0158418 0.0193913 -0.00709792 0.0370034 -0.00166696 0.00469285 0.0241538 0.026838 -0.0213778 0.0391144 0.0311167 0.0284427 -0.00948494 -0.0146925 -0.0181899 0.0402184 -0.0219888 -0.0221774 0.0409073 0.0412827 -0.0223359 0.0415735
internal_weight=0 3763.34 6128.14 1232.44 1055.87 1169.45 2530.9 785.078 432.895 852.106 681.498 4958.68 2030.22 470.299 500.685 352.184 415.233 384.376 1799.28 4543.45 4382.9 1578.2 1251.18 4125.04 1073.4
internal_count=30477 10865 19612 3657 3120 3630 7208 2414 1319 2501 1999 15982 5761 1376 1447 1095 1316 1216 5094 14666 14155 4463 3535 13329 3032
is_linear=0
shrinkage=0.024


Tree=15
num_leaves=32
num_cat=0
split_feature=719 719 683 671 716 658 183 680 26 715 716 62 158 26 423 719 716 697 667 680 683 712 716 370 14 719 709 707 690 390 426
split_gain=7722.3 637.014 523.38 209.097 169.434 101.805 93.4221 87.8617 48.8026 43.2944 42.8398 37.695 37.6353 56.6988 25.3516 24.0815 22.079 19.0391 17.8849 15.5166 13.3718 10.2054 8.82898 5.4037 4.62539 2.86164 1.29616 1.22182 1.32716 0.251287 0.102869
threshold=7.930189123789833 0.69486609039804514 -53.73896497268651 17.815191290878186 50.510369350464693 27.113711626912842 9.8212568278156738 107.73763004411187 48.638773290852583 105.99574045908561 49.894203299364285 0.13507307737907395 0.47404688475063866 48.34789830343334 15.853899797010715 13.661750907587377 59.923926876545856 -0.067099113100326749 -34.886203652083118 44.493759042048943 -37.38528247874239 -0.0051587542664179855 51.494571731686271 124.25797690918078 0.89774374947331415 -4.4020906329319391 0.093395335761030665 -0.014573890681987221 49.845232221436355 0.21107310728156023 50.121486673985537
decision_type=2 2 2 2 2 2 2 2 2 2 2 2 2 2 2 2 2 2 2 2 2 2 2 2 2 2 2 2 2 2 2
left_child=1 10 5 7 18 -2 8 12 -6 -7 21 -10 13 -4 -8 -9 20 25 -3 -15 -5 27 -19 -22 26 -12 -18 29 -29 -1 -31
right_child=2 4 3 16 6 9 14 15 11 -11 17 -13 -14 19 -16 -17 24 22 -20 -21 23 -23 -24 -25 -26 -27 -28 28 -30 30 -32
leaf_value=-0.022203098285845928 -0.0057886690292119226 -0.020712573970558635 0.0092736843897541117 0.026289712381887816 -0.0024032572775277605 0.0078301142859697054 -0.0015897333719378582 0.024469048987902878 0.018107209129651521 0.022652185072735566 -0.02209117751960487 0.003602711712817458 0.0078163092840673656 0.019436183518529649 -0.013651804545823706 0.034190962888537978 0.035941213332991273 -0.015950154090037406 -0.011323538331536296 0.028273268443451259 0.030571007477301498 -0.017581565711534772 -0.0084940520922887099 0.035657620260819076 0.033214354423756129 -0.017835152201184853 0.037763766322453506 -0.022633784406631774 -0.019951325897590591 -0.023030140952616445 -0.022395846978812649
leaf_weight=274.88300198316574 240.69349393248558 199.88462275266647 195.31531342864037 222.91731491684914 183.97892710566521 308.6953122317791 229.5948840379715 278.96573442220688 260.44502118229866 179.59580266475677 185.70170533657074 171.02174711227417 180.96426191926003 194.47023078799248 178.38552716374397 310.33720910549164 349.00330823659897 184.66529476642609 281.82870787382126 279.0178130865097 218.35424634814262 233.74098291993141 181.68805623054504 270.97080081701279 209.20541679859161 180.4821397960186 675.62504637241364 273.81782621145248 177.46501943469048 2762.7799637019634 186.49573081731796
leaf_count=862 714 611 559 621 541 892 680 784 752 504 577 500 518 552 539 858 957 564 849 782 603 720 547 748 576 553 1847 855 553 8673 586
internal_value=0 -0.0170509 0.0254319 0.0294043 -0.0034829 0.00698514 0.00204135 0.0224674 0.00794534 0.0132822 -0.0214505 0.0123586 0.0175283 0.0201558 -0.00686435 0.0295892 0.0345338 -0.016123 -0.01522 0.0246442 0.0311669 -0.0224487 -0.0122531 0.0333883 0.0364772 -0.0199942 0.0371432 -0.0227582 -0.0215795 -0.0229231 -0.0229901
internal_weight=0 6146.86 4114.13 3385.15 1505.14 728.985 1023.43 1439.07 615.446 488.291 4641.72 431.467 849.768 668.803 407.98 589.303 1946.08 732.537 481.713 473.488 712.242 3909.18 366.353 489.325 1233.83 366.184 1024.63 3675.44 451.283 3224.16 2949.28
internal_count=30477 18962 11515 9405 4472 2110 3012 4053 1793 1396 14490 1252 2411 1893 1219 1642 5352 2241 1460 1334 1972 12249 1111 1351 3380 1130 2804 11529 1408 10121 9259
is_linear=0
shrinkage=0.024


Tree=16
num_leaves=42
num_cat=0
split_feature=719 719 714 350 706 158 719 719 706 706 39 714 5 698 706 716 446 158 714 99 683 87 204 706 719 174 652 719 691 44 132 706 518 622 705 668 243 569 714 352 543
split_gain=1352 2244.31 372.376 342.806 232.145 226.943 202.879 271.852 115.287 92.4102 83.436 83.3204 76.951 76.3225 76.125 73.118 45.1216 43.7665 38.9087 36.1479 27.6005 27.1576 25.8274 23.8058 26.326 17.8793 17.6485 17.463 14.3432 13.6176 11.152 9.35076 7.81805 5.77932 4.83507 2.68563 2.51269 1.14719 0.967912 0.386146 0.129218
threshold=-12.008234523022807 13.661750907587377 57.956201533704039 0.4050850778571144 -30.883436869441557 -0.48121990061577274 -6.6599646637123326 7.930189123789833 44.055710064367311 30.064980884000519 8.4084296832590066 49.010389710214291 -0.18149999999999974 48.827595336492813 18.027945301081729 48.604219240397541 -0.085475560313900259 0.17325194333625055 63.053101422767703 0.002044098612865339 -43.983221943747502 -23.827068800347742 50.012779569135823 69.826340415904937 -2.3351965022507177 0.087091634537305992 0.63124775735306382 18.986557293367216 28.333333333333339 47.262570820631908 -42.543570097259931 -65.125118292267942 0.078623627948204003 -106.06576011502789 0.24900000000000946 59.124888726335733 -0.0032794563192331074 -13.14553990610138 39.488873024802551 -24.999999999999996 55.70005883714942
decision_type=2 2 2 2 2 2 2 2 2 2 2 2 2 2 2 2 2 2 2 2 2 2 2 2 2 2 2 2 2 2 2 2 2 2 2 2 2 2 2 2 2
left_child=4 3 9 5 13 11 15 10 -9 -3 12 -2 16 20 25 29 -8 23 27 -12 31 -13 -10 24 -14 28 -11 -4 -5 -7 -26 33 -29 38 -20 -36 -35 -37 39 -1 -39
right_child=1 2 18 14 -6 6 7 8 22 26 19 21 17 -15 -16 -17 -18 -19 34 -21 -22 -23 -24 -25 30 -27 -28 32 -30 -31 -32 -33 -34 36 35 37 -38 40 -40 -41 -42
leaf_value=-0.02261865151668745 0.011857525075005364 0.016811523019619527 -0.0088661830898552028 0.021925397476356533 0.0078821676994506942 -0.0052075804695627757 0.026649292732762647 0.014316702214118694 -0.0012301070646551489 0.0022148659903152221 0.018336796602286883 0.035136823356562576 0.0021538163766259013 -0.0064326490657950885 0.015133057714188504 0.0083752581001738224 0.012498669757361828 0.019296227873643806 -0.016870671240774428 0.031864002350587999 -0.010293208627802338 0.023910642073515353 -0.012544425402712434 -9.2553932554120276e-05 0.0086161456269054065 0.034576338299205894 -0.0069072960748975953 -0.012897654378077593 0.030621744874279024 -0.01425050119129909 0.016646962224626888 -0.01535898565245886 -0.019086089532164296 -0.016341650036032305 -0.018668224609554574 -0.020631091818074019 -0.020295168005176029 -0.021881777307811375 -0.020586104034475899 -0.021370709626497349 -0.022727241528705686
leaf_weight=766.56330254673958 260.836320489645 187.21095752716064 266.93129822611809 178.25422322750092 220.27904781699181 168.19396823644638 294.41067025065422 180.90803596377373 191.05168417096138 214.95980226993561 244.89421656727791 210.6495595574379 205.22269043326378 286.86390441656113 250.18184894323349 172.72100627422333 232.28919321298599 196.26201894879341 162.3044627904892 212.76415905356407 163.59928178787231 302.81789341568947 296.85713997483253 219.12567737698555 194.49245247244835 331.30370861291885 282.88499161601067 201.68509900569916 283.33134111762047 223.54639580845833 204.53469970822334 175.82075771689415 283.19184070825577 160.33083549141884 182.55080673098564 289.78041437268257 222.41568124294281 165.89510694146156 218.12901479005814 186.05210703611374 423.82555150985718
leaf_count=2450 763 543 819 506 650 508 844 525 575 648 702 595 602 875 731 508 673 565 509 607 506 866 900 645 564 930 861 627 800 684 592 546 889 503 575 924 697 530 691 593 1356
internal_value=0 0.00502808 -0.0128107 0.01442 -0.0155972 0.0112329 0.008441 0.0112021 -0.00204676 0.00243694 0.0156239 0.0229051 0.0129594 -0.01797 0.0266774 -0.00463264 0.0204089 0.00911107 -0.0180965 0.0246261 -0.0197183 0.0285166 -0.00811454 0.00668301 0.0091405 0.0303197 -0.00296804 -0.013798 0.0272639 -0.0103685 0.0127332 -0.0206098 -0.0165125 -0.0212039 -0.0207358 -0.0213262 -0.0186397 -0.0218777 -0.022042 -0.0223752 -0.0224898
internal_weight=0 7715.87 2661.22 5054.65 2400.05 4011.58 3237.27 2672.81 668.817 685.056 2004 774.304 1546.34 2179.77 1043.07 564.461 526.7 1019.64 1976.16 457.658 1892.91 513.467 487.909 823.376 604.25 792.889 497.845 751.808 461.586 391.74 399.027 1729.31 484.877 1553.49 1224.36 1062.05 382.747 879.501 1170.74 952.615 589.721
